358 64
17 0.30355534 0.2730974 -0.45760816 -0.072595075 -0.15389203 0.13728555 0.38499144 0.36229265 0.044011097 -0.2186795 -0.14428483 0.22304454 -0.09383372 -0.2158383 0.1481681 -0.42601666 0.23739254 -0.03598545 0.0602294 0.13755274 0.35141093 -0.7702938 -0.21816434 0.024844674 0.098297104 -0.30251822 -0.52832144 0.01457563 -1.0681252 -0.41022885 -0.34400544 -0.28748512 0.2745611 -0.045271177 -0.085375026 0.51491785 0.6223893 0.17788614 -0.69489 -0.31158942 -0.35673484 -0.10686445 0.35511976 1.3538437 -0.4673229 0.07462286 0.18474132 0.7900796 -0.1980693 -0.45065022 0.23763579 0.45749375 -0.12223156 0.51020515 -0.028885169 0.044258635 -0.8091807 -0.07922357 -0.13287354 -0.81587285 0.5036994 0.69516134 -0.019773096 0.013813238
100 0.3316848 0.46973506 -0.49765155 0.020050291 -0.25897548 0.07685887 0.5259131 0.16291443 -0.09016345 -0.17254099 -0.08034465 0.22074832 -0.15179603 -0.22939068 0.21574737 -0.102241084 0.19420443 0.040296797 0.108891286 0.11139403 0.23739819 -0.49348727 -0.12723544 -0.15768161 0.12972404 -0.2993353 -0.78608614 -0.14727695 -1.0211698 -0.38184425 -0.24291152 -0.3150032 0.3810398 -0.14517967 -0.02315381 0.6662025 0.70649266 0.184978 -0.8301906 -0.24928634 -0.38609022 -0.33973166 0.25500742 1.4850003 -0.34141728 0.14789057 0.23566513 0.82145613 -0.32747352 -0.29727253 -0.03648548 0.5158211 -0.17632361 0.5323575 0.13538444 -0.040833935 -0.67385066 0.0057535283 -0.05242402 -0.9335551 0.5328517 0.17375875 0.0137114385 -0.1843618
19 0.06470882 0.43310514 -0.038809214 -0.5099253 0.13420871 -0.06997583 -0.1824819 -0.32595018 -0.005806484 0.05975746 -0.33470905 -0.24770637 0.04975323 0.10099877 -0.8980231 -0.057896335 0.013858988 0.37616372 0.21511464 0.21076651 -0.45273504 -0.32358307 -0.051190756 0.24422622 -0.13860938 0.2016182 0.08480344 0.094266154 -0.44481266 0.52000743 0.10760614 -0.39796296 0.17545381 -0.35450378 0.47670054 -0.06802022 0.3229196 0.0032977397 -0.586644 -0.3129764 -0.050975 -0.7202097 0.6809031 1.2075078 -0.31887653 -0.505334 0.5097715 1.2239276 0.25986233 -0.39278647 -0.41074413 0.6953955 1.0372086 0.60297006 -0.05065745 0.35664603 -0.7864735 -0.0040196893 0.2617934 0.0025552476 -0.82488626 -0.015754469 -0.43058997 0.21826491
197 0.22440828 0.30639574 -0.38748932 0.0052218437 -0.121244945 -0.10827991 0.43573087 0.07259461 0.1309344 -0.115266226 -0.14035197 0.3243253 -0.20623621 -0.33793712 -0.009770638 -0.51136833 0.066773 0.020496812 0.14241484 0.04565203 0.150732 -0.74337536 -0.069778845 -0.13072418 0.2705115 -0.3496426 -0.6593277 0.15769088 -0.98375577 -0.523374 -0.27825952 -0.30815297 0.310981 -0.08324643 0.08357686 0.7100583 0.6212317 0.1730554 -0.82798004 -0.31513876 -0.29954252 -0.24458821 0.24313837 1.4126878 -0.5706564 0.20103818 0.17588429 0.54263943 -0.38267308 -0.4901225 0.19746006 0.5187872 0.024493463 0.6111346 -0.05777841 -0.1213451 -0.6940565 -0.08570161 -0.13352032 -0.8622201 0.54264736 0.48318627 0.08252837 -0.04010143
333 0.059013184 0.36998546 -0.26499224 -0.06607532 -0.28822872 0.25767332 -0.71625227 0.64377195 -0.028348146 -0.16800462 -0.17844369 0.5706407 0.06367046 0.10749472 -1.1080676 -0.7473912 -0.0010628054 0.12471489 -0.08184328 0.64094764 -0.12714206 -0.35670257 -0.13867162 0.19082896 0.25882402 -0.2646573 0.29112378 -0.1568718 -0.9442543 -0.31372175 -0.9121359 -0.6096842 0.32067865 -0.8441044 -0.02182551 0.43810838 0.029117256 -0.42052126 0.12626758 0.67708486 -0.30423006 -0.46657565 0.044047333 0.45721802 -0.049167994 -0.317886 -0.12620282 0.83952224 0.10560747 -0.14205186 -0.3513448 0.48663086 0.87427247 0.3350371 0.14778282 0.32007793 0.031833272 -0.42294216 -0.6288503 -1.1403692 0.0073568313 -0.51388824 0.47957987 0.41255224
9 0.09831708 -0.093934 -0.22102717 -1.2403886 0.0142995 0.15962428 -0.4840563 0.153392 -0.8924691 -0.5332275 -0.28204364 -0.21919487 0.05724947 -0.7951863 -0.60219574 -0.14175409 0.16918992 0.51510197 0.54037714 0.7238306 -0.45598164 -0.8101517 -0.0032587978 -0.39264947 0.44785905 -0.4499744 -0.63343424 -0.19811375 -0.3146923 0.21361054 -0.21571891 -0.046845045 -0.031079264 -0.7250101 0.36161935 -0.4910205 0.23874253 -0.532698 -0.83455265 0.10566933 -0.5360596 0.2040193 0.34945408 0.69486135 0.17191826 -0.044276834 0.13054296 0.4882804 0.288311 -0.13286804 0.56646484 -0.30922052 0.13171892 0.8904374 -0.46619728 -0.23532985 -0.90108514 0.0049288655 -0.27907544 -0.8727186 -0.09956974 -0.6909718 0.26660916 0.254517
161 0.6867523 0.36466172 -0.46748695 -0.08597897 0.2506228 -0.16155843 -0.20029242 0.5367911 0.5530139 -0.46483067 0.82816064 -0.095687896 0.14483583 -0.23412192 0.0014085583 -0.506851 0.29909825 1.0891305 0.7381019 0.2537054 -0.1570516 0.11114782 0.04496815 0.10907799 0.70156205 -0.103397205 -0.3066609 -0.057701588 -0.6628623 0.68785304 -0.7688477 0.2196463 -0.25556746 -0.14569409 -0.15038519 0.048524316 -0.30210194 0.004356231 -0.33808205 0.17795199 0.6721712 -0.65302396 -0.2718224 1.30286 -0.23647495 -0.42034826 -0.28604797 0.7529253 0.13976647 -0.09083331 0.22867288 0.17490637 0.58054245 0.57365793 -0.34342846 -0.17192996 -0.65931493 0.3925737 0.21126963 -0.4811248 0.094710745 -0.36383897 0.30290896 0.6519138
177 0.48731574 0.52708083 -0.18541582 -0.1833897 -0.18058118 0.2525318 0.35444185 0.4371158 -0.121308565 0.07259677 -0.02174125 -0.07402392 -0.01700686 -0.3520895 0.27805164 -0.21503326 0.28665423 -0.38200602 -0.029109027 0.33643308 0.0030904412 -0.8963218 -0.26618722 0.25328973 -0.05739606 -0.7121861 -0.11912117 -0.15614115 -1.0959553 -0.4979577 -0.14405991 -0.44465294 0.15730944 -0.1791144 -0.4148879 0.38371375 0.103574134 -0.038244154 -0.76979136 -0.50923556 -0.16625005 0.081212975 0.071571894 1.4568521 -0.5080504 -0.290732 0.26764223 0.9206553 -0.22264597 -0.70631 0.59331304 0.32493973 0.29202154 0.23279496 -0.2033601 -0.16458175 -0.44087747 0.068525106 -0.31055018 -0.560327 0.4273476 0.4367486 -0.026969872 0.29037687
103 0.24122308 0.1973242 -0.4506784 -0.113534674 -0.2357299 -0.0104906745 0.27783412 0.26150414 -0.11915655 -0.178999 -0.0909053 0.19544116 -0.23941953 -0.45237404 -0.032806564 -0.36069053 0.21640259 0.14789386 -0.055856593 -0.071569905 0.27354252 -0.6446655 -0.06021085 -0.03160836 0.2965497 -0.28785348 -0.43458268 0.14626975 -1.0074954 -0.57840604 -0.21107014 -0.35195276 0.14580052 -0.09470321 -0.20326126 0.6856579 0.5544036 0.15789534 -0.7678322 -0.103153236 -0.18775824 -0.43991244 0.13755475 1.3976707 -0.57017505 0.1483615 0.24310738 0.70069146 -0.17436908 -0.61802083 0.3939114 0.41157225 -0.15138948 0.6951511 0.16471641 -0.008269593 -0.72419566 -0.06303029 -0.21030502 -0.78539735 0.5417257 0.65072364 -0.1864618 -0.122885
191 0.16932194 0.81373 -0.055624753 -0.5934235 0.52286816 0.1806388 -0.49591625 0.6801684 -0.55444866 -0.059894465 -0.28392133 -0.74234575 0.077473976 -0.48264045 0.3811897 -0.33049077 -0.34010342 -0.20203362 0.2591646 0.09901934 -0.2869506 -0.8911738 -0.7265206 -0.21770264 0.16554226 0.5924993 0.020943532 -0.48101422 -1.0987201 -0.29381466 -0.3744735 -0.58853644 0.22026129 0.32572833 -0.66335267 0.10480794 -0.35093707 -0.2356808 -0.3386831 -0.31478402 0.32721165 -0.09886495 0.30545148 0.8328564 -0.012768954 -0.25238833 -0.20736796 1.0573 0.18732779 -0.38844568 0.44322374 0.16697332 1.1461142 0.5985522 -0.7371401 -0.46402767 0.07134315 -0.13855337 -0.6073908 -0.48988158 -0.17757201 0.17033702 -0.292323 0.68581957
10 0.10331036 0.32096785 0.16688162 -0.61710376 0.8743209 -0.020143948 0.16955566 0.7136402 0.11077319 -0.53170943 -0.2920555 -0.14741479 0.059521846 -0.61020267 -0.3822074 -0.71661144 0.29566082 0.030495685 -0.0076141683 -0.17177513 -0.15855753 -0.86926675 -0.47043213 -0.7018734 0.45679834 0.4219762 -0.6896983 -0.5107954 -0.90141004 -0.21053919 -0.30228096 -0.40803143 0.26890615 0.120246165 -0.4996075 -0.0041209925 -0.18943913 -0.5440791 0.2398544 0.11790574 0.18746139 -0.37135047 -0.21866854 1.1766511 0.34860247 -0.06337246 -0.24116899 0.49936166 0.29377857 -0.20917709 -0.7949267 0.6099641 0.33921042 0.074757665 -0.80552006 -0.15812603 -0.6792702 -0.34828037 -0.341009 -0.4637874 -0.6646463 -0.40533438 -0.7947085 -0.082259096
329 0.3120097 0.36747274 -0.5415358 0.02838922 -0.3151918 0.009228932 0.21861817 0.41006696 -0.011965647 -0.30820858 -0.13743386 0.44487408 -0.10353963 -0.46064162 -0.027029468 -0.4067696 0.11743454 0.009038306 0.13235597 -0.08323724 0.30925608 -0.73848635 0.07270203 -0.1791315 0.22849737 -0.26945543 -0.36826926 -0.013984764 -0.6103045 -0.49077535 -0.17686112 -0.2944218 0.053635027 -0.1826383 0.052588146 0.60536057 0.6128346 0.29902828 -0.6962342 -0.28545573 -0.34695256 -0.23143922 0.3863526 1.554933 -0.38580647 0.16979897 0.19033809 0.7257955 -0.16028288 -0.3338612 0.19797878 0.46287444 -0.04429828 0.53252757 -0.0134685775 0.018991698 -0.7848765 -0.085477605 -0.15075512 -0.8796619 0.70037323 0.76977223 -0.123171136 0.014194705
338 0.25462946 0.18775804 0.0890814 -0.3342451 1.0186317 0.21398553 0.11960915 0.5004013 -0.068016976 -0.6409388 -0.16849154 0.67707634 0.19783807 -1.1509348 -0.6310526 -0.688724 0.4819313 0.00856791 0.10912134 -0.018535025 -0.2656238 -0.34686318 -0.63152164 -0.42337835 0.32312754 -0.049618557 -0.76412374 -0.55720085 -0.44233614 -0.26815462 -0.14898142 0.040726863 0.113992974 -0.13266166 -0.44585815 0.17328066 -0.13823578 -0.4461855 0.07498213 0.28745887 -0.11891476 -0.36586815 -0.1575103 1.5109522 0.40856114 -0.34836906 -0.15879405 0.20233278 0.5114393 -0.530376 -0.6427126 0.46035448 0.5077759 0.21411571 -0.10270764 -0.0836075 -0.75789934 -0.529326 -0.08165165 -0.08653196 -0.7246748 -0.21864273 -0.40720198 -0.23961982
312 0.012107227 -0.046043202 -0.18494676 0.07504855 -0.20908727 -0.2321923 -0.151617 0.3942725 -0.20257543 -1.0661447 -0.3373468 0.023140104 0.11871743 -0.21813564 -0.2579068 -0.939728 0.39688247 0.30526116 0.3306726 -0.6529426 0.13212731 0.08233851 0.226851 -1.0115085 0.48337737 0.16078071 0.10776725 0.23478386 -0.24977304 0.0179814 -0.6882367 -0.77041554 0.018155105 -0.669205 0.13504946 0.49617457 0.29254755 -0.031387944 -0.56111425 -0.1729305 -0.7423734 -0.6417252 0.7643774 1.2609428 -0.04807555 0.47837186 -0.03238374 0.46419105 0.10952081 -0.84206885 0.21653831 0.5434611 0.22760801 0.41450444 -0.25693476 0.28914574 -0.5299212 0.61417973 -0.34712175 -0.56949276 0.26172185 0.4596877 -0.36862317 0.52561843
116 0.027076477 0.11221529 0.52679247 -0.7362118 -0.30145782 0.15154015 -0.82186186 0.25519183 -0.06894617 -0.28616917 -0.23362435 0.07679898 0.2713645 -0.3886779 0.28343716 -0.50017637 0.27376783 0.23390572 0.004220297 0.27801326 -0.36808947 -0.34234038 -0.10909111 -0.0057968553 0.5655533 0.4329333 -0.16418679 0.34705743 0.094462074 -0.1062697 -0.6370116 -0.9262327 0.6551312 -0.131117 -0.7845291 0.2743437 0.7167758 -0.50176775 -0.7207352 -0.20892708 0.62818354 -0.6634164 0.34695202 1.6657734 0.15004764 -0.22952324 0.16078776 0.5191241 -0.003297503 -0.2797225 -0.12011869 0.050671667 0.20418233 -0.17669217 -0.30236325 0.32984206 -0.6199738 -0.21707097 0.09209994 -0.37512898 -0.34178394 -0.42280614 1.3652216 -0.0063111875
357 0.36258087 0.46164748 -0.37828043 0.17094114 -0.112178914 0.17043409 -0.4620635 0.25431183 -0.5784551 -0.52942246 -0.084796555 0.46102685 0.36868742 0.05469742 -0.755653 0.011787486 -0.14736441 0.28123653 -0.6697288 0.50134027 0.20771468 -0.3506602 0.14798877 -0.31589985 0.41593775 -0.14511165 -0.24241363 0.17885873 -1.0513365 0.05942019 -0.79734147 -0.49352854 0.3565578 -0.83853745 0.053135883 0.63757575 -0.5128049 -0.39072928 -0.1061501 0.377002 -0.35503417 -0.70697737 0.17600887 0.8313399 -0.0050098696 -0.77760273 0.22546642 0.60003006 -0.24968174 0.1174817 -0.26215997 0.16598237 0.4854693 0.24804635 -0.40322372 0.20914464 -0.15776096 -0.71051913 -0.7007132 -0.40383038 -0.29834545 -0.29416633 0.5797539 0.67066294
95 0.3924764 0.5954686 -0.27350044 0.35473892 -0.038374502 0.2227796 -0.40829045 0.2366158 -0.5725215 -0.37284452 -0.102732144 0.41653195 0.31984714 0.11278664 -0.8518623 0.0046349014 -0.026467651 0.21917334 -0.61390877 0.38650566 0.22188577 -0.41536486 0.010778798 -0.3117587 0.4078661 -0.14394441 -0.23551057 0.06733046 -0.8673055 0.21569121 -0.8261187 -0.48826197 0.33324403 -0.88761103 0.04049355 0.65277886 -0.39931205 -0.31420654 -0.045944605 0.4319806 -0.49509606 -0.65643525 0.22086793 0.8438011 0.104619734 -0.81402236 0.10395235 0.64012945 -0.17400704 0.19221963 -0.049660213 0.29523924 0.4967399 0.39076284 -0.40255755 0.095628835 -0.1588372 -0.7799867 -0.65829045 -0.50569683 -0.31208974 -0.23951854 0.6262034 0.7071444
242 0.7387895 0.3921738 -0.04815363 -0.83398825 -0.47499794 0.39126757 -0.25351068 0.9122117 -0.5834592 -0.53931266 0.40084928 0.5400453 0.20962474 -0.30093414 -0.52415085 0.46815974 0.7426394 0.36901614 0.23591532 0.3387348 0.11039379 -0.55540794 -0.24431148 -0.6106205 -0.019945633 0.79658276 0.12838866 -0.30025005 -0.47116467 0.521749 0.26864395 -0.84070665 0.20212959 -0.14886071 0.17723075 0.10020084 -0.31515843 -0.31273437 -0.037510876 0.033741333 -0.12764105 -0.24509308 0.3728201 0.7818904 -0.345439 -0.35365978 -0.41142967 0.79708433 0.18967438 -1.0318394 0.1699483 -0.1932498 0.05666508 0.5209582 -0.24826898 0.18069679 -0.4162169 0.21165703 0.25224096 -0.68101037 0.14840856 -0.63421106 0.08544431 -0.39680678
243 0.6383428 0.385761 -0.1308516 -0.83216614 -0.42330837 0.25912538 -0.32693347 0.851648 -0.6553657 -0.41756475 0.32667947 0.5237311 0.15462768 -0.4221945 -0.40793774 0.42484415 0.91515005 0.42628977 0.28796858 0.41542768 0.0695005 -0.4144511 -0.39446613 -0.6265085 0.049054056 0.64645195 0.14129747 -0.33769268 -0.54577506 0.5844547 0.21097416 -0.8620114 0.34203947 -0.10550121 0.13342857 0.21031202 -0.34346476 -0.2835485 0.050358627 0.04044387 -0.12436585 -0.3198189 0.45844954 0.68488073 -0.380612 -0.41153696 -0.21545282 0.7918323 0.25862554 -1.1767856 0.12024515 -0.19641308 -0.03107479 0.62367743 -0.2362617 0.13482592 -0.37846336 0.13919671 0.19165914 -0.57700574 0.11356944 -0.6045238 0.17497446 -0.46683842
208 0.7855698 0.33547968 0.012610926 -0.6448741 -0.44047034 0.2668888 -0.17529151 1.0898579 -0.68009716 -0.31842232 0.20274009 0.5760605 0.18230894 -0.37935048 -0.48108467 0.47225687 0.7832049 0.38995808 0.32720792 0.37624317 0.00054596417 -0.49061328 -0.3868722 -0.66179645 -0.02728885 0.679988 0.26974523 -0.32233736 -0.48924866 0.59160316 0.12050644 -0.94159436 0.15739514 -0.069861196 0.25208074 0.32475534 -0.38153318 -0.029927192 0.12005286 -0.1250483 -0.10771918 -0.21152493 0.5275995 0.67873764 -0.16363673 -0.3219599 -0.27728012 0.786974 0.2714244 -1.0090277 0.06602293 -0.16483004 0.052054927 0.51296735 -0.22619073 0.12691823 -0.62880135 0.13425209 0.31928867 -0.6828155 0.011100057 -0.5821324 0.13230495 -0.30650115
64 0.79240614 0.41258106 0.07016883 -0.65256286 -0.3805934 0.2789083 -0.19076385 1.0850695 -0.6589461 -0.4077637 0.26451325 0.5683967 0.1462829 -0.31548458 -0.4205735 0.46984005 0.64659643 0.37680238 0.32935613 0.47738343 -0.05204479 -0.4612428 -0.3268611 -0.609713 0.048217278 0.71633214 0.20385703 -0.38188425 -0.4926537 0.43644172 0.19915959 -0.918166 0.27836806 -0.18563953 0.25716814 0.11334534 -0.42960957 -0.08707092 -0.07233579 -0.057318795 -0.22581118 -0.37883478 0.5065205 0.6791201 -0.1376293 -0.45183745 -0.23078793 0.899935 0.18640944 -1.1053354 -0.082100704 -0.24411787 -0.0786105 0.43743986 -0.23932625 0.10046858 -0.56311184 0.27562234 0.23956357 -0.57965964 0.11609894 -0.60949975 0.18863437 -0.42366034
146 0.75693464 0.34739104 -0.61965865 -0.02437256 0.17581986 -0.33371663 -0.23668346 0.6898929 0.51354563 -0.14772806 0.65944815 -0.04069127 0.15702485 -0.2740704 -0.01067926 -0.55295575 0.29709023 1.1722146 0.88246876 0.18770911 -0.28877416 0.10541718 0.1091661 0.09143147 0.51748526 -0.037411675 -0.22806385 -0.011183407 -0.6131781 0.815115 -0.69613916 0.33429444 -0.12008701 -0.36355907 -0.30363563 0.17764534 -0.3126247 0.12404686 -0.3365287 0.03130442 0.5175805 -0.38290265 -0.3119406 1.3120081 0.042125355 -0.40518725 -0.27130032 0.8324861 0.2616546 -0.2848237 -0.05948486 0.1794155 0.56811714 0.52424335 -0.44349936 -0.31948468 -0.71806663 0.29447505 0.050399277 -0.45789698 0.12382272 -0.28946495 0.49166906 0.6826745
35 0.50169307 0.38478228 -0.18410884 -0.23382704 -0.099399745 0.17034352 0.30722064 0.55040044 -0.10569296 0.11005744 -0.13038363 -0.07386473 0.017726468 -0.32862788 0.36599454 -0.1739459 0.117583916 -0.24940245 0.14560576 0.34427556 0.2948382 -1.1366429 -0.17651252 0.18871245 -0.051756512 -0.60041577 -0.10087168 -0.14556001 -0.9738011 -0.40463492 -0.28518757 -0.39740434 0.13593015 -0.14120494 -0.31412834 0.5288717 0.15936217 0.039713234 -0.8893288 -0.40358692 -0.13524273 -0.10831401 0.10598824 1.4047462 -0.4824817 -0.3077543 0.30149806 0.6237436 -0.31266883 -0.61031944 0.5271676 0.5731242 0.2401233 0.40655717 -0.05997725 -0.0982331 -0.39796767 0.14784025 -0.24023835 -0.794107 0.3558424 0.53519195 -0.054202326 0.029562477
155 -0.22675055 0.016971424 0.062963255 -0.6086786 -0.098787956 1.0702901 -0.32022393 0.25937015 -0.731666 -0.069399014 -0.11376514 -0.05574024 0.8035699 -0.38517776 0.05079033 -0.063595355 0.51600665 0.37196505 0.34764034 0.008052829 -0.9505102 -0.087132476 0.046255324 0.2712393 0.07553193 0.3069639 -0.37874532 -0.30817294 -0.8223779 -0.41304284 -0.24676523 -0.18029284 0.17420435 -0.4917633 0.42654496 0.27533093 -0.28785187 0.16799979 -0.18138833 -0.13212945 -0.18228498 -0.83745855 -0.4040193 0.78347963 -0.013267458 -0.05449123 -0.43933395 0.16586074 0.15712292 -0.45666388 -0.23969755 1.2876215 0.33930075 0.5879325 -0.9703177 0.44875363 -0.7060393 0.13835537 -0.07409074 -0.3776523 0.21661213 0.20389159 0.60158443 0.31546086
70 -0.17964071 0.050944872 0.025815492 -0.5258728 -0.14099845 1.0753002 -0.33153298 0.14692837 -0.7445252 -0.043650597 -0.026765587 -0.053440485 0.6760849 -0.49807164 -0.08848917 0.026506271 0.58806574 0.3565317 0.4620858 -0.034520894 -1.054609 -0.008815779 0.03368411 0.19812073 0.06578342 0.3254202 -0.3742761 -0.2816103 -0.858928 -0.26263118 -0.28090277 -0.22059725 0.14862587 -0.44882023 0.3907098 0.2887535 -0.23643607 0.18350251 -0.07609473 -0.09797769 -0.058721207 -0.7031544 -0.36263844 0.9657732 -0.20172565 0.14912531 -0.37439027 0.08121088 -0.014428925 -0.38610065 -0.11788637 1.3378761 0.37988895 0.64132 -1.0731179 0.4285172 -0.62251973 0.0090745585 -0.31981 -0.28736052 0.08279886 0.16698155 0.573914 0.2299782
252 -0.55125594 0.4623407 -0.072109565 0.18847524 0.080719426 0.9380064 0.22307272 0.7926391 -0.22914624 0.011979792 -0.007747109 0.45068353 -0.07033901 -0.6013612 -0.057084065 0.14487168 0.50156707 -0.11387973 0.8718579 -0.06220927 0.26018465 -0.34188142 0.31375033 -0.15164027 0.48249298 0.10758657 -0.5728307 0.71193534 -0.40460443 -0.122968584 -0.25477573 -0.27359763 0.08467342 -0.3846549 0.13547873 0.35805303 0.38710642 -0.5824581 -0.61873484 0.45986173 0.52807987 -0.267772 0.45816928 0.25496945 -0.06593062 -0.460774 0.23249108 0.83008546 0.11487689 -0.58176047 -0.26340315 -0.023968916 0.66134095 0.3672791 -0.6540912 -0.028160907 -0.5457046 0.3159374 -0.29175594 -0.15507784 -0.5044658 -0.20518802 0.07839271 0.5034812
67 -0.45507777 0.3998098 0.04525559 0.11699151 0.059667114 0.97163093 0.26318356 0.7780675 -0.22486591 0.031443823 0.12651883 0.4203665 -0.092543826 -0.66457826 -0.2877331 0.01749285 0.52462804 -0.17538285 0.82349557 -0.08920857 0.30460492 -0.41276506 0.23381308 -0.1256936 0.34579796 0.14512284 -0.5107755 0.79515266 -0.34718865 -0.0019892922 -0.26224643 -0.17248738 0.01706301 -0.17124687 0.0048193643 0.4459416 0.3989646 -0.48259756 -0.6723901 0.55262434 0.38342258 -0.23551172 0.37451667 0.16202815 -0.02598086 -0.3834017 0.07835089 0.8145092 0.028627327 -0.5647074 -0.13461351 0.10348749 0.67580646 0.45985922 -0.735211 0.064744696 -0.6414389 0.30821198 -0.30462545 -0.23871005 -0.5764802 -0.16824025 0.027233584 0.65329665
349 -0.07121643 -0.2668816 0.6951081 -0.16995144 0.56316507 0.09887623 -0.8139267 1.1880653 -0.81914234 -0.73427576 0.06671541 0.359792 -0.27753842 0.11693079 -0.18419163 -0.7556068 0.17279047 0.54997855 0.08584509 -0.7974707 -0.17926629 -0.041734874 -0.15656479 -0.2524016 -0.30149117 -0.25678396 -0.31048 0.3139034 -0.54512376 0.7595161 -0.5803459 -0.7496296 0.048873875 -0.49356085 0.4236376 -0.019037468 0.28325278 -0.35974938 -0.3873783 -0.61496365 -0.05717748 -0.7921202 0.60392195 0.99246114 0.17116478 -0.108710244 0.15377563 -0.047669746 -0.14844507 -0.8893936 0.08106477 0.47913045 1.0182289 0.1641191 -0.42638832 -0.1546993 -0.45768878 0.069133505 -0.37037984 -0.42346355 0.42161834 -0.4348527 -0.25158283 0.81824636
210 0.2348937 -0.030372135 -0.09547465 -0.15116273 0.66630656 0.40284193 0.05266788 0.3224457 -0.025836054 -0.6628255 -0.154708 0.4417205 0.1210296 -1.024194 -0.6055249 -0.46415928 0.29006767 -0.086009845 0.29428157 0.18594472 -0.13950084 -0.39765084 -0.07175968 -0.008985272 0.12799105 0.21194428 -1.0930042 -0.48499703 -0.526797 -0.012625477 -0.28444338 -0.49867302 0.078127384 -0.4011225 -0.17209129 0.13606986 -0.36385003 -0.0915784 -0.6411189 0.63428974 0.045838032 -0.13927445 0.16757153 1.6615539 0.18983963 -0.41328427 -0.54959095 -0.19470179 0.6152793 -0.8833048 -0.29746515 0.5101932 0.48000047 -0.3306386 0.27485743 -0.011393843 -0.4632491 -0.62879014 0.10860841 -0.12956335 -0.45793524 -0.29564747 -0.32041368 0.0470812
209 0.19958295 -0.012312421 -0.08506472 -0.13904785 0.62098646 0.35233477 0.14707732 0.42787045 -0.06898833 -0.5492152 -0.3094858 0.37610906 -0.0031440957 -0.99754745 -0.50425166 -0.5024981 0.24720925 -0.016537337 0.32590163 0.33808574 -0.26473078 -0.13206704 -0.13895299 -0.02131369 0.043593567 0.11623817 -0.97783524 -0.54073775 -0.4763559 -0.031460427 -0.3702695 -0.54514074 0.089153215 -0.39893872 -0.3048628 0.31663194 -0.5665499 -0.15306059 -0.7130892 0.501247 -0.062878154 -0.13046412 0.25940186 1.585742 0.26432794 -0.3977495 -0.523467 -0.24745588 0.6200616 -0.9085258 -0.44760132 0.4698541 0.47713172 -0.26447502 0.2537118 -0.010213363 -0.6721671 -0.67102075 0.12019096 -0.14484566 -0.4584148 -0.3113514 -0.360711 0.10631724
141 0.21898445 -0.37845075 -0.20739284 0.068697035 -0.2630338 0.02385942 -0.28321752 0.135225 -0.33210686 -0.3649988 -0.30167085 0.21014065 0.5434331 -0.38156223 -0.62831444 -0.2196054 0.45043537 -0.33300173 0.28441522 0.26340455 -0.36768112 -0.43071458 -0.3342086 -0.22893403 0.19705297 0.33731487 -0.08915185 0.76863176 -0.1644411 -0.05351898 -0.37877503 -0.42968178 0.47232795 0.66772026 -0.54366714 -0.6507421 0.07398026 -0.5377447 -0.72598577 -0.45570812 0.870728 -1.1089231 0.8154462 1.3118765 0.26022643 -0.26321983 -0.21236032 0.6551644 0.4535161 -0.22096695 0.009992151 0.81108296 0.20471363 0.10737198 -0.21411008 -0.13650948 -0.7262944 -0.14871927 -0.5481949 -0.9074973 0.18390822 -0.5272635 1.0036252 0.23733304
251 0.17410189 0.17247088 0.27312124 -0.112863295 -0.48332268 -0.2521962 -0.34727183 0.29995754 0.1460616 -0.71949816 -0.11119813 0.5263345 0.15133815 0.2790434 0.3803769 0.40964797 0.53523856 -0.33656353 0.2265683 0.02012838 -1.1440569 -0.65774107 0.18368752 0.4158973 0.774016 0.22170958 -0.52618396 0.21795662 -0.70462465 0.3233787 -0.21866342 0.21864083 0.09290488 -0.18487114 -0.35959998 0.3380256 -0.08014022 0.10899959 -0.03868254 0.39830783 -0.36501062 -0.45954645 0.6864186 0.8053446 0.59271306 0.044511378 0.19587037 0.40259492 -0.00080118125 -0.6281821 0.42576364 0.2791327 1.0196298 0.50695795 -0.32668626 -0.038407948 -0.7069589 -0.33950564 -0.22533327 -0.6439935 -0.20296295 -0.38361806 -0.39476103 0.0118275685
295 0.4400591 -0.51349175 -0.041276302 -0.3492428 -0.60672337 0.27658448 -0.2123135 0.24862967 0.27314332 -0.033133682 0.4236553 0.51533425 0.12576339 -0.38194403 -0.4911593 -0.3083624 0.20622659 -0.24734125 0.15250872 0.15728217 -0.42513648 -0.10550579 -0.14736043 -0.025616452 0.24791436 0.5250178 -0.74096453 -0.8193077 -0.36325428 -0.03693865 -0.85800594 -0.39558446 0.9791006 -0.27400592 0.36399096 0.17573665 0.114602774 -0.8989146 -0.37317815 -0.53256446 0.22501782 -0.29074636 0.3215371 1.0690876 0.7677881 -0.8371838 0.38381132 0.43528643 -0.15744507 -0.46296787 0.041196667 -0.012406653 0.23459268 0.9672917 -0.370824 -0.0103708785 -0.099647634 0.26315156 0.24162242 -0.79140335 -0.3019072 0.28118482 -0.46231878 1.1165824
29 0.084948085 0.10891931 0.34897333 -0.34460166 -0.5368353 -0.36516476 -0.36345318 0.22221881 0.057889592 -0.76870334 -0.05483153 0.590328 0.07464519 0.32973865 0.30451378 0.2985827 0.48463425 -0.35261008 0.17529662 0.08322988 -1.0964646 -0.6100281 0.25970978 0.43011037 0.8019911 0.27218878 -0.6194876 0.22776239 -0.7548531 0.3169049 -0.15262169 0.14839229 0.039003804 -0.14685188 -0.55681026 0.4868521 -0.23881693 0.092429884 -0.23765936 0.42290893 -0.35816956 -0.5454458 0.61991066 0.7221217 0.54732955 -0.090626284 0.14886759 0.3605041 0.008797282 -0.6372641 0.22271456 0.20773058 0.9825263 0.50822324 -0.4129708 -0.104733616 -0.74102575 -0.18987061 -0.25062856 -0.5274867 -0.01583369 -0.3265652 -0.39414808 0.011102034
56 0.10484466 0.34837323 0.17759688 -0.26151505 -0.436479 -0.37495294 -0.46609312 0.21599954 0.31248865 -0.8143904 -0.10981023 0.58304733 0.15376438 0.12462659 0.3771805 0.3501601 0.272301 -0.4957091 0.21243264 -0.06582477 -0.96948403 -0.61880004 0.10597656 0.5977723 0.77743804 0.27823216 -0.5237819 0.19304775 -0.628902 0.43048027 -0.2354228 0.11496454 0.14615996 -0.17747194 -0.2649705 0.4568899 -0.16560438 -0.011505658 -0.1561442 0.39511782 -0.40096527 -0.59445727 0.5910707 0.78372407 0.4949844 -0.103313796 0.27295935 0.11226914 0.20540595 -0.6518029 0.3273919 0.24168667 1.0188103 0.61836714 -0.53176355 0.01649919 -0.6508921 -0.060279924 -0.37466753 -0.65837634 -0.0026172579 -0.43819296 -0.26918662 -0.27022094
246 0.1918983 0.28513628 0.19038014 -0.24671346 -0.46336952 -0.30822313 -0.5310249 0.3357131 0.278673 -1.0095369 -0.05505946 0.5822113 0.23523529 0.16934246 0.44526735 0.28288648 0.3396607 -0.57176244 0.24654739 0.08913421 -0.90878475 -0.4583586 0.02822533 0.6621489 0.723316 0.25680283 -0.6369482 0.23260322 -0.72875607 0.38927546 -0.18108198 0.08418682 0.17035808 -0.20533799 -0.37375724 0.2397691 -0.11147236 0.045731716 -0.04091894 0.33352715 -0.39429322 -0.4847449 0.74508274 0.64144576 0.47825444 -0.006365841 0.26043624 0.2702221 0.2046653 -0.5650626 0.16400304 0.2684684 0.96931267 0.6377476 -0.4438688 0.0051639923 -0.7975424 -0.11797182 -0.36024907 -0.62066257 -0.06581074 -0.27157307 -0.22783476 -0.09397261
185 0.7133521 -0.118332446 -0.03921804 -0.019616429 -0.106235385 -0.48012766 -0.026944488 0.7278318 -0.44475877 -0.5215462 -0.24308951 0.8993067 -0.22633526 -0.72914624 -0.44103384 -0.38074 0.34884697 0.25329348 0.29438695 0.49535227 -0.12536892 -0.14317204 -0.42947906 -0.01926462 0.5368815 0.83025587 -0.10439346 -0.3262511 -0.7150225 0.377703 0.61613756 -0.7938039 0.26961473 -0.3303036 0.47506583 0.5071341 -0.23486464 -0.4488243 -0.39605102 -0.3300171 0.1405584 -0.5464548 0.2868597 0.28411794 -0.27446672 -0.2871781 -0.45989242 0.75760126 -0.26831323 -0.54706943 0.53128004 0.32486162 0.74892 -0.18112396 -1.0667413 0.25847223 -0.50945747 -0.0040993067 0.37686446 -0.50918597 -0.2380705 -0.014843876 0.40555716 -0.12724994
314 0.85849977 0.29998443 0.024077645 0.3894465 0.15510142 0.33677897 -0.13608372 0.2303313 -0.4942771 -0.19916633 -0.5628791 0.30406764 0.70565253 -0.28494143 -0.45278293 -0.9409055 0.086393625 0.39848578 0.36889267 0.02726152 0.0420124 -0.48113206 0.042381685 -0.18380225 0.0872543 -0.11436239 -0.23756793 -0.84264493 -0.6657855 0.029188218 0.12259237 -0.9296562 0.8238347 -0.31227368 -0.3433934 -0.08453337 0.44724414 -0.40245548 -0.7403517 0.30403736 0.72022986 -0.2501907 0.31100526 0.743607 -0.21801859 -0.30757576 -0.17494948 0.2465892 -0.034565527 -0.14542803 0.033111606 0.23077099 0.40981883 1.3345286 -0.46204993 0.77599114 -0.8517351 0.24814007 -0.19930634 0.46005782 0.53230476 -0.73234767 -0.052616812 0.5810788
184 0.75265276 -0.1415964 -0.06880537 -0.11342917 -0.09245885 -0.4331664 -0.16575165 0.909574 -0.4321873 -0.54991144 -0.3216831 0.8847976 -0.025146069 -0.80049145 -0.39113304 -0.41369408 0.29617336 0.32436898 0.3208044 0.4442601 -0.043131486 -0.2758836 -0.2622392 0.069365695 0.5573143 0.7242924 -0.061536755 -0.28842762 -0.6451968 0.30774203 0.6488865 -0.7316719 0.27198046 -0.31133515 0.4817805 0.4561814 -0.3310094 -0.48339936 -0.43324697 -0.35930577 0.2316435 -0.61634094 0.25360218 0.18213984 -0.18481232 -0.33082283 -0.3870794 0.7256097 -0.31748366 -0.6217869 0.41548112 0.30075428 0.8520621 -0.029472101 -0.81928277 0.21475889 -0.41790268 0.013219303 0.5064305 -0.61221623 -0.2700935 0.16251586 0.49690866 -0.2765679
319 0.2855811 0.4159521 -0.45377758 -0.13468648 -0.34741724 -0.046305098 0.42692617 0.2674405 0.02624033 0.013306626 0.002059371 0.3252822 -0.12998487 -0.30165243 0.021640817 -0.26825786 0.14867207 -0.078932576 0.06472034 0.14918283 0.1842468 -0.63502485 -0.048220187 -0.20361064 0.07929427 -0.46407893 -0.64343673 0.06910162 -0.9347564 -0.49616942 -0.241784 -0.45501444 0.26597428 -0.15021707 -0.07674652 0.8043316 0.61717933 0.3093982 -0.6617491 -0.35049602 -0.11281044 -0.22182262 0.15199445 1.4544445 -0.39463836 0.14504649 0.08355395 0.64236474 -0.18268022 -0.4156967 0.07493214 0.44865742 -0.040776424 0.62841237 -0.003348887 -0.09289194 -0.8242098 -0.014017385 -0.19343747 -0.93892 0.5103172 0.36345634 -0.068590835 -0.1949259
58 -0.13052343 0.7514583 -0.29598907 -0.2583431 0.025452984 0.5386731 0.6078198 0.9030104 -0.45332998 -0.18348467 -0.19684575 0.39662042 -0.16323669 -0.48196697 -0.15574858 -0.06707146 0.9378126 -0.2927835 0.79495096 -0.44345048 -0.21218693 -0.37897608 0.058063988 -0.038013496 0.33589396 0.35983026 -0.339312 0.5970579 -0.2700429 -0.0049783527 -0.6210901 -0.14881109 0.16170558 -0.5876125 0.112573005 0.18607076 0.7349962 -0.19950418 -0.9332835 0.44664693 0.51240766 -0.43694916 0.30308664 0.117093675 -0.29537788 -0.8437066 -0.036393452 0.3952459 0.012129242 -0.31595945 -0.3225524 -0.12964492 0.6065777 0.3799592 -0.5331162 0.1504725 -0.41063944 0.03637911 -0.2949291 -0.5067271 -0.524317 -0.10766076 0.030900039 0.5933392
299 -0.1118098 0.8891828 -0.2297093 -0.1967742 0.029215662 0.6226805 0.55200905 0.8458094 -0.409766 -0.20542875 -0.035943847 0.43187192 -0.09475089 -0.4868762 -0.22026582 -0.07486195 0.958261 -0.39880598 0.6793456 -0.4262048 -0.24294965 -0.16844818 -0.06365536 -0.10991843 0.31954175 0.30804688 -0.3840939 0.7203268 -0.34793454 -0.09989363 -0.50122094 -0.24797975 0.084885225 -0.6466208 0.12124243 0.19942063 0.5402608 -0.37456453 -1.0142984 0.34220544 0.5961146 -0.46785355 0.20908919 0.16528223 -0.36045605 -0.6945452 0.03006702 0.32209998 0.09050642 -0.13858502 -0.20786238 -0.2675961 0.67209697 0.40104365 -0.5694196 0.22322161 -0.5601096 0.059697453 -0.2721093 -0.50407034 -0.4628305 -0.14252058 -0.099551044 0.61016846
183 0.8348064 -1.1421103 -0.79052067 -0.77621686 -1.3076261 -0.29290387 0.012047491 0.2887607 -0.2595277 0.5858835 -0.8405584 1.1576217 -1.4617784 0.48204717 -0.9843528 -0.054664027 0.91056377 -0.56381345 2.3437176 0.62477183 -0.5488129 -0.7037675 2.5889952 0.3175761 0.32824942 0.24425411 0.011393364 0.9471096 -2.2052295 1.2727274 0.32820642 -0.5040415 0.68028796 0.58272165 -0.019761583 0.6683913 -0.64167655 -0.641857 -1.7558873 1.8166744 -0.17405413 -2.2656155 0.034141067 3.2718363 -0.04512705 -0.0074540293 -1.5424768 2.270548 0.00790252 -1.9741467 1.4248105 0.057912458 -2.4326813 0.28113902 -0.35798353 -0.8282879 0.07352846 -1.6026683 0.23495941 -1.4424367 0.73041147 -1.8625503 -1.1475124 4.25514
73 -0.63111967 0.37696177 0.77303666 -0.23073094 0.436519 -0.66891485 0.22998427 0.53278977 -0.4098895 -0.46294343 0.1084863 0.44534388 0.49811924 -0.43923324 -0.5958635 0.22569178 -0.24015804 -0.15096639 0.62703127 0.07222034 -0.20937762 -0.059750702 0.48510236 0.07946807 0.3288153 -0.1752969 0.3229101 -0.6385686 -0.91460985 0.56573534 -0.4034548 -0.062419396 0.8722407 -0.41533196 -0.27162832 0.074480034 0.17405346 -0.012805217 -0.53011525 -0.51865363 0.113244005 -0.48710167 0.2662916 1.124678 -0.08261053 0.0035687627 -0.5934911 0.5138649 0.34004122 -0.2716546 0.1800171 0.11483259 -0.0028103346 0.6509446 -0.37375882 0.5472245 -0.20797116 -0.47390088 0.015637072 -0.82451046 -0.08643253 -0.11796856 0.076705985 0.40568003
76 -0.6845817 0.46413487 0.711905 -0.17586017 0.5129527 -0.65285814 0.14291714 0.39123213 -0.42615452 -0.48946664 0.17462264 0.34855145 0.6031081 -0.4699666 -0.43330747 0.15078649 0.010134649 -0.14489521 0.53435457 0.11203551 -0.17785153 -0.016331842 0.47427088 0.036009755 0.24937437 -0.22037114 0.1885629 -0.50858617 -0.994487 0.5773432 -0.28626773 -0.038635757 1.0271572 -0.5291626 -0.29480702 -0.006530957 0.07876494 -0.231651 -0.45776603 -0.43156102 0.16479504 -0.4067405 0.21426216 1.1242943 -0.06232867 -0.030987658 -0.5292956 0.5700456 0.32749584 -0.3228306 0.3064816 0.09168151 0.008120187 0.5862094 -0.31430873 0.6709048 -0.1627331 -0.5175756 0.16530843 -0.895962 -0.015190999 -0.06442262 0.056962654 0.39977613
37 0.2686205 0.17175606 -0.043038707 0.2800109 -0.0631981 0.5867662 -1.0123647 -0.053034406 -0.0635573 -0.6828524 -0.3909584 0.20983717 -1.0709893 -0.797611 0.08058181 0.2625882 0.46032888 -0.37069255 0.102267124 0.10427078 -0.12758037 -0.4498379 0.30646294 -0.6127076 0.27150512 -0.17464094 0.16214041 -0.121527985 -0.7197031 0.38431507 -0.7776915 -0.40142295 0.7401895 -0.056650188 0.39079535 -0.11302781 0.10381166 -0.11948783 -0.5098374 -0.5087143 0.1180027 -0.3679439 -0.89118856 0.72288 0.013386752 -0.15087515 -0.74796027 0.5562584 0.12007012 -0.3514498 -0.1841156 0.11964297 0.56233376 0.39251888 -0.10985292 -0.07008798 -0.87026453 -0.119353294 0.033438586 -0.44455296 -0.21349525 -0.10693132 0.108053684 0.35646755
115 0.5307009 0.12183257 0.19888517 -0.08110895 -0.338851 0.086349055 0.25793144 0.45515737 -0.39991885 0.10973407 -0.21294342 0.44457427 -0.031477395 -0.7123091 0.05394058 -0.008307912 0.44668967 -0.45917055 -0.105719686 0.30814925 0.105192006 -0.91771203 -0.2175368 0.73545784 -0.18057232 -0.9150214 -0.16995758 -0.20882866 -1.0211601 -0.013306258 -0.42291522 -0.07540429 -0.36209044 -0.36175966 -0.54841167 0.16625048 0.0204598 -0.23801328 -0.57950807 -0.6160764 -0.18602645 -0.09855069 0.023132972 1.5714843 -0.72437453 -0.68209624 0.26341417 0.4881282 -0.4063356 -0.5659214 0.4036527 0.34633324 0.22187652 0.0914473 -0.43387097 0.0434659 -0.8464088 0.47907376 -0.13221908 -0.3397595 0.03787259 0.056350153 0.15279204 0.29337826
249 0.2440543 -0.7178925 -0.09978628 0.0063075325 -0.7609079 0.06568015 0.13208437 0.009577371 -0.45706314 -0.22124156 0.41160685 0.50226593 0.14634472 -0.5033815 -0.40939125 -0.502117 -0.18747845 -0.1921505 0.08371361 -0.2031052 -0.26177529 -0.35708782 -0.27477014 0.3678393 0.36896282 0.6167008 -0.44110513 -0.44549718 -0.32683706 0.14863217 -0.9460936 -0.5642397 1.1752763 -0.60505503 -0.0068992586 0.009995841 0.08353671 -0.62104315 -0.2942627 -0.0038340634 0.18226005 -0.23734877 0.08905351 1.0911491 0.27975428 -0.6226561 0.4814087 0.83444864 0.09655704 -0.56149197 -0.087352395 -0.0023927444 0.24760981 0.85914636 -0.47238457 -0.75614464 -0.113458425 0.2633721 0.6676666 -0.7679456 -0.2844709 -0.121638976 -0.53645504 0.73727435
32 -0.6382029 0.35890839 0.76727116 -0.13814317 0.39511067 -0.51672024 0.019314231 0.427411 -0.5731579 -0.5774244 0.24993166 0.19511187 0.6535058 -0.53795147 -0.605214 0.01550163 -0.015076971 -0.21103162 0.62496716 0.043570526 -0.28134507 -0.14346182 0.44257352 0.22107376 0.422185 0.038937956 0.15801877 -0.5459911 -0.960229 0.82378066 -0.39357385 0.07298132 0.6959133 -0.49020052 -0.23169713 0.27697378 0.17268306 -0.3701078 -0.48040763 -0.5332597 0.42788988 -0.47211254 0.22761597 0.9433387 -0.3335556 -0.009345463 -0.5220144 0.6588997 0.15328768 -0.45502752 0.14040062 -0.013866278 -0.17077541 0.6280214 -0.03813143 0.48901367 -0.4048805 -0.71294314 -0.31919733 -0.6910222 -0.059731815 0.1697344 -0.023241095 0.29054192
175 0.22497533 0.01623333 -0.091143884 0.1870572 -0.044752847 0.4502171 -1.0665894 -0.04920507 -0.08773255 -0.8378932 -0.36396003 0.2629884 -1.1089228 -0.7252328 0.061274547 0.3019325 0.31514993 -0.43003348 0.1883166 0.12928522 -0.02089572 -0.32906076 0.2618142 -0.54226655 0.19174102 -0.024276808 0.06826333 -0.20362501 -0.730888 0.35260263 -0.85724944 -0.43364397 0.73787796 -0.17251492 0.17497806 -0.06785607 0.13551576 -0.12528525 -0.63674414 -0.5272871 0.0113478955 -0.42151043 -0.8734761 0.58452225 -0.16640759 -0.3267321 -0.7036434 0.62577945 0.2957973 -0.3664429 -0.3923632 0.15903667 0.5209942 0.3696789 -0.24643083 -0.17818193 -0.89902407 0.004379142 0.035318587 -0.3498937 -0.036522105 -0.046211794 0.18449518 0.28075606
270 -0.65583605 0.28686586 0.8321339 -0.17360604 0.43038404 -0.5972991 0.14592849 0.28027165 -0.54935247 -0.61930615 0.18401328 0.29429635 0.70105845 -0.5097356 -0.53432167 0.07513346 -0.15076455 -0.15274698 0.67731917 0.02620689 -0.36346272 -0.30376336 0.5184343 0.0466254 0.31134415 0.0863753 0.1324381 -0.46841136 -1.0160576 0.749931 -0.46362808 0.066811636 0.70113355 -0.5342684 -0.15113202 0.42673716 0.08450095 -0.35110545 -0.5478602 -0.54509234 0.42961967 -0.36627284 0.20924665 0.9859217 -0.31812125 -0.17547277 -0.5396643 0.64034337 0.103065215 -0.38490072 -0.025452891 -0.13130054 -0.105177164 0.43765515 -0.15518112 0.54230094 -0.35618162 -0.54871464 -0.22861882 -0.7057274 0.08595277 0.099233136 0.005662349 0.29610044
343 -0.01284299 0.38227066 -0.26464802 -0.0046495623 -0.36296818 0.2128289 -0.8563447 0.43738717 0.027882833 -0.17862292 -0.16694053 0.58824074 0.14677359 -0.009703728 -1.2080644 -0.8028107 -0.0426647 0.1191069 -0.08563057 0.53166026 -0.07087242 -0.38599446 -0.08923774 0.13365124 0.14382482 -0.08552626 0.23220879 -0.049775235 -1.0148926 -0.14321291 -0.8721882 -0.4799085 0.2346479 -0.7511869 -0.1522827 0.6032475 -0.029449869 -0.6657989 0.052853163 0.69690466 -0.41010857 -0.40388703 -0.01766788 0.5258674 -0.29489768 -0.45879048 -0.1522176 0.6727774 -0.0044162422 -0.06584194 -0.22035721 0.5344544 0.82468045 0.28575626 -0.056704625 0.26916066 -0.00971117 -0.50106883 -0.6530817 -1.0973182 0.068923384 -0.52125055 0.40905827 0.4309459
97 0.14145444 0.29268107 -0.24951117 -0.023045981 -0.30104405 0.35502455 -0.7400736 0.5712262 -0.0878405 -0.19188303 -0.22120994 0.5733658 0.10853249 0.09224031 -1.2108455 -0.6241111 -0.027391447 0.17635962 -0.18813148 0.5284078 -0.045154262 -0.29938808 -0.035182532 0.18027273 0.20317812 -0.002191564 0.24217394 -0.044043723 -0.9718144 -0.12596393 -0.97428554 -0.4530556 0.19604361 -0.7824377 -0.19505963 0.49638095 0.022512471 -0.61975485 0.084305815 0.7051692 -0.342759 -0.41211772 -0.07180161 0.57816386 -0.3118595 -0.22282031 -0.13730954 0.74272996 -0.14006363 -0.005789639 -0.1406499 0.54503167 0.8899512 0.37158856 0.13078117 0.33897603 -0.018344516 -0.509561 -0.69471484 -1.1690897 -0.12692109 -0.5184959 0.33073324 0.4462335
218 -0.1793093 0.042352088 -0.028386269 -0.18172064 -0.73620105 -0.49547428 -0.5904286 0.6611016 0.23816127 -0.66946185 0.16175386 0.60168827 0.0758056 0.45656577 0.26789862 0.5191844 0.28094804 -0.3707197 0.58547 -0.07283841 -1.1282507 -0.9697713 -0.2229809 0.12183739 0.46950257 0.18169285 -0.62776333 -0.06457486 -0.5937754 0.092128456 -0.0882304 0.22212575 0.25440362 -0.49726164 -0.36812708 0.33905745 -0.17544863 -0.2516001 -0.29162902 0.47325358 -0.33419347 -0.6814181 0.6785277 0.9829933 0.21606877 0.12359573 -0.12647465 0.40430576 -0.0111668175 -0.2867072 0.23357159 0.2489191 0.92658395 0.24582252 -0.2759492 -0.105778374 -0.78160244 -0.20686632 -0.12646283 -0.22263052 -0.17064622 -0.22948442 -0.19647056 0.11670573
77 0.07045164 0.36882997 0.17068285 0.19744156 -0.11782105 0.438571 -0.30518928 0.76228064 -0.79897 -0.48855343 -0.66208875 0.18970548 0.40527558 -0.24623826 -0.35477406 -0.12931825 0.5970348 0.10605751 -0.001741948 0.8749271 -1.268717 -0.6611268 0.27161372 0.123251155 -0.46842334 0.22405693 -0.71153444 0.12833755 -0.40868223 0.15309842 -0.47834775 -0.3606528 -0.057392195 0.004110327 0.27312905 0.5114172 0.29156682 -0.6048313 -0.24692006 -0.048869863 -0.0016574061 -0.6068828 -0.26820228 1.0444431 -0.113730624 0.4816017 -0.2299167 0.3822664 0.5881689 -0.30554193 -0.19930108 0.66516095 0.048008054 0.8979726 -0.8157145 0.06754365 0.23325558 0.13713229 0.39342475 -0.15766023 -0.044505287 0.44059277 0.08970627 0.44428262
2 0.05621832 0.47679603 0.10825021 0.19924572 -0.1302151 0.36909455 -0.41807705 0.74629074 -0.7532064 -0.50267565 -0.5286892 0.22942649 0.3730841 -0.32112023 -0.25303352 -0.20328945 0.50082415 0.09985348 0.09152275 0.8802077 -1.2779183 -0.62725174 0.3341996 0.23216683 -0.39432085 0.11593671 -0.8046811 0.037331983 -0.2979886 0.07302855 -0.38955173 -0.4101909 0.09596366 -0.08001308 0.2417925 0.29726297 0.26657298 -0.58810717 -0.27897224 -0.06884773 -0.092124 -0.7332704 -0.23897162 1.0450673 -0.20531228 0.4506383 -0.19979571 0.41009462 0.5243002 -0.40555274 -0.44597703 0.6204682 0.054554943 0.9506736 -0.86981386 -0.041659966 0.43642545 0.1664928 0.26727742 -0.093350284 0.0020207008 0.42023215 0.2163347 0.276371
219 -0.22783884 -0.036107514 -0.018568175 -0.24538615 -0.6240873 -0.40691063 -0.4730799 0.6877335 0.19726983 -0.6172895 0.08610768 0.4887484 0.010912582 0.41649926 0.09868064 0.4454414 0.37582457 -0.42935127 0.5748647 -0.10659807 -1.1708754 -0.81186014 -0.45069155 0.15690348 0.5183657 -0.01172129 -0.64120656 -0.052924857 -0.66455746 0.28430802 -0.1691829 0.1266506 0.3698754 -0.51012 -0.4348576 0.49787003 -0.21186228 -0.034501135 -0.28780645 0.47814202 -0.40537137 -0.8457314 0.77313983 0.8274805 0.37131414 0.13455178 -0.09170757 0.4712421 0.012336116 -0.27326512 0.39127102 0.21052283 0.86954576 0.377959 -0.26720646 -0.15311603 -0.74155504 -0.12505704 -0.13171907 -0.12885197 -0.2003004 -0.20339693 -0.15574706 0.02911098
1 0.36091226 0.2304673 -0.51278645 -0.07908014 -0.121911764 -0.15288433 -0.21236269 0.6571981 -0.464331 -0.56994075 -0.18493897 0.22866103 0.28781176 0.06387475 -0.48864874 -0.2016131 -0.44482 -0.21759847 -0.5618106 0.26527855 0.3461361 -0.37199393 0.46100172 -0.43029302 -0.057687584 0.08320873 -0.46887988 0.08061094 -0.44257256 0.11138764 -0.867047 -0.38570827 0.20190947 -0.67866725 0.056317728 0.39547917 -0.35992637 -0.12922934 0.11469776 0.35257608 -0.2711357 -0.98547184 0.13061306 0.84186584 -0.17659757 -0.89122593 -0.034794386 0.6178755 -0.2915108 -0.31780288 0.16259052 0.29307106 0.3729259 0.87594885 -0.6952945 0.15217443 -0.6330861 -1.0886577 -0.43764445 -0.16145758 -0.49704185 -0.24051026 0.764923 0.61742055
294 -0.1489852 -0.19100143 0.5868974 -0.101858586 0.43757606 0.10879833 -0.7497862 0.9789566 -0.7815651 -0.9429829 0.0426711 0.23332071 -0.30403623 0.1878813 -0.010981215 -0.8164113 0.28697094 0.6108157 0.10854069 -0.8033952 -0.11040911 -0.17373368 -0.11391561 -0.34465614 -0.16534927 -0.090204634 -0.23204617 0.2829072 -0.552318 0.6412569 -0.51583546 -0.51965886 0.056927625 -0.5149404 0.48311698 -0.17525192 0.3429513 -0.57489234 -0.30308634 -0.543709 -0.12804073 -0.5845513 0.70376277 1.2046274 0.051876165 -0.056147393 0.07563796 -0.008824019 -0.21778105 -1.0087678 0.04558942 0.6252993 0.96494985 0.10552225 -0.4145987 -0.051432926 -0.22221684 -0.012521863 -0.1974605 -0.37350717 0.40819895 -0.5266701 -0.19506608 1.0855038
201 0.089234516 0.25639793 0.14584687 0.17254663 -0.013750558 0.51242036 -0.32463703 0.69252485 -0.83504766 -0.44393224 -0.59519565 0.15400037 0.41589022 -0.41423312 -0.3284881 -0.07902592 0.4580109 0.12669194 0.08412207 0.7741017 -1.3071074 -0.5830967 0.26389176 0.26376387 -0.45129746 0.21373178 -0.7993663 0.21737559 -0.50137204 0.12853727 -0.46968433 -0.55182225 0.18206196 -0.14431453 0.3016775 0.42987487 0.27336848 -0.42079136 -0.3465795 0.006308409 -0.1846885 -0.9853603 -0.33885255 1.0406108 -0.11761584 0.33823594 -0.19810884 0.44283193 0.53112704 -0.18333423 -0.12312186 0.5240247 -0.044681862 0.7667594 -0.9502981 0.16218233 0.42920485 0.2882734 0.19999346 -0.08093303 0.035626307 0.26963362 -0.06842561 0.17375721
92 0.32469377 0.31805632 -0.45151022 -0.08473743 -0.18540841 -0.07857086 -0.15831259 0.6148743 -0.50258696 -0.5515579 -0.12380753 0.094065934 0.27368355 0.1384028 -0.55346453 -0.29255205 -0.32877895 -0.26853183 -0.7034934 0.26634786 0.30420077 -0.24850896 0.44260517 -0.49324957 0.0065507735 -0.06999116 -0.51512885 0.23776233 -0.50073 0.012844982 -0.7421833 -0.42101818 0.1550628 -0.780668 -0.041779663 0.45457986 -0.5761207 -0.24525274 0.030033505 0.22549103 -0.218654 -0.96483916 0.057039764 0.85864955 -0.06302061 -0.84257585 -0.12435948 0.6175428 -0.28972554 -0.29731363 0.19643347 0.22511053 0.4543627 0.9635434 -0.6377266 0.20594642 -0.6119321 -1.0697508 -0.21422769 -0.20666754 -0.42265886 -0.3160678 0.6988465 0.637984
91 0.28139916 0.41563812 -0.460569 0.08641494 -0.254375 -0.077542014 -0.24069431 0.5647902 -0.49192852 -0.6314911 -0.101494186 0.004003299 0.30214778 0.07642185 -0.5468681 -0.26827762 -0.36000118 -0.2760197 -0.43186527 0.18740074 0.30637726 -0.3643737 0.49918157 -0.540108 -0.09406852 0.018526917 -0.50306237 0.101896755 -0.6395011 -0.010509103 -0.7019596 -0.34233218 0.14400896 -0.7764355 0.18131182 0.29556087 -0.46744373 -0.18965358 0.06720327 0.289389 -0.079743445 -0.9070156 0.027223865 1.0249798 0.08359553 -0.77972245 0.10275532 0.68562084 -0.4657551 -0.48861796 0.29039055 0.25935736 0.38363427 0.94294935 -0.60358626 0.018206615 -0.4394135 -1.0738305 -0.36383438 -0.052964948 -0.6302943 -0.3699399 0.8690238 0.3922112
93 0.2619377 0.5360984 -0.327049 0.2700295 -0.29231945 0.16995421 -0.4422663 0.34160322 -0.6085215 -0.57886225 -0.027227787 0.3829854 0.25719407 0.11476038 -0.8156201 -0.09702914 -0.27923265 0.14682646 -0.61121696 0.5366098 0.4180846 -0.54476255 -0.1010945 -0.36215872 0.4069213 -0.06656319 -0.32256567 0.017490335 -0.95616907 0.18359235 -0.78518003 -0.40143055 0.055681746 -0.6576701 -0.01091323 0.5513515 -0.49393842 -0.21608362 -0.11562739 0.32605422 -0.3003581 -0.75418985 0.15364745 0.75601727 0.086250804 -0.69217926 0.22460768 0.4268076 -0.12487359 8.375649e-05 -0.17230281 0.38573825 0.43116787 0.56453556 -0.39200994 0.33486968 -0.2724025 -0.7797553 -0.571416 -0.4454293 -0.4625873 -0.24366082 0.7021124 0.820372
168 0.2709236 0.40955967 -0.4385152 0.07089 -0.25802234 -0.09167329 -0.117886096 0.47871956 -0.43844315 -0.7008703 -0.23935454 0.05025331 0.35042575 0.085564606 -0.48062155 -0.2573562 -0.33126593 -0.078987084 -0.43110183 0.23779115 0.23375842 -0.3532359 0.45427704 -0.61210173 -0.30547255 -0.09245824 -0.58828527 0.032498993 -0.5235139 0.043111525 -0.7782474 -0.35615137 0.18877576 -0.62104017 0.08617379 0.3549542 -0.5163608 -0.16849123 0.08023044 0.25820303 -0.17612526 -0.92184234 0.030194825 0.8777285 0.12283532 -0.84444034 0.05490788 0.693434 -0.5947652 -0.5042646 0.22007753 0.15625913 0.45080715 0.8493205 -0.65361947 0.16199954 -0.59808016 -1.1018112 -0.31997025 -0.28309354 -0.6500302 -0.2715286 0.8445095 0.54797244
0 0.28155676 0.4800012 -0.33613747 0.29271877 -0.06646152 0.14851144 -0.3441692 0.31901821 -0.50447476 -0.45675832 -0.15239201 0.40762922 0.31857768 0.12673225 -0.78129935 -0.03800211 -0.33636793 0.1652684 -0.6236042 0.610235 0.34700903 -0.5525404 -0.082210615 -0.5082266 0.37000486 -0.051479943 -0.13834885 0.1533223 -0.9078267 0.17036517 -0.9250385 -0.35535514 0.19935021 -0.8347015 0.06415844 0.64053094 -0.48342365 -0.22993164 -0.13666181 0.3679589 -0.28497443 -0.7632628 0.15216169 0.82181346 0.08494659 -0.7319004 0.32680553 0.33504072 -0.17420135 -0.050029084 -0.07770838 0.34733894 0.53204995 0.5741953 -0.5159534 0.33242232 -0.21767898 -0.74269557 -0.45494154 -0.5075861 -0.34517103 -0.31499386 0.6089014 0.605453
75 0.061634637 0.24240232 0.18115602 0.021772768 0.011865663 0.40004218 -0.27059484 0.62060845 -0.80014604 -0.5365273 -0.63465095 0.32342273 0.5088452 -0.34935933 -0.30427498 -0.14114507 0.5172001 0.025701445 0.10659268 0.8135168 -1.3203756 -0.5498976 0.29052716 0.26551986 -0.5666642 0.24312443 -0.75979686 0.12823068 -0.4454798 0.12824687 -0.5998633 -0.5839355 0.22996597 0.05625188 0.35613492 0.49681947 0.28643498 -0.45397928 -0.26950034 0.034007516 -0.29412967 -0.76634705 -0.22382261 0.9813663 -0.25107947 0.2866064 -0.25352597 0.4637855 0.4864072 -0.19900478 -0.31783587 0.5054503 0.008484551 0.6448912 -1.0951952 0.049618777 0.23274583 0.27266374 0.14055072 0.01497742 0.06980499 0.40231094 0.08565895 0.30203187
123 0.08447569 0.13265513 0.63746077 -0.6072327 -0.3325951 0.27647975 -0.6906212 0.30033815 -0.12368258 -0.37760368 -0.10052616 0.001098326 0.22400904 -0.3890082 0.15986031 -0.54953325 0.1620067 0.2633536 0.21319221 0.2637027 -0.42097384 -0.370297 -0.3278098 -0.05711846 0.414256 0.48394606 -0.11321602 0.37419653 0.14271519 0.06996555 -0.7268768 -1.0225102 0.5461185 -0.030411746 -0.881312 0.4782077 0.8694244 -0.3860913 -0.6285383 -0.2429942 0.40454665 -0.44592845 0.219363 1.579419 0.3223372 -0.34520218 0.12416378 0.4721172 0.030940428 -0.0895611 0.19815841 0.18604606 0.25745654 -0.086607955 -0.34442368 0.5762884 -0.7796019 -0.24674061 0.1400475 -0.40491554 -0.48377457 -0.40260622 1.227838 0.0031180526
348 -0.6806503 0.31520173 0.027281625 0.12336177 0.0941469 0.91919196 0.1613 0.79457366 -0.039040163 -0.06675245 -0.12708381 0.49315846 -0.094954915 -0.56187695 -0.06442506 0.29767275 0.31754917 0.08058064 0.8462236 0.015313401 0.3326835 -0.1750721 0.26886833 -0.11802177 0.2962601 -0.03575578 -0.672519 0.4753545 -0.15990858 0.07647975 -0.18590204 -0.34940916 0.076584235 -0.15470718 -0.19213633 0.41277874 0.15582487 -0.7084442 -0.67372936 0.5254296 0.39258838 -0.16709825 0.38048217 0.22513877 -0.11685344 -0.32182714 0.16961794 0.9599637 -0.15978615 -0.68701553 -0.37137297 0.084173635 0.61403346 0.46946758 -0.7351607 0.18372889 -0.6470102 0.2959366 -0.36012915 -0.38620457 -0.4630624 -0.059816662 0.05549204 0.666213
23 -0.55561244 0.441407 0.8029854 -0.04564395 0.37081736 -0.55769825 0.22948481 0.40600258 -0.56012255 -0.69945616 0.23618454 0.04953604 0.74086916 -0.477532 -0.43152046 0.12433567 -0.06511977 -0.23343864 0.49274057 -0.09647004 -0.24089618 -0.34301856 0.3201456 0.29315403 0.33089498 0.12366876 0.17815995 -0.71170586 -0.73232853 0.66719306 -0.47719073 0.1957223 0.5635695 -0.5127369 0.021184979 0.37698004 0.12522945 -0.48604578 -0.6334229 -0.5860573 0.30005503 -0.4032332 0.0665932 0.97758526 -0.1980433 0.07282175 -0.5763921 0.72399247 0.14705701 -0.4318755 -0.054038677 -0.087324634 0.01742584 0.5648487 0.013901906 0.7419772 -0.4308637 -0.55091685 -0.13488753 -0.94122046 -0.0451474 -0.12915362 0.12946832 0.43034333
274 -0.093310036 0.481186 -0.011216981 -0.38294354 0.075472824 -0.12488882 -0.363584 -0.5183017 0.13053423 -0.1365133 -0.22182323 -0.14929429 -0.074803084 -0.020004569 -0.7647374 -0.082406774 0.08738023 0.30053937 0.057642285 0.21356834 -0.52676564 -0.41039655 0.015296282 0.18512666 -0.24732208 0.23663515 0.06101847 0.13484594 -0.55069405 0.3343399 0.29513377 -0.50436336 0.12132823 -0.41972697 0.61381024 -0.06469229 0.25424212 -0.093185365 -0.6011376 -0.37383655 0.06591343 -0.6321754 0.4399705 1.1948485 -0.29131085 -0.6742051 0.34272417 1.1905882 0.39819527 -0.3510924 -0.44143414 0.49707425 1.0347028 0.6010912 0.009423259 0.30522147 -0.90044 0.0603985 0.20130058 0.040349223 -0.6870386 -0.035496943 -0.3350565 0.25932878
57 -0.75245684 0.2292701 -0.0587362 0.1265046 0.10144747 0.85932684 0.17672013 0.7007689 0.032639634 -0.12507819 -0.044189136 0.5143313 -0.22914532 -0.71278423 -0.11986689 0.30108035 0.23833482 0.04214179 0.7033856 -0.09805384 0.18838486 -0.28651327 0.29277727 -0.12794928 0.3537649 0.04375296 -0.538289 0.5413207 -0.23263478 -0.0543591 -0.045251794 -0.34517896 -0.035161458 -0.2180351 -0.15872748 0.51709473 0.29899815 -0.67724514 -0.5761751 0.5858384 0.50898314 -0.16423412 0.36217657 0.25620824 -0.24571194 -0.3629856 0.1997581 0.93687075 0.0470216 -0.77691996 -0.27484047 0.122229315 0.55119115 0.5255191 -0.77625495 0.065911286 -0.5791263 0.25440237 -0.28494665 -0.34073907 -0.3856536 -0.27213976 0.14481887 0.7383903
21 -0.5582983 0.5111628 0.7650411 -0.080255546 0.36508703 -0.70398897 0.15772723 0.5138885 -0.5796497 -0.48274758 0.2809229 0.020087095 0.8331405 -0.5265251 -0.4544149 -0.06853505 -0.09263897 -0.40152195 0.59016746 -0.1060859 -0.31691125 -0.36285707 0.32659373 0.2599261 0.4243176 -0.06726771 0.13086766 -0.5759873 -0.8515818 0.729025 -0.4558845 -0.016516257 0.69051826 -0.5465125 0.15815546 0.35372725 0.05041466 -0.39648724 -0.5667689 -0.6026186 0.33606175 -0.43667123 0.07426047 0.94516027 -0.102090396 -0.009110817 -0.570305 0.6075525 0.28231218 -0.4538732 -0.12295607 -0.13005179 0.004562614 0.5704759 0.018335504 0.68460673 -0.48054537 -0.5163331 -0.14946462 -0.8620708 0.0061984486 -0.024298802 0.20176588 0.26389724
134 0.027778383 0.04739267 0.5428309 -0.53705585 -0.3067248 0.25220445 -0.7029251 0.30398914 -0.15768138 -0.15261306 -0.44488692 0.09067276 0.28752258 -0.34238064 0.1261333 -0.4534668 0.3532998 0.21958458 0.05395001 0.37409 -0.2497474 -0.1372231 -0.5077468 -0.12363792 0.38602415 0.452853 -0.13229603 0.28938767 0.16106336 0.22946167 -0.79692763 -0.77084804 0.66284025 0.01825662 -0.95979744 0.28404316 0.70199615 -0.42570415 -0.83087367 -0.19689709 0.5285861 -0.68832844 0.39942783 1.5818655 0.29829544 -0.06544363 0.24604788 0.47693482 0.09618084 -0.2079644 0.1333413 0.17797177 0.2765092 -0.05558964 -0.34806758 0.3883127 -0.7849791 -0.22346914 0.046650045 -0.4867545 -0.4264167 -0.33056602 1.3347859 0.0024881964
324 0.84350026 -1.1384059 -0.7905245 -0.7765348 -1.3063251 -0.28953972 0.019944448 0.2926205 -0.26313034 0.58262306 -0.8443158 1.1559503 -1.4526646 0.47743204 -0.9769343 -0.05336449 0.9095998 -0.55839765 2.3361537 0.62860036 -0.55671215 -0.69932824 2.5830488 0.32251552 0.32836983 0.24175023 0.01583493 0.9417348 -2.19762 1.2756587 0.32246706 -0.50312656 0.6872148 0.5815942 -0.025799183 0.6642422 -0.6439063 -0.640968 -1.7556189 1.8164339 -0.17820555 -2.2478957 0.039843854 3.2643557 -0.056875974 -0.018071726 -1.5363377 2.264692 0.003201217 -1.9633377 1.4161055 0.058896158 -2.4206755 0.28246692 -0.36394387 -0.8210512 0.08254509 -1.6033218 0.23886834 -1.4318322 0.72589856 -1.8632283 -1.1420327 4.24384
283 0.021596296 0.41347623 -0.012546785 -0.61638385 0.1156093 -0.3068434 -0.37764144 -0.47517496 -0.05514023 0.08718316 -0.1684657 -0.13952953 -0.009473606 -0.07377976 -0.7790444 -0.08978098 0.09170715 0.3432326 0.07371324 0.1295876 -0.3180452 -0.5825753 0.12499841 0.23572963 -0.31870842 0.3139297 -0.07417035 0.16088071 -0.36682346 0.56239194 0.28748265 -0.4135388 0.1865644 -0.3590386 0.42218602 -0.05111709 0.30207407 -0.04663507 -0.5476548 -0.07800953 0.091133624 -0.67340064 0.48967937 1.1965761 -0.42936754 -0.64234567 0.37675926 1.0871991 0.36310673 -0.34269103 -0.44433337 0.7713421 1.0933468 0.61214226 -0.04810364 0.4382881 -0.79461277 0.062403563 0.19790766 -0.14412318 -0.6819034 0.106051534 -0.36985838 0.2780909
275 -0.10346613 0.43941456 0.108582154 -0.44000676 0.06285584 -0.091123335 -0.39995584 -0.37930897 0.19504333 -0.056482837 -0.32189918 -0.20234112 -0.017477408 0.08399033 -0.8320591 -0.115785025 0.012183519 0.2670382 0.025111467 0.26065946 -0.3328493 -0.42883196 0.085853904 0.18202089 -0.24076113 0.30160242 0.06342253 0.06641805 -0.47807464 0.44773775 0.28764704 -0.4452364 0.10363134 -0.47567138 0.45314166 -0.034155425 0.23658915 -0.06884364 -0.75238883 -0.34710434 0.02185651 -0.7355031 0.47906843 1.1029348 -0.31234023 -0.6502052 0.31238422 1.1576345 0.38736582 -0.33966908 -0.522585 0.62317705 1.0266716 0.65161884 -0.013950485 0.108208135 -0.9437941 0.09277855 0.30185464 -0.021919645 -0.6161959 0.035922598 -0.37235102 0.222969
354 -0.007966083 0.47231367 -0.013544856 -0.67812335 0.08144413 -0.2542956 -0.28542992 -0.46645272 -0.03822779 -0.042990357 -0.26201412 -0.21052285 0.054880466 0.016121956 -0.7241132 -0.16480264 0.12584868 0.2966723 0.09250599 0.18210332 -0.27662873 -0.46651968 0.026589535 0.2906571 -0.29468954 0.21429652 -0.19232798 0.15470357 -0.4767704 0.57236975 0.24272871 -0.4823001 0.25615394 -0.35247052 0.42781985 -0.093285196 0.15514715 -0.04647151 -0.5594224 -0.21262726 0.00900995 -0.63124 0.57865363 1.1295251 -0.3102081 -0.59356743 0.33873174 1.1572105 0.29235652 -0.2793124 -0.64421356 0.65207446 1.1044723 0.5582008 -0.0012496952 0.4827134 -0.8219877 0.21432377 0.2901098 -0.10964763 -0.6917558 0.12738994 -0.25704563 0.35628083
30 -0.020160574 0.3463432 -0.057981 -0.71500754 -0.001829557 -0.28202266 -0.31820858 -0.3723827 -0.07549519 0.07235874 -0.24967286 -0.19493577 -0.102891035 -0.03799225 -0.7702453 -0.0944258 0.09677496 0.31265286 -0.009031953 0.12717733 -0.28074706 -0.38608217 0.05411986 0.3222659 -0.2202076 0.15498543 -0.08857105 0.12908016 -0.45222318 0.49757594 0.2580964 -0.5490883 0.14491743 -0.35633922 0.40074518 0.06289755 0.20009072 -0.004591757 -0.6133442 -0.24032053 0.07895371 -0.78286356 0.5501325 1.1475092 -0.3926274 -0.5726048 0.27913508 1.0615395 0.52430326 -0.23229548 -0.5288018 0.6504267 1.0796657 0.6249414 -0.04926927 0.48488986 -0.84671104 0.1240641 0.29116017 -0.08446656 -0.69313353 -0.037787575 -0.41623896 0.36624128
28 -0.023404852 0.4944494 -0.059032034 -0.5567191 0.12121971 -0.25100943 -0.23779 -0.45079646 -0.038925156 0.056728985 -0.20360066 -0.24606174 -0.0579169 0.05341534 -0.68199205 -0.08934853 0.1105784 0.2979054 0.077577 0.20552681 -0.2988697 -0.3713662 0.014726811 0.23897332 -0.3005461 0.26014894 -0.085018545 0.23292473 -0.39834973 0.5317589 0.20870242 -0.54383904 0.23973772 -0.49063596 0.3839304 -0.020366428 0.15016364 -0.22229394 -0.52901435 -0.25684142 0.01141778 -0.62785286 0.52068603 1.2285281 -0.35418627 -0.633373 0.3128455 1.0369706 0.4474723 -0.21201189 -0.42492956 0.73748815 1.1334845 0.63772696 -0.034037817 0.54471076 -0.88268536 0.14387329 0.32079288 -0.12642215 -0.60530907 0.008693518 -0.41828638 0.23794071
31 -0.063307896 0.41448572 0.030292943 -0.5033882 0.06163827 -0.13695426 -0.378803 -0.42520756 0.17973042 -0.20014098 -0.32548693 -0.1479393 -0.057399854 -0.08174181 -0.7527671 -0.012285316 -0.028673388 0.3893851 0.07108323 0.24460982 -0.42683452 -0.3138507 0.03572596 0.20849094 -0.44164097 0.3400726 0.09821447 0.07270781 -0.48320267 0.43445736 0.21338385 -0.4218681 0.17152537 -0.3441936 0.46659794 -0.0067587574 0.20651498 -0.14907227 -0.7274361 -0.30064958 -0.026586797 -0.7278762 0.4411356 1.1852266 -0.42224535 -0.60641235 0.42389262 1.1109449 0.20543398 -0.27213356 -0.5336866 0.52847075 1.044295 0.57412225 -0.067213774 0.33911178 -0.96786463 0.12613373 0.1259586 -0.029707069 -0.7063683 -0.032974362 -0.4198336 0.22616223
36 0.31079045 0.4123183 -0.4230931 -0.19382244 -0.20021503 0.09462339 0.5657245 0.016580878 -0.041607928 -0.04303788 0.003722358 0.44574898 -0.10295088 -0.14168413 0.23226814 -0.22928864 0.39945418 -0.118409336 0.06964348 0.39674422 0.26342556 -0.5583671 -0.13571218 -0.3482322 0.18791498 -0.38732618 -0.7420295 -0.046473414 -1.0285754 -0.39375278 -0.22525251 -0.34502465 0.36006817 -0.02918203 0.048522633 0.9158076 0.6022382 0.304297 -0.7728204 -0.25922382 -0.18486036 -0.2759418 0.36241338 1.4809536 -0.36741993 0.19631378 -0.006982468 0.7825542 -0.19647114 -0.14745276 0.013448594 0.4188379 -0.23180704 0.65979505 0.05797389 -0.06413786 -0.86791533 0.0078114965 -0.16913874 -0.83813816 0.34427732 0.39026946 -0.0056135347 -0.055351198
106 -0.6477699 -0.21969174 -0.07011028 -0.028763618 0.62284046 0.36689052 -0.28689668 0.6401558 0.15718207 -0.004015413 -0.27225766 0.7611225 0.15020643 -0.35383746 -0.06745995 0.44755286 -0.026555542 -0.08361281 0.45103893 0.04701544 0.06909008 0.09691519 -0.031004809 -0.119524814 0.47387117 -0.33911383 -0.30448264 0.7224749 -0.37318626 -0.13530354 0.007986847 -0.6938938 0.07387 0.10256844 -0.032377817 0.30695522 -0.05303691 -0.44004408 -0.65549564 0.59783036 -0.0006187141 0.33107153 0.202942 0.85569566 0.1684338 -0.39576834 -0.21273787 1.2164396 -0.31214446 -0.6890586 -0.27091095 0.33833402 0.2627006 0.80387187 -0.9741782 0.28305462 -0.39557543 0.4461674 0.12323817 -0.3281402 -0.31532475 -0.4249748 0.106915854 0.6921279
262 0.4158011 -0.5522223 -0.031599846 -0.5022325 -0.47027004 0.017742518 -0.32681608 0.22949944 0.14427531 0.31285885 0.55064255 0.4933912 -0.03838835 -0.61222714 -0.48356125 -0.26000658 0.20536277 -0.32222715 -0.028650414 0.13546363 -0.41570276 -0.12220654 0.020240167 -0.038627777 0.36018768 0.64217716 -0.6480449 -0.7322647 -0.4980396 0.004980189 -0.8319503 -0.380018 0.98953414 -0.23511177 0.44552127 0.35279796 0.11975479 -1.0533121 -0.32268363 -0.22199635 0.37116963 -0.4379237 0.25530878 1.089987 0.5787024 -0.76998657 0.4680321 0.19688329 -0.07796835 -0.6149402 0.16274576 0.16015418 0.1625734 0.97094196 -0.3278055 -0.07803892 -0.22855905 0.3282425 0.019684406 -0.67713314 -0.21053426 0.2660677 -0.44690552 1.0805336
84 0.35984865 0.1458509 -0.03264234 -0.11224778 0.86640674 0.52907115 0.22909519 0.41954672 -0.0920047 -0.6255327 -0.22444169 0.45256308 0.22428906 -0.90828794 -0.56936437 -0.43552944 0.13236062 -0.21329044 0.16450095 0.36333874 -0.2989133 -0.15359853 -0.14040698 -0.00538469 0.17439975 0.2678541 -1.030712 -0.3117044 -0.39207187 0.008953071 -0.3454684 -0.4366263 0.18405412 -0.5517026 -0.12827767 0.10078079 -0.5095266 -0.16787222 -0.68010545 0.5146985 -0.04230012 -0.098101966 0.1497262 1.6538535 0.26574156 -0.1727434 -0.5224837 -0.09447458 0.36871642 -0.916737 -0.32943755 0.46293145 0.5834605 -0.2861423 0.48497292 -0.053166904 -0.69459504 -0.42353114 0.12731133 -0.15103105 -0.42057392 -0.2844776 -0.29034513 0.13495223
105 -0.8209347 -0.24024414 -0.10049274 0.037534494 0.5864125 0.3807373 -0.35610968 0.6561157 0.117690995 0.14581034 -0.3889678 0.68417144 0.031782523 -0.20029922 -0.07728465 0.49094966 0.04976114 -0.02860345 0.45368904 0.06178701 0.26269868 0.13477597 -0.15770325 -0.10038686 0.54700243 -0.3433719 -0.35507172 0.57862985 -0.32006568 0.010679179 -0.0070044366 -0.6926988 0.018072704 -0.0308462 -0.119071454 0.43720317 -0.013037409 -0.45543215 -0.76127803 0.5706388 0.1072523 0.1863115 0.1473068 0.86396843 0.21451688 -0.42945307 -0.2716881 1.1015955 -0.1286712 -0.7297025 -0.038597777 0.42592323 0.21528862 0.99224186 -0.9385065 0.28523764 -0.28901148 0.43495134 0.07474737 -0.3954992 -0.363149 -0.4588108 -0.020561777 0.54020625
7 0.3330782 0.05760002 -0.09469119 -0.19233587 0.8243452 0.55058825 0.369865 0.38886172 0.010939467 -0.7677492 -0.24307732 0.378928 0.09768615 -0.9407894 -0.70920223 -0.45621446 0.16481118 -0.1669535 0.31956536 0.2741344 -0.40198165 -0.2246506 -0.24806732 0.038068004 0.1892417 0.12507133 -1.0241075 -0.3825896 -0.33016142 0.117790416 -0.42377546 -0.5733301 0.24517313 -0.42607817 -0.17006597 0.16908175 -0.44837424 0.0033342643 -0.59294945 0.46685785 -0.10190095 -0.10977418 0.20348214 1.578642 0.29154488 -0.31292942 -0.54774743 -0.098202065 0.33036247 -0.932672 -0.25773716 0.53514844 0.53892046 -0.22301868 0.42499885 0.06185824 -0.54869646 -0.43569714 0.009068348 -0.119421385 -0.4947169 -0.2901471 -0.20511042 0.09922862
143 0.89898956 0.1289882 0.19291015 0.2961201 0.06589479 0.23139977 -0.055456873 0.23065622 -0.54744345 -0.13850348 -0.79413635 0.42119497 0.6880748 -0.29606026 -0.37438992 -0.9015395 0.13191961 0.63447064 0.24290965 0.016985392 0.04357606 -0.64949846 0.34865248 -0.17223555 0.05965938 0.054363027 -0.042907644 -0.8445686 -0.6772257 -0.100971416 0.16812725 -0.76325977 0.67671794 -0.27230552 -0.22526354 0.060101707 0.5545491 -0.28317952 -0.73984855 0.4043566 0.848446 -0.10168704 0.27170056 0.87450755 -0.16371593 -0.3738603 -0.29704022 0.3009408 -0.09150561 -0.2411015 -0.14111587 0.21525952 0.3707769 1.2599944 -0.44202092 0.49843568 -0.8570277 0.16061616 -0.27890983 0.38396773 0.48004645 -0.78141546 -0.054432716 0.80150974
50 1.2268504 0.43932238 0.41965064 -0.28342688 -0.3611985 0.24861239 -0.46820077 -0.35122234 -0.24259709 -0.8486873 -0.7130621 0.5490948 -0.38293424 0.1275206 0.23606831 -0.0044786483 -0.22939104 -0.4696677 0.6095114 -0.25808197 -0.4176918 -0.075508155 0.18258962 0.28652772 0.71834266 -0.029867215 -0.39647558 0.16132407 -0.6752654 0.33490306 -0.30359617 0.24362895 0.30332178 0.043250006 -0.12417505 0.17749965 0.06912062 -0.24711071 -0.08446598 0.28986716 0.039202806 -0.29416975 -0.0043957946 0.6931801 0.17781605 -0.0880979 0.08735971 0.53448963 0.63844 -0.9863678 0.062046636 0.2803671 0.45914492 0.43893686 -0.720719 0.4628546 -0.5369391 -0.29398042 -0.21431927 -0.6727345 0.09193822 -0.40141734 -0.19213623 0.19821157
74 -0.041852888 0.33926445 0.17818265 -0.25621372 -0.029538516 0.68279064 -0.2991008 0.27888912 -0.69956267 -0.22607578 -0.34197146 0.08895047 0.6639638 -0.33602566 -0.31776887 0.0333785 0.61606365 0.2037683 0.43106824 0.64693147 -0.9065278 -0.32049036 -0.006659962 0.58540905 -0.21114047 0.22051764 -0.473407 -0.046251755 -0.5314112 -0.024840746 -0.3948329 -0.7200181 -0.13941151 -0.2921432 0.3401454 0.349462 0.12871626 -0.22510144 -0.049046572 0.12877294 -0.122302726 -1.3003867 -0.5506126 1.0761374 0.051425897 0.45018232 -0.5320564 0.18548954 0.08071063 -0.28274414 -0.24403541 0.59047425 0.08046356 0.79244375 -1.1070828 -0.22093955 -0.26074952 0.13151804 0.17300989 -0.1690052 0.24933182 0.46898293 0.12315171 0.54813725
238 1.1653634 0.5698694 0.49801818 -0.38625205 -0.28477645 0.19888508 -0.51395404 -0.3124684 -0.29826733 -0.6003364 -0.82334685 0.5847417 -0.35862342 0.20487772 0.35854414 -0.15831214 -0.0790426 -0.54838014 0.5584461 -0.12198067 -0.25310713 -0.019264314 0.18598607 0.37966183 0.7140337 -0.09508374 -0.39207548 0.15965268 -0.64050657 0.43206814 -0.3371443 0.25767374 0.42475027 0.10639449 0.015667912 0.21240443 -0.059430048 -0.17727473 -0.11920924 0.37414956 -0.10463752 -0.46389776 0.030608395 0.7106594 0.39182267 -0.11457152 -0.10233642 0.50176686 0.53506684 -0.9203181 0.040869117 0.15990116 0.39402828 0.38299054 -0.69831717 0.4257248 -0.65179443 -0.14235257 -0.30891198 -0.68448687 0.0794391 -0.32931092 -0.24983275 0.2315615
203 -0.7079401 0.24374397 0.04038714 -0.30792502 -0.08706045 0.30692044 -0.43772817 0.18346101 -0.30197975 -0.35560754 0.08041016 0.61680174 -0.49813595 -0.44068378 -0.07835128 -1.0713444 0.0041927556 -0.8669083 0.5425022 0.91800666 -0.2779521 -0.52110124 -0.39324504 -0.51314664 0.2796727 0.34402183 -0.43305606 -0.70926785 -0.74854445 0.13711168 -0.92131287 -0.25818726 -0.7530012 -0.03951496 0.11559604 -0.37445158 -0.045395054 0.2114624 -0.42226288 0.042234108 0.707357 -0.91814256 0.36842778 0.9424122 -0.25758436 0.09552812 0.303103 0.56811595 -0.20475622 -0.72591245 0.3010287 0.5308903 0.52886975 0.9381284 -0.33035216 1.0854826 -0.4528547 0.14534926 0.68181956 -0.67243814 0.1080059 -0.76017284 -0.15362814 -0.01367378
204 0.018634507 0.3254208 0.057992138 -0.2824604 0.10660692 0.6484862 -0.11510684 0.22613595 -0.69039786 -0.15928042 -0.46497965 0.024763204 0.68596333 -0.4283023 -0.21164486 0.07649355 0.620312 0.2825572 0.44979796 0.64541066 -0.9947919 -0.42375046 -0.009546957 0.5100423 -0.11438093 0.18968248 -0.29262352 -0.0034518556 -0.4642487 0.007753283 -0.5218225 -0.6069845 -0.00046439178 -0.26480106 0.3578812 0.3618325 0.11935484 -0.2083687 -0.0310339 0.09528509 -0.27166155 -1.2767848 -0.48915574 1.1231467 0.06518685 0.45045665 -0.41700774 0.08586198 -0.08308174 -0.3941698 -0.3550051 0.6241361 0.20802964 0.8361433 -1.1656665 -0.05712457 -0.07610359 0.07622166 0.3961951 -0.25889117 0.31918043 0.3279277 0.17657307 0.549665
20 0.24086212 -0.35739774 -0.011104542 0.015113755 -0.21790408 0.11937026 -0.20328738 0.12499704 -0.42940155 -0.19069616 -0.32703185 0.21273795 0.42335236 -0.19179296 -0.57181865 -0.29818225 0.5654136 -0.28117183 0.2340652 0.16730832 -0.43364534 -0.33962336 -0.16928494 -0.078564875 0.32582915 0.43267658 0.009369795 0.5951339 -0.009919015 -0.0033219815 -0.48135278 -0.547936 0.3422508 0.7482118 -0.57727677 -0.43917492 0.09980129 -0.69509447 -0.83948135 -0.4132118 0.66530085 -1.1013037 0.76800096 1.4111578 0.34577516 -0.31434804 -0.37787828 0.7817692 0.33642402 -0.16326271 0.07285905 0.75830877 0.123579726 0.08323357 -0.08510066 -0.28450206 -0.8566654 -0.18427025 -0.60355973 -0.81123984 0.045940474 -0.5136766 1.068847 0.24849957
220 -0.023535194 0.18179911 -0.044135287 -0.13789126 0.04677691 0.6764864 -0.23888601 0.17380017 -0.7638145 -0.26028842 -0.35877696 0.08526012 0.79796374 -0.38300994 0.0007597504 0.13934755 0.5578248 0.37743565 0.67766106 0.5922889 -0.969837 -0.56244814 0.08304253 0.5917189 -0.14402743 0.30356422 -0.44120294 0.07356829 -0.7003138 -0.19151795 -0.53561574 -0.78325737 -0.05495778 -0.34528154 0.5287023 0.19952379 0.24093436 -0.2784031 0.22066905 0.0038800326 -0.12141993 -1.1499863 -0.48532465 1.0468979 -0.002662946 0.22046281 -0.4186921 0.08135771 0.120919086 -0.39879498 -0.29952714 0.72312456 0.10557199 0.69904333 -0.95889467 0.0007935187 -0.18837193 0.0085767135 0.20947625 -0.22494435 0.18079175 0.4124468 0.18443374 0.46212158
256 -0.59401864 0.27564573 0.8786805 -0.3032707 0.5809826 -0.6211623 0.060696464 0.46924445 -0.41651934 -0.5180354 0.22202918 0.6462324 0.77785385 -0.34321648 -0.5694937 0.22879882 -0.07842631 -0.16888648 0.5394222 0.0843333 -0.09300392 0.024036564 0.637373 0.06640496 0.22829323 -0.09749155 0.23667258 -0.3810952 -1.2200919 0.39080194 -0.3753386 -0.14426227 0.82088244 -0.2576922 -0.2515366 -0.042992964 0.054405436 -0.15936016 -0.5551247 -0.4010747 0.18348233 -0.2658665 0.107217856 1.0636655 -0.16575888 0.15320054 -0.4629224 0.60373783 0.3298262 -0.25612596 0.25590807 0.025693303 0.055103183 0.57734376 -0.27357656 0.45476818 -0.37840936 -0.3857639 0.07300081 -0.7580353 -0.31234416 0.06799017 0.12934831 0.5208399
72 -0.014497294 0.24566117 0.07116263 -0.17974475 0.060301855 0.71898043 -0.17545351 0.18863532 -0.7375822 -0.4121147 -0.34230825 0.12072823 0.6381224 -0.39820454 -0.010074447 0.16371134 0.4883147 0.51461786 0.66188973 0.73861057 -1.0210857 -0.41056794 -0.10325496 0.5277205 -0.31710115 0.2386853 -0.5098549 0.006535444 -0.4957314 -0.12638615 -0.49886304 -0.724114 -0.026943497 -0.37653682 0.27857876 0.2137253 0.09758018 -0.23897873 0.1598195 0.022052836 -0.1343019 -1.2112994 -0.49611038 0.9798273 0.005221098 0.262364 -0.38546088 0.07254013 -0.0002939649 -0.30696586 -0.31889412 0.69921327 0.11032116 0.7676278 -1.0094588 0.19415605 -0.3161795 0.09850726 0.121745326 -0.331571 0.20858374 0.56164134 0.14209886 0.524949
121 0.11227545 0.18831567 0.7937788 -0.7485783 -0.18639378 0.4333654 -0.7360204 0.4755056 -0.15453735 -0.18868773 -0.16616869 0.06295209 0.15580367 -0.39546308 0.0828074 -0.528483 0.032221485 0.20699097 -0.22850488 0.31253928 -0.42942283 -0.4390008 -0.20197679 -0.089005254 0.67706 0.57548666 -0.06966298 0.37809718 0.12832549 0.14448111 -0.55228144 -0.77577233 0.59280866 -0.3222879 -0.8416284 0.4367379 0.95161504 -0.13808005 -0.6851718 -0.043004673 0.4597322 -0.5818024 0.229558 1.6189862 0.3418006 -0.13792004 0.0967077 0.6926657 -0.044362858 -0.18313415 0.16845009 0.0914448 0.12740588 -0.24350002 -0.3617463 0.3744756 -0.801651 -0.1825722 0.27990967 -0.29181063 -0.30721498 -0.3269793 1.0749297 0.19947825
233 0.57713497 0.21489686 0.09155494 -0.010971962 -0.23302193 0.24637322 0.17581673 0.6775148 -0.15588227 0.21498503 -0.17308505 0.36335614 0.043301623 -0.34894067 0.15577555 8.176168e-06 0.43829867 -0.5044317 -0.050738387 0.33065587 0.18098675 -0.83724713 -0.3081779 0.63879615 -0.028817182 -0.9265415 -0.1030602 -0.334468 -1.0225425 -0.2203774 -0.43278942 -0.20648496 -0.19379109 -0.5487422 -0.37560794 0.03740651 0.1460915 -0.32205865 -0.6365399 -0.65325207 -0.092772454 -0.08685336 0.049413644 1.5676994 -0.7542003 -0.45895156 0.36588743 0.6123269 -0.12510377 -0.65917635 0.5263945 0.35770264 0.25758886 0.2865361 -0.3127612 -0.13267538 -0.64403856 0.30557504 -0.31028813 -0.2935639 -0.009916384 0.20372252 0.14701027 -0.03686373
226 0.40298122 -0.4557987 -0.054024365 -0.3001878 -0.5842934 0.074336946 -0.03376309 0.23412481 -0.010495716 0.20455477 0.465487 0.5958972 0.028280228 -0.38917336 -0.30980882 -0.3307386 0.08076668 -0.34890872 0.0091450475 0.066283286 -0.40651378 0.024366738 -0.12461539 0.066024594 0.2825188 0.5917975 -0.6728512 -0.68847954 -0.43892154 0.0008182965 -0.9285779 -0.5850772 1.0651828 -0.4925884 0.41122362 0.24783008 -0.08630973 -1.011998 -0.32167172 -0.37869847 0.27672076 -0.3165278 0.19328563 1.2205508 0.64362335 -0.5104368 0.47780192 0.42612052 0.057566177 -0.3978613 -0.010304515 -0.14469129 0.29217118 0.9816274 -0.33735317 -0.24644238 -0.29434 0.46764097 0.2239358 -0.6936106 -0.3411937 0.08074231 -0.44031176 1.0074811
258 -0.7319858 0.2822715 0.8741003 -0.17672768 0.5398652 -0.58182764 -0.01416747 0.37083402 -0.41263977 -0.58555776 0.23564082 0.6201499 0.7178834 -0.25665656 -0.5705336 0.19624296 -0.0613082 -0.058813803 0.693802 0.10990823 -0.03865005 -0.14361337 0.53983027 0.054668136 0.19904763 -0.14196886 0.16773655 -0.45998332 -1.1780396 0.32595026 -0.31329826 -0.093509965 0.7579421 -0.30593294 -0.22878431 -0.027291464 0.15282977 -0.08431583 -0.59877896 -0.42077658 0.24022672 -0.29506195 0.039156582 1.0394087 0.045076597 -0.08778687 -0.5399883 0.62816656 0.36405414 -0.38413924 0.3948516 0.05329222 0.0014891877 0.67365676 -0.22614723 0.47954032 -0.16446863 -0.3379151 0.022283083 -0.7951771 -0.3920479 0.07014959 0.18151708 0.33560488
309 0.91883 0.1258173 -0.015248845 0.48935738 0.18725891 0.32766944 -0.068054534 0.33079657 -0.6816134 -0.087730646 -0.69937056 0.29905915 0.74162006 -0.092776336 -0.54131246 -0.7689517 0.25395197 0.5190709 0.37769753 -0.15640548 -0.1342571 -0.76327455 0.18525 -0.18604648 0.1552394 -0.13222812 -0.18657112 -0.9403642 -0.62240505 -0.0049009337 -0.08118927 -0.8213379 0.74772453 -0.18616371 -0.27878964 -0.032755602 0.6037738 -0.136287 -0.6585739 0.27126008 0.6716958 -0.10653225 0.23065695 0.6836308 0.05536309 -0.19927056 -0.32895553 0.45861393 -0.22681394 -0.23979294 0.053004343 0.21620935 0.50781786 1.1821891 -0.2143624 0.63354295 -0.94886786 0.2374825 -0.12250614 0.41288522 0.23908082 -0.693039 0.007113952 0.70110726
129 0.72457844 -0.018270927 -0.06269432 0.06459487 0.009326877 -0.33414972 -0.005568908 0.8377096 -0.5029728 -0.6144812 -0.26551837 0.77047914 -0.23907721 -0.4965265 -0.22138175 -0.3958799 0.53125674 0.3728778 0.2860084 0.64543504 -0.09348372 -0.22181979 -0.42112556 0.08902055 0.67822516 0.7517481 -0.1967944 -0.3703922 -0.6590435 0.30956593 0.6980033 -0.67460924 0.35219097 -0.35237902 0.5637828 0.3199557 -0.17785968 -0.52728057 -0.32815108 -0.41580772 0.2873867 -0.4872877 0.2609698 0.23448119 -0.075266056 -0.1682009 -0.40378255 0.8937968 -0.46283773 -0.59946233 0.48587516 0.5213626 0.72584826 -0.031257823 -0.70216334 0.25139526 -0.44888017 -0.16105361 0.41845524 -0.6422303 -0.46201447 0.047803774 0.47794962 -0.051096074
62 -0.5936282 0.5035749 -0.089132056 0.19874948 0.030560264 0.9715433 0.32981217 0.75461805 -0.052643545 -0.013860894 -0.035927575 0.36130753 -0.119194575 -0.8857055 -0.12535082 0.20664471 0.3953682 -0.10592728 0.8316195 -0.098766975 0.25230476 -0.34672204 0.17001003 -0.19445193 0.34884572 -0.1565162 -0.50666916 0.5775875 -0.1440773 0.070980236 -0.13480605 -0.19627495 0.17968757 -0.26475587 0.05749882 0.4875265 0.2719493 -0.5051903 -0.54355043 0.42494145 0.348615 -0.26124594 0.5516735 0.38718897 0.07076551 -0.3071515 0.17820904 0.83562946 -0.027790302 -0.5058185 -0.28039628 0.043463126 0.75629705 0.43917337 -0.8702816 0.27762333 -0.40394002 0.3383996 -0.11916362 -0.37533757 -0.4049409 -0.3889697 0.113806166 0.6369081
195 0.25454 -0.54675984 -0.115297966 0.14971183 -0.86936015 0.21309233 -0.0020798126 0.15274832 -0.5692166 -0.2638221 0.5671621 0.6247682 0.038155127 -0.7285854 -0.28438428 -0.62128687 -0.44068363 -0.114614055 0.1017184 -0.019191902 -0.45931873 -0.32075855 -0.39062062 0.29089803 0.36546436 0.56570446 -0.39260015 -0.29440504 -0.26932058 0.18611142 -0.7245603 -0.46400252 1.211259 -0.63170916 -0.039435048 -0.1959658 -0.09641022 -0.5343175 -0.14873192 -0.082638726 0.32796544 -0.16193898 0.22738813 1.1206887 0.17357822 -0.43801945 0.6187387 0.728404 -0.0355791 -0.49100664 -0.25647986 0.07087934 0.17562072 0.94912225 -0.36474618 -0.5994647 -0.33537737 0.15405639 0.4577725 -0.79408664 -0.3726889 0.04033827 -0.60063094 0.78017193
248 -0.54582155 0.4734177 -0.07559762 0.21741612 -0.06133614 0.9552767 0.3426403 0.77941746 -0.08937561 0.04724493 0.05335146 0.35414395 -0.22098035 -0.6996063 -0.087866336 0.2026336 0.35444343 -0.030258304 0.930911 -0.0876643 0.22574483 -0.3534747 0.34468022 -0.1123104 0.45902076 -0.12225116 -0.48699635 0.53897876 -0.021619255 -0.12682255 -0.1825998 -0.30711806 0.052842867 -0.1478129 0.048056353 0.48208258 0.34019873 -0.6431046 -0.5670844 0.36385244 0.23920134 -0.26750916 0.49207476 0.41787988 -0.0118333725 -0.48595628 -0.04087481 0.8242647 -0.006076544 -0.51126325 -0.28893414 0.11084019 0.74840933 0.43512943 -0.8625828 0.24572498 -0.49292406 0.18344301 -0.22492738 -0.3140893 -0.41755557 -0.45648777 -0.006857778 0.66543
128 0.6997312 0.06280453 -0.06774905 0.031402003 -0.07231377 -0.47981298 -0.04200266 0.8395093 -0.5516269 -0.38846064 -0.24766509 0.800585 -0.27786043 -0.48036903 -0.24962991 -0.3931901 0.47253326 0.23995763 0.26814374 0.62743276 -0.0449171 -0.12748119 -0.25052378 0.006347133 0.68813515 0.7369297 -0.24838038 -0.299124 -0.630905 0.36332485 0.73840296 -0.7489713 0.35358143 -0.54522777 0.4374024 0.40276495 -0.28009152 -0.6027373 -0.32348055 -0.44357833 0.42599168 -0.4417149 0.25435776 0.3521382 -0.11421161 -0.1113826 -0.47480884 0.7672769 -0.46979338 -0.53315556 0.315906 0.5695445 0.87563175 -0.027753172 -0.8085072 0.08648324 -0.44021878 -0.1278842 0.4571968 -0.6548688 -0.25054199 0.058973078 0.4427627 -0.1894488
310 0.47972187 0.7851524 0.32954305 -0.7526534 -0.41449848 -0.15702903 -0.31543174 0.010731536 0.019712819 -0.32826436 0.15814535 0.8496172 0.3383916 -1.0736566 -0.14743969 -0.29844075 0.1651342 0.57684267 -0.15297757 0.013821496 -0.11046789 -0.6283252 -0.21654621 0.00101714 -0.1481284 -0.10585399 -0.30103695 0.1972786 -0.7029363 0.15648732 -1.3524994 -0.24044453 0.2217795 -0.5832512 0.007685174 -0.071779564 -0.17765297 -0.51115084 -0.99612415 -0.23882762 0.2826197 -0.4128674 0.6064255 0.27270943 0.60148233 0.26468685 -0.66571444 1.119152 -0.17821793 -0.52499914 0.2882523 1.2592007 0.24391706 0.59134597 -0.37134948 -0.01763331 -0.35552588 -0.36923516 0.08506136 0.35058862 0.052958608 -0.30035263 -0.29699 0.055651907
46 -0.5916921 0.4367113 -0.12921491 0.25704837 0.054490913 0.8294211 0.2600895 0.7946145 -0.1129062 0.083074175 0.009751563 0.25300246 -0.09247928 -0.81521606 -0.018604403 0.20437226 0.39268902 -0.19332784 0.82527626 -0.113302685 0.41439325 -0.2540273 0.21659808 -0.054756824 0.32802504 0.045872778 -0.544121 0.5578947 -0.15482205 0.030905567 -0.2303503 -0.22006093 0.19852702 -0.25471425 0.022461185 0.4625834 0.37558478 -0.6854082 -0.5820747 0.5432912 0.1360007 -0.27603832 0.47620144 0.33004346 -0.06623721 -0.39592633 0.094512455 0.8851706 0.15692478 -0.548058 -0.24228622 0.16008024 0.6958855 0.3434525 -0.94654566 0.2432317 -0.55638874 0.28784695 -0.11771503 -0.31209356 -0.30982926 -0.48962572 0.065720886 0.63142824
250 0.5602466 1.1572939 -0.040723357 -0.91745436 -0.43567964 -0.4211954 0.090025224 0.12249355 -0.24515101 -0.43060508 -0.109150715 0.9909855 0.26455405 -0.8690654 0.003240831 -0.18080154 0.41860282 0.4143571 -0.11502034 -0.36387616 -0.54117906 -0.46307075 -0.38789013 -0.04505167 -0.08672707 0.11395156 -0.07987623 0.122130565 -0.73937625 0.24226451 -1.506419 -0.45613003 0.069958135 -0.65413994 0.15764856 -0.23534378 0.04559884 -0.498784 -1.0294993 -0.13687614 0.42006004 -0.1938952 0.3548948 0.33812845 0.3940937 0.0790866 -0.4690486 0.73160136 -0.18815844 -0.27953258 0.22445813 1.1572193 0.21943563 0.5606768 -0.13647938 -0.0015289085 -0.41025928 -0.4644408 0.1162469 0.1349573 -0.11065175 -0.24743305 -0.15727276 0.25180355
65 -0.72745955 0.21600144 0.7382791 -0.28075483 0.4231765 -0.72569877 0.041192155 0.45636854 -0.5258693 -0.51267326 0.17434324 0.6351037 0.64538854 -0.32953227 -0.4564646 0.23744442 -0.056450658 -0.019025534 0.54277545 0.086261705 -0.12517513 -0.024136633 0.6689002 0.08803686 0.32802922 -0.1447152 0.2518505 -0.4091908 -1.2561059 0.22938535 -0.30104673 -0.14403406 0.7252349 -0.30887276 -0.17612213 0.027750961 0.16339622 -0.17835924 -0.4694257 -0.4722065 0.3137215 -0.33010358 0.06903455 1.1179101 -0.12596795 -0.013290352 -0.56147635 0.5901264 0.49770916 -0.3512859 0.32364994 0.047242444 -0.021510938 0.5832451 -0.1945739 0.4733518 -0.2845264 -0.46888685 0.07156656 -0.7321175 -0.32721803 -0.10580645 0.04109064 0.5157444
263 0.17562798 -0.1658439 -0.1055373 -1.138838 0.07618294 0.10864683 -0.38758543 0.08432996 -0.7861015 -0.3900094 -0.3837119 -0.25012702 0.0703591 -0.6709716 -0.56375706 -0.21309035 0.11731111 0.56830597 0.48451114 0.7580584 -0.61003274 -0.6167555 0.17334928 -0.4567269 0.39643562 -0.41062567 -0.77586263 -0.097830944 -0.4149878 0.22563091 -0.27041173 -0.10798424 0.040155895 -0.85846096 0.2584664 -0.5107554 0.24965835 -0.75346106 -0.8410944 0.048213124 -0.6300599 0.25317067 0.43449438 0.6196816 0.014118467 0.0010729213 -0.058049638 0.50110966 0.13745122 -0.12422099 0.48695147 -0.31451425 0.14715987 0.69500846 -0.57363737 -0.3908239 -1.0989286 0.0032101655 -0.30494857 -0.9394635 -0.11752102 -0.6496759 0.21385595 0.27713516
49 -0.57753944 0.40801486 -0.010785428 0.15136166 -0.0077181086 0.8796391 0.35338604 0.90708584 -0.103682116 0.13325407 -0.02196451 0.18324943 -0.15827368 -0.7556025 -0.08740155 0.14473195 0.35431224 -0.1268527 0.76447403 -0.17704172 0.27349532 -0.35273707 0.29459321 -0.054697208 0.4605106 -0.18982023 -0.6037599 0.5895868 -0.1231561 -0.02106672 -0.1444273 -0.3700098 0.17047565 -0.24393663 0.04347977 0.48740703 0.24513704 -0.5758014 -0.6071771 0.49285844 0.30214423 -0.40075603 0.43033466 0.2323879 0.05279507 -0.37731677 0.012103489 0.8748202 0.08177114 -0.5930312 -0.34526047 0.079118624 0.70906293 0.4416204 -0.7368821 0.24452424 -0.53919244 0.32780713 -0.123260885 -0.4187091 -0.37465042 -0.41421723 0.0990747 0.64614195
330 -0.068110146 0.16327915 0.28079054 -0.06430747 0.079473235 0.26682767 -0.6601638 0.2216695 -0.63048804 0.14113228 -0.06144483 1.0478722 -0.26395574 -0.11652616 -0.40420368 -0.8547779 0.31829235 -0.11745733 0.5271269 0.8058778 -0.4569862 -0.37511218 0.08421416 -0.12201636 0.29211196 0.08536554 0.2031932 -0.4448049 -0.9511945 -0.26771775 -1.0311716 -0.53113353 -0.28969923 -0.6496853 -0.019563958 0.39538944 0.0030852566 -0.46183032 0.12018935 0.637524 -0.16168813 -0.4293364 0.2643563 0.7312139 -0.22447741 -0.39919898 0.0785542 1.1534703 -0.105941445 0.40135652 -0.3041922 0.54267853 0.8331391 0.16827965 0.46373227 0.45192394 -0.13535225 0.022427704 -0.22716191 -1.0500988 0.31361964 -0.65157783 0.05146794 0.3114292
98 -0.5777339 -0.4044567 0.0034366027 0.13974461 0.52975035 0.39999965 -0.5771386 0.8297212 0.13849154 0.015760958 -0.24339381 0.6842183 0.20924073 -0.48832735 -0.10880337 0.6537202 -0.0779427 -0.00094129296 0.5364802 -0.016391741 0.2626988 0.15873179 -0.024900144 -0.06584016 0.47924975 -0.4587537 -0.39415148 0.58060056 -0.44604957 0.04602198 0.081219114 -0.8061176 0.010944917 0.060257014 -0.16548735 0.20221403 0.13863902 -0.27697042 -0.49023 0.556026 0.11169435 0.25646877 0.3685542 0.8705252 0.01511461 -0.27701896 -0.23628001 1.1672041 -0.06953564 -0.42056122 -0.026262967 0.5618227 0.14173068 0.90948504 -0.91755503 0.29543024 -0.33694145 0.0947159 0.21046528 -0.49808082 -0.43628657 -0.32420936 -0.11073094 0.69842905
101 -0.66188365 -0.26155207 0.049652454 0.15358639 0.49527365 0.18743213 -0.6556674 0.6142489 0.08259908 0.06398605 -0.14561057 0.72398907 0.20413601 -0.50186807 -0.09952268 0.6173739 -0.00575826 0.011739713 0.5990506 -0.08215376 0.28007948 0.07577983 0.06473641 -0.12735286 0.32676867 -0.45357865 -0.6325457 0.5433925 -0.42924038 -0.029747589 0.10593944 -0.83045566 0.055808682 -0.013245629 -0.18518366 0.16187957 0.10723068 -0.17428838 -0.5826909 0.6063052 0.1189972 0.23230214 0.18586203 0.871692 0.15006371 -0.45558125 -0.23787032 1.1923538 -0.17346756 -0.52625805 -0.07207195 0.4568501 0.19848761 0.8073828 -0.97919303 0.2924784 -0.1592217 0.27611634 0.10304507 -0.5509229 -0.4000032 -0.35185173 -0.007499742 0.5027731
276 0.23213544 -0.02190409 -0.07572996 0.034052037 0.15915598 0.49689814 -0.86361223 0.03350494 -0.19379652 -0.7755545 -0.40878293 0.20398925 -0.9793583 -0.8998762 0.023846108 0.21805082 0.24332784 -0.38493833 0.10737375 0.19126615 0.0037149007 -0.5508563 0.21580467 -0.5920682 0.14541572 0.017441086 0.40828642 0.14961898 -0.6765071 0.46749523 -0.81236696 -0.23094413 0.8323863 -0.08110262 0.25826198 0.021183794 0.016964316 -0.19593821 -0.504155 -0.4849515 -0.025153032 -0.39193353 -0.9059842 0.6298868 0.03620196 -0.3046307 -0.6224971 0.5144932 0.14226705 -0.23171546 -0.3287108 0.30168182 0.7436401 0.59607565 0.03132157 0.027924329 -1.0263007 0.18903367 0.24416715 -0.35966524 -0.078945085 0.07240967 0.18634926 0.31180415
41 0.25021484 -0.008595949 0.0078700995 0.057793345 0.2015146 0.6299628 -0.80706173 -0.102785654 -0.19800478 -0.80494386 -0.3447827 0.17231885 -1.0665613 -0.77664995 -0.17485715 0.24554558 0.37130737 -0.4393841 -0.056458175 0.12704717 -0.07021564 -0.36232406 0.21523026 -0.6063468 0.30204764 0.04246508 0.18313846 0.18347304 -0.77286434 0.5047967 -0.77287763 -0.3827944 0.7894171 -0.2214446 0.116809994 -0.054979157 -0.018673588 -0.19085604 -0.53913516 -0.531962 0.09378084 -0.37278575 -0.9646961 0.64917856 -0.09422723 -0.17552054 -0.6595847 0.66593134 0.09761054 -0.22309534 -0.19523852 0.21359475 0.7257598 0.6457652 0.04872097 -0.065545514 -0.9691162 0.2228833 0.14148994 -0.25242752 -0.051929463 0.09187893 0.15637134 0.28087524
83 -0.18238224 0.6483896 -0.037146192 -0.4786369 0.8471755 -0.2651824 -0.41127494 0.4964829 -0.34347376 -0.17345782 -0.86750513 -0.37315348 0.09529117 -0.8543361 0.11742572 -0.60153633 0.032035753 0.31367037 -0.030455828 -0.44999364 -0.26337543 -0.737894 -0.85061365 -0.5898913 0.6095104 0.5450604 -0.6843408 -0.44413057 -1.090813 -0.5018358 -0.48176953 -0.19851567 0.33916372 0.11109282 -0.5966034 -0.002898483 -0.32662264 -0.48847282 0.3372736 -0.30451027 0.32975578 -0.64654464 0.123707145 0.8663491 0.1500799 -0.17014961 -0.20361987 0.9618353 0.3267398 -0.17069012 -0.24123311 -0.01964185 0.8801215 0.58884007 -0.7920999 -0.20025182 -0.16816859 -0.025338177 -0.40589046 -0.55024785 -0.44088334 -0.13001554 -0.5104988 0.17894237
45 1.185157 0.36837775 0.1828273 -0.2711137 0.1910787 0.45718014 -0.974643 -0.44975722 -0.36279863 -0.768281 -0.75663394 0.5314385 -0.84875464 -0.39652053 0.28838488 0.015327368 0.016735893 -0.51803964 0.44608065 -0.26906353 -0.104763925 -0.22489317 0.51404387 0.0072888387 0.37806374 -0.20003505 -0.025050338 0.07455448 -0.69831663 0.3589592 -0.4745903 0.10520989 0.6528054 -0.14235985 0.09188846 0.3331325 -0.03371279 -0.35247084 -0.13978818 0.20106417 0.46555972 -0.42271295 -0.26042122 0.64467996 -0.005620206 -0.07721403 -0.21855266 0.45223442 0.35586992 -0.7996522 -0.12931852 0.24551561 0.047911465 0.43195388 -0.5253658 0.022077827 -0.53051335 -0.060369715 -0.1285817 -0.7779979 -0.0054469937 -0.2095572 0.058302514 0.23077302
213 1.3126781 0.40432772 0.36516216 -0.18301338 0.21558094 0.60005254 -0.8868707 -0.46851036 -0.27410212 -0.8434133 -0.63835037 0.43383545 -0.7586887 -0.31762505 0.17873433 -0.12387493 0.03690571 -0.5885278 0.62255585 -0.22663718 -0.12931915 -0.2389043 0.35322708 -0.04199617 0.23248415 -0.23898047 -0.024966907 0.047904678 -0.74700266 0.47149864 -0.5566876 -0.044913523 0.6398859 0.08394591 0.08956976 0.30612355 -0.097464755 -0.3027328 -0.18999325 0.15099876 0.28635818 -0.2694001 -0.1936509 0.48164573 0.07164582 -0.039209146 -0.15284738 0.44426224 0.32824856 -0.70317566 -0.12205352 0.335605 0.012341676 0.4107531 -0.5763856 0.10102693 -0.7397274 -0.13669902 -0.061745234 -0.84658927 -0.16298851 -0.07031505 0.16052495 0.3839707
307 0.514136 0.36150113 -0.5606235 0.5491246 0.37800124 0.22413492 -0.57928276 0.17003939 -0.71414185 -0.036547415 -0.44605866 0.44239107 0.539235 0.022683514 -0.6431302 -0.62245136 0.42862284 0.35655192 0.25630018 0.005622428 -0.13930328 -0.6848739 0.24408378 -0.15400065 0.13981539 -0.06712377 -0.30741575 -1.1307534 -0.5272181 0.106759995 -0.23972102 -0.78552234 0.8693757 -0.28027186 -0.62495947 0.06360007 0.61185634 -0.16459689 -0.7496924 0.11961548 0.6414425 -0.27113393 0.3658458 0.6019983 -0.056459274 -0.11948432 -0.30296388 0.35275805 -0.30582187 -0.44358453 0.119560406 0.1375355 0.38479608 0.885773 -0.51283616 0.49941567 -1.0885125 0.31551015 -0.05753952 0.46489918 0.27046448 -0.6447424 -0.16112185 0.5038329
194 -0.31698954 0.83339465 -0.17563896 -0.023882154 0.005454859 0.63524777 0.34689432 0.8098975 -0.30132052 -0.085733645 -0.08927353 0.26834777 -0.04045091 -0.53542167 -0.103133634 -0.1882236 1.0588812 -0.22986744 0.81640357 -0.22746104 -0.14319742 -0.22092699 0.12961614 -0.20511457 0.2843256 0.1579613 -0.27719164 0.6370388 -0.48343986 -0.1453535 -0.3409359 -0.083085425 0.16712567 -0.42158905 0.017047603 0.18407865 0.5661881 -0.41500083 -1.0645912 0.4346854 0.46117106 -0.46389014 0.2902056 0.061016247 -0.25904 -0.80525714 0.20444058 0.30562878 -0.0001040873 -0.5059538 -0.28619504 -0.14405744 0.5461306 0.40143564 -0.6533475 0.08225327 -0.42766806 -0.15438125 -0.048238914 -0.6115544 -0.59749645 -0.18768671 -0.05046661 0.6498775
298 -0.25706217 0.81257105 -0.21190087 -0.1785031 -0.10563588 0.64857435 0.3407836 0.91077435 -0.43448097 -0.13030404 -0.047025573 0.26886138 -0.09836406 -0.54841155 -0.21587878 -0.15922777 0.9207623 -0.36148655 0.7597053 -0.23386772 -0.012403021 -0.19285625 0.11947816 -0.121578306 0.51624256 0.23920055 -0.29602265 0.7143867 -0.4291831 -0.14415058 -0.30186212 0.025824068 0.09233035 -0.5050756 -0.117889315 0.11700271 0.5334977 -0.37751833 -1.0299499 0.38500783 0.49820122 -0.4033209 0.33533627 0.170189 -0.35889477 -0.6574634 0.07653558 0.29718158 -0.07747839 -0.43393362 -0.5275557 -0.083165556 0.6200777 0.50011337 -0.62523973 0.061001103 -0.39304662 -0.061891105 0.025241734 -0.494344 -0.47680888 -0.14980154 -0.039419625 0.7030661
59 -0.22478284 0.7158146 -0.15229647 -0.054690976 -0.15552963 0.5790155 0.43586922 0.99829024 -0.4323345 -0.064724684 -0.2166049 0.27303433 -0.062581345 -0.59165406 -0.25624746 -0.09941061 0.856807 -0.27668202 0.8440461 -0.25342304 -0.15479468 -0.08222311 0.08455392 -0.18062446 0.27687985 0.25944152 -0.18514787 0.6558286 -0.50889695 -0.17048971 -0.46362388 -0.02320864 0.08431387 -0.4935834 -0.039644666 0.26747707 0.5440165 -0.26147118 -1.1100599 0.36566556 0.44324115 -0.42279732 0.28871223 0.120532505 -0.2012672 -0.64438623 0.22035964 0.3762994 -0.0086463755 -0.4348603 -0.46482217 -0.20573695 0.6076531 0.35431933 -0.70842457 0.010929881 -0.5470468 -0.0717508 -0.06605372 -0.4691179 -0.53661335 -0.27093866 -0.086076975 0.63709474
33 -0.11238449 -0.0914846 0.16363399 -0.07018182 -0.082692884 0.4105778 -0.75213856 -0.14045596 0.3185911 -0.7041415 -0.36698472 -0.15648532 -0.8361106 -0.7423865 -0.12033606 0.21151248 0.41183153 -0.23686422 0.07901135 0.21068439 0.06518464 -0.59664255 -0.079385564 -0.57803696 -0.065726094 0.0821254 0.32487386 0.04283108 -0.8800915 0.5451923 -0.25089425 -0.48163936 0.7481763 -0.31722248 0.58660346 -0.18888602 0.074222334 -0.21927208 -0.77899355 -0.29290235 -0.004296924 -0.6358027 -0.526204 0.93487865 -0.37208107 -0.45796254 -0.515162 0.72195524 0.23698886 0.17102937 -0.37736732 0.3793652 0.8830188 0.777781 0.1938597 -0.073935196 -0.7862879 0.056750968 0.28277522 0.10306164 -0.26301625 0.06493837 0.12275146 0.3607785
193 0.32673144 0.18263383 -0.12892619 -0.26035526 0.5142759 0.24873674 -0.027054716 0.10811751 -0.21693546 -0.79636925 -0.20329455 0.43285754 0.6487592 -0.9862443 -0.24969763 -0.2220338 0.067653894 -0.26990977 0.5855163 0.72689146 -0.43607044 0.19441053 -0.246998 -0.3255815 0.066917434 -0.070697114 -0.96984696 -0.244132 -0.20618325 0.02939636 -0.23523152 -0.5755155 0.4647623 -0.5747246 -0.034640208 0.6765628 -0.20504409 0.01843529 -0.7654299 0.21838406 0.1265017 -0.3047005 -0.0058892523 1.2839007 -0.18901268 -0.3218393 -0.30522785 -0.055842657 0.25213712 -1.1876993 0.052187353 0.6973945 0.8470958 -0.14513393 0.74731594 -0.3407381 -0.25304344 -0.22780164 -0.08553417 -0.16346096 -0.49794546 -0.78078336 -0.20923887 0.48752636
88 0.29976273 0.15407506 -0.0876927 -0.34904873 0.414878 0.3291087 -0.06609258 0.2935802 -0.39969835 -0.6866122 -0.22268511 0.4074324 0.5461647 -1.0361614 -0.40292105 -0.31234354 -0.019039977 -0.33696055 0.43321934 0.67309415 -0.29899058 0.14959241 -0.21744783 -0.16343214 0.26799324 -0.023052406 -1.0041162 -0.21474493 -0.17160988 0.1384081 -0.12341125 -0.5058606 0.36421314 -0.5240849 -0.16193593 0.723046 -0.18518522 0.17228664 -0.8058943 0.2317169 0.0378563 -0.48019654 -0.013109292 1.2408929 -0.09046886 -0.36965123 -0.49033558 -0.03731223 0.3571452 -1.1008588 0.12475056 0.79596186 0.7457767 -0.10225825 0.8710804 -0.33982182 -0.32061338 -0.11787798 -0.02217827 -0.11364872 -0.4379119 -0.74012434 -0.28241464 0.60453576
8 0.41867012 0.16100399 -0.13316111 -0.26690093 0.59587234 0.23696487 0.012852153 0.3152018 -0.17905594 -0.6738485 -0.28497282 0.6100757 0.5345037 -1.0117985 -0.32171273 -0.17817108 -0.042791747 -0.3833905 0.5029914 0.65417516 -0.29400718 0.0099065 -0.22398244 -0.17607263 0.09571439 0.17354286 -0.8477895 -0.3799451 0.03469251 0.10846557 -0.33122447 -0.49994612 0.32266062 -0.49761665 -0.031826682 0.64572984 -0.06893242 0.19527954 -0.6358633 0.2455578 -0.04799065 -0.20251966 0.14934906 1.4383047 -0.22976616 -0.33528578 -0.5485531 -0.12156543 0.41411406 -0.93683505 -0.015845228 0.7904509 0.8051257 -0.22644718 0.5397834 -0.3789925 -0.45776176 -0.2634177 -0.10867537 -0.18636002 -0.47028846 -0.7011421 -0.26964724 0.67691374
171 0.92517 0.27910742 0.30729496 -0.09379394 -0.27814808 -0.10284644 -0.14642224 0.88659376 -0.22700436 -0.0848415 0.12064251 0.8723136 -0.15043777 -0.55476063 -0.43052202 -0.11278797 0.44515896 0.45819628 0.27065 0.3061006 -0.18727691 -0.47550192 -0.35010892 -0.4524249 0.35018066 0.93165845 -0.13359874 -0.16365221 -0.70546734 0.2976074 0.460796 -0.7380194 0.3867738 -0.08100697 0.28673634 0.24917126 -0.2965949 -0.21491356 0.059260577 -0.36994377 -0.17566326 -0.4511386 0.6235918 0.4552608 -0.6695837 -0.36296067 -0.73713577 0.5299672 -0.2645374 -1.0875773 0.10362429 0.19694 0.42993304 0.42792365 -0.5151994 0.20584878 -0.340329 0.07125304 0.5307479 -0.69276816 -0.30879232 -0.30505627 0.520781 -0.27823803
281 0.50424093 0.37831652 -0.03453798 0.19104041 0.12810127 -0.28717342 -0.26405698 0.91653776 0.13430595 -0.85782105 0.48009118 -0.3009504 0.08857002 -0.0749489 -0.06299326 -0.3958893 0.2883411 0.92818874 0.21505225 0.3965642 -0.6255402 0.16527516 0.20999938 -0.08399318 0.5512374 -0.37341985 -0.5421331 -0.24271643 -0.5793053 0.2971402 -1.0184778 0.1929141 0.024496509 0.09932321 0.20331955 0.29504415 -0.32769912 -0.10075334 -0.5695541 0.3510777 0.8281108 -0.22741318 0.1886877 1.0491377 -0.46838492 -0.7716348 -0.1256288 0.855121 0.509557 -0.05429809 0.00280871 0.36713704 0.44237167 0.48226008 -0.3706463 -0.29869604 -0.53999263 0.61701655 0.44828895 -0.4192434 0.09450412 -0.14371553 0.36580884 0.18764174
356 0.43395218 1.2525506 -0.062443588 -0.8060822 -0.5095475 -0.44333634 -0.08566588 0.25749433 -0.25823677 -0.49991536 -0.05657244 0.8893253 0.06909354 -0.9875078 0.05258479 -0.32482246 0.38545758 0.45502663 -0.032154217 -0.26536512 -0.6271958 -0.30197665 -0.44025195 0.025986532 -0.1807177 0.13683309 -0.19092073 0.15695149 -0.7077502 0.10884215 -1.267998 -0.40083325 0.12526178 -0.71193546 -0.088368826 -0.28807187 0.042250894 -0.4549501 -1.2291903 -0.16495548 0.2462818 -0.47781104 0.36649057 0.11007434 0.40526456 -0.39797333 -0.46871674 0.6723292 -0.10226887 -0.28220248 0.12440465 1.1375405 -0.090450905 0.5176153 -0.21407014 0.1289144 -0.44631886 -0.44968066 0.042307 0.0687521 0.00039828874 -0.26893649 -0.3192405 0.27473503
282 0.5907581 0.37996972 0.015522034 0.18968269 0.208874 -0.17480005 -0.19732575 0.89136624 0.13572139 -0.8620283 0.5615262 -0.22062838 0.096416324 -0.14161144 -0.21513227 -0.48568937 0.24324237 0.8753713 0.19649464 0.37971935 -0.69717926 0.10182858 0.045850232 -0.17493859 0.46055952 -0.25416827 -0.6262145 -0.16921863 -0.5309131 0.59942865 -1.0403633 0.2642546 0.053786706 0.26075944 0.116704084 0.26379585 -0.23832099 -0.030817835 -0.41360086 0.43050373 0.7706364 -0.065920934 0.18955953 0.96161634 -0.50841486 -0.6424224 -0.113055855 0.89336365 0.49315548 0.010152512 0.19229512 0.49759692 0.47185618 0.5239241 -0.33475003 -0.12493583 -0.6654921 0.6366409 0.31086868 -0.43340436 0.013312731 0.094297774 0.4240875 0.33529636
86 0.39498404 0.20275255 -0.067008875 -0.15922457 0.56282437 0.36147556 -0.09013207 0.26391035 -0.22811688 -0.76750445 -0.207453 0.5175129 0.65782845 -0.89467955 -0.30338416 -0.31252512 0.09228259 -0.3355248 0.63655996 0.75933075 -0.2532425 -0.026549812 -0.23976593 -0.27279165 0.10259242 0.10763099 -0.9903197 -0.29748866 -0.046442315 0.14171189 -0.26075962 -0.49244598 0.3194553 -0.49542382 -0.16022412 0.59642905 -0.15889369 0.12953441 -0.63021886 0.14663167 -0.014856622 -0.07300298 0.17599066 1.2533277 -0.11501159 -0.44412848 -0.517939 -0.08033681 0.42170453 -0.9512418 0.018883592 0.9256227 0.77569336 -0.13833588 0.70650584 -0.35128528 -0.47415024 -0.36145598 0.03370013 -0.23432359 -0.51999724 -0.4890675 -0.25783357 0.695767
342 0.8499652 0.2988381 0.2581855 -0.011339641 -0.311245 0.025947763 -0.121274926 0.75123334 -0.299176 -0.11092262 0.023928652 0.87642807 -0.017436426 -0.49937394 -0.44366607 -0.1256611 0.6101798 0.57284975 0.3347221 0.29102975 -0.29903227 -0.3242452 -0.2933068 -0.49548537 0.3894307 0.7302437 -0.120453335 -0.051486526 -0.7523117 0.22160077 0.4699389 -0.8139402 0.31784853 -0.09871012 0.26795748 0.35288417 -0.4557261 -0.39286885 0.048985425 -0.5286232 -0.20057133 -0.48229715 0.61529803 0.47927362 -0.5525019 -0.58331573 -0.7966947 0.6434048 -0.2687468 -1.0045404 0.24289545 -0.032478664 0.43022698 0.31305674 -0.436214 0.20882921 -0.35144222 -0.0049388255 0.62874854 -0.64305264 -0.15538459 -0.26192653 0.32731098 -0.3154723
81 -0.7066792 -0.010041403 0.0916788 -0.39717686 -0.09250416 0.3975782 -0.27380642 0.37487227 -0.34566593 -0.33640265 -0.1720984 0.6214363 -0.42960092 -0.34535608 -0.09848618 -0.9885608 -0.12231316 -0.76180434 0.5064782 0.88647777 -0.3055425 -0.53725296 -0.20784299 -0.46196112 0.25053355 0.40665376 -0.3005079 -0.61824363 -0.9677885 0.15634409 -1.0846801 -0.4014821 -0.80281335 0.031497378 0.21939276 -0.24799201 -0.11891485 0.17960632 -0.45187205 0.11148174 0.8101406 -1.0849383 0.34203613 0.8158963 -0.1759156 0.099889114 0.35131806 0.5865671 -0.19878654 -0.5709267 0.36601686 0.4602008 0.44937417 0.7566652 -0.122949585 1.0638388 -0.58713394 0.22566631 0.62613624 -0.6727324 0.102957316 -0.7673542 -0.3182575 -0.040336307
211 0.8630102 0.32795686 0.25170553 -0.059374478 -0.19694336 0.07473997 -0.22046165 0.8958251 -0.41021124 -0.11311624 -0.045928314 0.79732937 0.10808639 -0.3784734 -0.37717697 -0.000860883 0.54376864 0.419089 0.30488855 0.1487038 0.050453193 -0.20453301 -0.4143968 -0.2936412 0.32594767 1.0898325 -0.2331015 -0.20623353 -0.80324924 0.5030634 0.22057012 -0.787472 0.29632354 -0.17463945 0.278178 0.38167417 -0.28475815 -0.43670702 -0.005798647 -0.39300743 -0.41834518 -0.4461909 0.6286219 0.43699786 -0.6175343 -0.43014804 -0.76515144 0.68848985 -0.12717855 -0.8828068 0.27120233 0.01083038 0.3482332 0.43468496 -0.32937166 0.07716377 -0.49177784 0.23068902 0.61975586 -0.57921314 -0.26827106 -0.29134488 0.4133716 -0.46322998
132 0.2167542 0.012233214 -0.08380092 0.19651899 -0.31254995 -0.3994864 -0.37054336 0.411041 -0.2778209 -0.84850556 -0.18723771 -0.009086228 0.27966186 -0.29234087 -0.053143244 -0.92817825 0.49118823 0.30943748 0.3219608 -0.5953899 0.10991702 -0.07833255 0.56878924 -1.0049638 0.45997563 0.112836555 -0.045049503 0.30954963 -0.43746227 -0.32175446 -0.5230555 -0.81655186 0.070317924 -0.74355686 0.19957483 0.33821803 0.24456415 0.005028447 -0.58199126 -0.08244218 -0.6890042 -0.5137883 0.6353487 1.2725176 -0.06568423 0.47793362 0.032536313 0.6367627 0.11833752 -0.8614922 0.018501893 0.52358633 0.0810279 0.19279894 -0.10286814 0.18942747 -0.57403904 0.6344636 -0.43658766 -0.6152485 0.05479292 0.56434584 -0.35783035 0.4922516
