307 64
104 0.13209519 -0.41463816 0.0042109275 -0.1325688 -0.24683931 0.038658727 0.16231793 0.75496536 -0.25884145 -0.63238984 0.4575903 -0.8967914 0.39581233 -0.30747607 0.07613615 0.34810662 -0.11116237 -0.4638982 0.5973625 0.16956356 0.5232821 -0.5957328 0.5258881 -0.40052357 0.48331875 -0.23350143 -0.75409025 -0.15986511 0.45208895 0.19428524 -0.017822074 -0.60359687 -0.274457 -0.28092945 -0.30996972 -0.44230625 0.09833437 -0.2832402 0.023840562 0.47248042 -0.4896804 0.6759198 -0.14838012 0.4375378 0.30008632 -0.35146147 -0.106673904 0.37435076 -0.40749022 -0.1869572 0.3689126 -0.4090622 0.0033235722 0.054672882 -0.54509103 -0.5529406 -0.5115997 -0.582098 0.014542343 0.33773652 0.20401858 0.75324965 0.39778775 -0.22525626
1 -0.46208534 0.29926315 0.5258192 -0.70784366 -0.7043619 0.11749883 -0.081705175 -0.7171811 -0.3185633 -0.15109672 -0.92973167 -0.5912066 -0.27933675 -0.014182556 -0.3367903 0.24122058 -0.40888923 -0.09760952 0.30420625 -0.077166 0.116052076 -0.12283383 0.08538004 0.0064979973 0.24088237 0.03423157 -0.90394765 -0.019112833 -0.06908888 -0.40697291 0.45553136 -0.46543747 -0.6622123 -0.18046138 0.5467279 0.020592578 0.40521148 0.16238298 -0.13683978 -0.37845173 -0.22397342 0.5704764 0.6146459 0.2320124 0.077268325 -0.22879477 0.05459197 0.10876609 0.14831671 -0.064250804 0.13412766 0.22399712 -0.16567853 -0.023942921 -0.6101553 -0.35135812 0.13856426 -0.06283467 0.035874397 0.5695783 0.40693307 0.28131488 0.4852812 0.059791226
79 -0.06259625 -1.1339566 0.42208907 -0.32078582 -0.8259385 0.13773929 0.20641784 -0.2828288 -0.13574691 -0.057161998 0.09850083 0.8673102 0.013614157 -0.3418935 0.36177564 0.41091704 0.18146984 -0.6081493 0.5050342 0.6403779 -0.22556072 -0.26168078 -0.2443956 -0.6463608 0.52297384 -0.4475484 -0.48401463 0.6817259 -0.13510959 -0.4470788 0.56748956 -0.48737833 -0.7955808 -0.29414594 -0.006219801 -0.28266656 0.2948473 -0.4129184 -0.34527528 -0.025805175 -1.3132471 0.10998893 0.3967433 -0.16128126 -0.31405938 -0.41992357 0.39793813 0.52525526 -0.20412841 0.10975883 0.1214196 -0.13675113 0.19227815 -0.21212603 -0.4063859 -0.7256046 -0.19060335 0.55209786 -0.42982584 0.25253916 -0.31292218 0.33899227 -0.09329983 0.011276517
70 -0.022318352 0.44414973 0.387381 -0.6297688 -0.59922683 0.009175431 -0.23067653 -0.60715336 -0.4336384 -0.31368738 -0.7565745 -0.36445394 0.20394343 -0.21549954 -0.17112835 0.10566543 -0.38959748 -0.032119215 0.21353823 0.11144898 0.44001913 -0.40861177 0.31370077 -0.20305361 0.15021807 -0.40142614 -1.1217493 -0.21799845 0.0001722752 -0.45984283 0.5277424 -0.5273856 -0.5210479 0.07421528 0.8272364 0.12425004 0.29424348 0.23006225 -0.24826284 -0.4360269 -0.035526 0.6048232 0.4350059 0.07231795 0.2387485 -0.33707005 0.26014528 0.40351522 0.01447639 -0.19208667 -0.033111576 0.031972174 -0.23616198 0.041163098 -0.6738951 -0.0393754 -0.0064590415 0.28275943 -0.072025046 0.48925173 0.26161912 0.05952103 0.20920235 0.5591932
111 -0.025453247 0.11557789 0.4495808 -0.018883262 -0.2663443 0.055972636 -0.32175225 -0.53017336 -0.24326184 -0.0057850764 -0.7568314 -0.13392133 0.31630304 -0.35656965 -0.27269247 0.48548743 -0.5220124 0.3015353 0.44832864 -0.27034885 0.5131159 -0.19984578 0.038975146 -0.11247538 0.60235506 -0.30867472 -0.7571419 -0.17967121 -0.21130264 -0.017890258 0.72771126 0.051160276 0.015377033 0.33987206 0.42402294 -0.17355537 0.4868493 -0.12283847 -0.1412533 0.09965465 -0.40640566 0.2305129 0.90563524 -0.018429188 0.6376583 0.21150993 0.27960315 0.38554206 -0.2219802 -0.17949657 -0.28622457 -0.1531125 -0.26729533 0.40501496 -0.34160477 -0.5991804 0.5099716 0.16481791 -0.62646884 0.32948044 0.06486556 0.34486434 0.52085096 -0.5219341
86 0.06743319 0.55944514 0.27628568 -0.53915495 -0.18346523 0.6350539 -0.7358098 -0.18763177 0.20416845 -0.2350595 -0.72679615 -0.12069916 0.1904733 0.021290187 0.049139254 0.3599742 -0.4214817 0.16105287 0.8673962 0.35327208 0.071934275 0.038227595 -0.4937508 -0.4860211 0.4240745 0.14641115 -0.90082735 0.051849473 0.1776637 -0.2666356 0.21854419 -0.42756534 -0.09100636 -0.31622717 0.040771343 0.113640144 0.54062283 0.23534021 -0.25117338 -0.518669 -0.16058244 0.22382247 0.71975607 0.40033904 0.16672198 0.14088169 0.35356495 0.017109599 -0.20822458 0.07962348 0.1256928 -0.084627174 -0.20551382 0.6531464 -0.036413733 -0.4693576 0.21866162 -0.22897872 -0.7082145 0.72435844 0.06510641 0.35841602 0.016113058 -0.35789248
57 -0.31903526 -1.1462046 -0.040607464 -0.14084867 0.049752206 -0.071682006 -0.5035816 0.459939 -0.740456 -0.18084055 0.27650228 -0.30963874 -0.30956596 0.11712902 0.44941822 0.53759944 -0.065381 -0.17716292 0.22404583 -0.058928676 0.7625681 -0.246454 0.047140867 -0.70673966 -0.06753176 0.10649269 -0.9975953 0.5459012 0.12097243 -0.2769539 0.54332167 -0.22115067 0.21052091 -0.6030628 0.38792267 0.49538553 0.30966008 0.25749904 0.35137278 0.16182978 -0.4217354 0.63992274 0.28267926 0.06939561 -0.12566224 0.16630535 -0.23609082 0.18516381 -0.9112762 0.20207053 0.012789834 -0.6620152 0.07362326 0.15919945 -0.62648654 -0.30444083 0.22985259 -0.4971157 0.40785015 0.34256598 -0.4058608 -0.1095413 0.04678597 -0.03818591
46 -0.41739756 0.37623343 0.44003615 -0.61087537 -0.55535406 0.09335563 -0.3037413 -0.4978781 -0.08959161 -0.08239432 -0.96926594 -0.5541571 0.15890855 -0.22222044 -0.14953691 0.4159153 -0.59033996 -0.03812668 0.3294048 0.18971913 0.019208161 -0.24353735 0.15914969 -0.36147615 0.24209033 -0.18641734 -0.5930849 -0.14003003 -0.076552264 -0.4851411 0.7295726 -0.34253788 -0.3442427 -0.21633378 0.5007224 0.06335454 0.30745095 0.09599168 -0.3228633 -0.39499113 -0.2588876 0.5500245 0.5254783 0.5020412 0.3510051 0.02914199 0.21548785 0.011633953 0.3197168 0.12807988 0.03277291 0.18689269 -0.35814065 0.14697959 -0.7408444 -0.038384926 0.32680595 -0.025573712 -0.21951163 0.42523423 0.32108748 0.33993268 0.22446802 0.016806751
119 -0.052449573 0.2886382 0.3496024 -0.79716694 -0.453403 0.25131074 -0.23201999 -0.59734666 -0.37625265 -0.19873592 -1.1249135 -0.60449755 0.013997721 -0.06813135 0.053288255 0.12560973 -0.27720934 -0.1815505 0.49539784 0.1645349 0.109468 -0.10402085 0.16445976 0.07676382 0.29877546 -0.18727735 -0.84469587 -0.056346852 0.09537283 -0.5215319 0.5377747 -0.24591963 -0.7146697 -0.11000489 0.6742883 0.005575055 0.3805352 0.0033562905 -0.22503017 -0.3782648 -0.3126718 0.49622378 0.68303597 0.27768332 0.31003594 -0.30121708 -0.11029212 0.5163404 0.2953868 -0.32629862 -0.040230833 0.04332692 -0.015289635 0.051893603 -0.2931272 0.036824867 0.10760699 -0.171797 -0.0036578646 0.37083966 0.495448 0.030393928 0.3754555 0.2656525
215 -0.075441584 0.31039363 0.47642347 -0.0019530127 -0.47117564 0.12535617 -0.2795907 -0.2587029 -0.43109813 -0.101455756 -0.74624586 -0.082464635 0.27037108 -0.34380442 -0.27540654 0.29793894 -0.62173253 0.16898656 0.33769003 -0.22871496 0.4921623 -0.26679263 0.09907387 -0.106324896 0.7997549 -0.3425037 -0.54275805 -0.021769673 -0.44465148 -0.26729822 0.84740126 0.1307012 0.026467348 0.33233124 0.4929032 -0.12240898 0.38464633 -0.06390389 -0.116245605 -0.08183814 -0.35353503 0.35491914 0.89959264 0.0040981136 0.6764182 0.33107466 0.51308274 0.29775172 -0.17067242 -0.07129666 -0.2123468 -0.023580594 -0.16823022 0.36873817 -0.26001903 -0.70772994 0.47608376 -0.017162442 -0.550955 0.33009458 0.014306812 0.2686399 0.55582684 -0.27087614
35 0.3709426 0.24618277 0.2540277 -0.11102707 -0.34213716 0.25985253 -0.8434088 -0.07431904 0.16628666 -0.32059932 -0.42386433 0.15309067 0.18608052 -0.25199673 -0.19545461 0.2830396 -0.2708803 -0.0200591 0.8017754 0.19021034 0.25687128 -0.042850804 -0.09092978 -0.14816833 0.5339924 0.5087607 -0.83017176 -0.016531942 0.12293871 -0.04568472 0.42039427 -0.19455577 0.11885549 -0.28525472 0.16629642 0.367184 0.6249663 -0.13683581 -0.45104486 -0.36074963 -0.25972727 0.45233366 0.8213587 0.22176239 0.21820264 0.16767116 0.2132834 0.16641982 0.016029011 -0.08871649 0.23136508 -0.07416879 -0.27961105 0.64822364 -0.09446144 -0.29077327 0.2573039 0.27187046 -0.48550522 0.6531439 -0.05992218 0.373021 0.29760477 -0.8074861
214 0.15463151 0.4976155 0.43799517 -0.54583895 -0.2105187 0.8160713 -0.5241557 -0.28594893 0.16756628 -0.23040089 -0.9309255 -0.23297189 0.1939657 -0.09139311 -0.058959864 0.51042205 -0.49019074 0.07150491 0.704152 0.17564447 -0.16245818 0.10000094 -0.37744167 -0.50679797 0.41924405 0.12974803 -0.76215523 0.14120232 0.25162378 -0.34438327 0.4276006 -0.46539652 -0.104155004 -0.23876931 0.26109815 0.1658502 0.6591573 0.1845547 -0.26592767 -0.34872344 -0.14319944 0.3111866 0.53478885 0.29193923 0.09519393 0.1869642 0.32456315 0.1256458 -0.24638045 0.20440958 0.27627748 -0.027421 -0.18234488 0.73290044 0.010398605 -0.2627052 0.11186631 -0.16862203 -0.6462995 0.76873237 -0.07830114 0.5106314 -0.17304581 -0.24333872
231 -0.03592801 0.025927683 0.24337915 0.12492141 -0.30720577 0.23251683 -0.17377445 0.081232585 0.18571432 -0.31143636 -0.40001532 0.1088348 0.22944035 -0.2705441 0.012212099 0.21588127 -0.70626074 0.22093377 1.0399584 0.11760368 0.7069578 -0.25309557 -0.21460935 -0.27458668 0.8894089 0.19693543 -0.22423725 -0.13375819 0.3652799 -0.21342859 0.6625151 0.04986456 0.3433205 -0.40056893 0.47265056 -0.20793615 0.3650237 -0.32821175 -0.1763717 -0.38950476 -0.3923772 0.34841254 0.48380527 0.26104376 0.25482866 0.16850135 -0.32757184 0.56428665 -0.22948818 -0.19026424 -0.04578367 -0.09083858 -0.20610571 0.32327896 0.19058314 -0.2834804 0.38403282 0.4925189 -0.80738556 0.7519527 -0.33092505 0.06481256 0.49352497 -0.7018611
247 0.05247204 -0.19018133 0.15160449 0.09604632 -0.27995744 0.36355516 -0.11051757 0.057894204 -0.17167863 -0.52223617 -0.31751513 0.308357 0.11455454 -0.39144093 0.027015788 -0.018404705 -0.79873425 -0.02232842 1.2402985 0.098814465 0.5563594 -0.70995456 -0.4278433 -0.24139695 0.82427186 0.18393816 -0.0746259 -0.21989535 0.5617434 0.005902102 0.6978198 -0.2104062 0.3941192 -0.57540536 0.13585307 0.1472437 0.27829626 -0.21276452 -0.16389452 -0.2292609 -0.5030162 0.25196984 0.42181972 -0.008514785 0.14035355 0.26680666 -0.17571364 0.19581415 -0.43579334 -0.29000264 -0.11277034 -0.22334275 -0.13460058 0.47696725 0.0566434 -0.20744967 0.5276232 0.6612506 -0.5691261 0.6459318 -0.5445283 0.28988296 0.6316574 -0.6720305
65 -0.05220802 -0.32259852 0.0803878 0.090924256 -0.286527 0.19021374 -0.087362185 -0.2771958 0.09957531 -0.657095 -0.13021693 0.40481156 0.42794278 -0.3983535 -0.020804351 0.25843155 -0.8454914 0.22340213 0.66719294 0.20822923 0.5498878 -0.68348515 -0.35895923 -0.3282914 0.582232 0.60726744 0.053203247 0.11143734 0.5575021 -0.022021584 0.64116883 -0.32053837 0.2752916 -0.63214195 0.33158726 -0.016709542 0.31461057 -0.100186214 -0.047233254 -0.24898846 -0.3596385 0.54577315 0.5244529 0.21522781 0.13008574 0.466064 -0.05822843 0.24726501 -0.29240674 -0.31297767 0.20978537 -0.010396838 -0.058359846 0.6034987 0.1678017 -0.64314055 0.44984335 0.4624593 -0.6458664 0.6146696 -0.38216728 0.22987719 0.60387003 -0.82811755
90 0.01300753 -1.0442642 0.36108604 -0.28032634 -0.63361466 0.08016475 0.09527343 -0.25198334 -0.15194514 -0.12529208 -0.009444789 0.9752186 -0.0668863 -0.55963045 0.32577237 0.43676177 0.0094616525 -0.5207939 0.5609804 0.65832084 -0.22745173 -0.38156924 -0.2520746 -0.8718697 0.6595593 -0.4620054 -0.44302177 0.7806874 -0.17884059 -0.3309979 0.7855916 -0.40995383 -0.8996205 -0.25281602 -0.0024347664 -0.19697472 0.10520419 -0.6428689 -0.45108482 -0.0829033 -1.1227634 0.088182986 0.31696662 0.062278874 -0.30851072 -0.4148188 0.19288063 0.6339912 -0.11999956 0.17028488 0.17203377 -0.23441136 0.08788393 -0.46307018 -0.58336395 -0.5867056 -0.27898347 0.46400222 -0.3868469 0.18725024 -0.28622967 0.3123714 -0.1646703 -0.027524613
59 0.23620069 -0.10884509 0.23816344 0.18936768 -0.24474484 0.41101903 0.1899782 0.21415746 -0.37906656 -0.20789792 0.01845505 0.31882718 0.5112841 -0.27638167 0.18163517 0.33523124 -0.82084024 0.10476296 1.0937088 0.2682992 0.75998616 -0.23371568 -0.26910862 -0.1954727 0.7612658 0.20680974 -0.02858461 0.034595516 0.4554341 0.08305973 0.5546771 -0.25403452 0.3537045 -0.54094154 0.4213447 0.04184514 0.3963352 -0.13327678 -0.2293064 -0.32332692 -0.58728623 0.43399417 0.4869531 0.13878015 0.1874038 0.355491 -0.23902903 0.33477417 -0.24755545 -0.25427598 -0.33623728 -0.21240321 -0.2772166 0.3992246 0.12162647 -0.37342831 0.37092358 0.55601543 -1.014188 0.7814405 -0.37455976 0.07692506 0.41852856 -0.8249929
222 0.012668002 -1.0404787 0.3935991 -0.44469738 -0.7919442 0.04210374 0.08762277 -0.107491575 -0.17145365 -0.22395305 0.057584845 0.8289523 0.07356591 -0.17635229 0.1499105 0.26400375 0.09760138 -0.5340385 0.47728527 0.67041516 -0.12689707 -0.24403265 -0.5121282 -0.86298656 0.56807363 -0.52794456 -0.34457183 0.81795555 -0.07078725 -0.33035263 0.6918216 -0.6329412 -0.9233412 -0.13993107 -0.051656403 -0.18052475 0.19422653 -0.5886182 -0.2755025 -0.27937722 -1.1740832 -0.007804682 0.52326035 -0.0997804 -0.19597083 -0.43176317 0.22833772 0.72843534 -0.29299802 0.22218786 0.27138102 -0.24845493 0.14177208 -0.37904656 -0.35227758 -0.6514472 -0.15258028 0.4607299 -0.36433083 0.09035574 -0.20794947 0.309073 0.025252845 0.033750784
116 0.028843516 0.038120173 0.11311733 -0.019670494 -0.39962536 0.21857888 -0.5001995 -0.23118164 -0.2627232 0.052353427 -0.66325384 0.055051398 0.40368667 -0.3670183 -0.28069654 0.22188893 -0.43676668 0.031902403 0.5875976 -0.14609931 0.57634133 -0.04280551 -0.034720186 -0.15503095 0.737127 0.025020959 -0.79740393 -0.06470483 -0.17737032 -0.24343601 0.54348624 -0.007367919 0.032295045 0.18694925 0.53106 -0.103777185 0.2695498 -0.05597317 -0.26886517 0.009027206 -0.18075076 0.28560778 0.9214359 0.06809788 0.6771199 0.28577867 0.32441244 0.46445706 -0.15566169 -0.16451341 -0.07287013 0.0074812253 -0.38948673 0.2923377 -0.044666436 -0.3011954 0.5490174 0.18398839 -0.6440645 0.3551223 -0.17837627 0.40801436 0.72279054 -0.49133074
9 0.46212724 -0.7231641 0.18653077 -0.3617101 -0.94420695 -0.09195878 -0.14187555 0.34818932 -0.53420955 -0.5824952 -0.2420915 -0.69107234 0.3931107 -0.1444794 0.031200593 -0.14076835 -0.189439 -0.392879 0.5325715 0.24221769 -0.25751826 -0.41279644 0.40653142 -0.69839436 0.8501679 -0.27220526 -0.30673894 0.51084054 0.33665887 0.395837 -0.4347895 -0.7006187 -0.38999546 -0.66334325 -0.04500014 -0.45527148 0.13497612 -0.28315502 -0.005674424 0.627167 0.20155972 0.31732202 -0.32820743 -0.07940051 0.2798089 0.24243963 -0.21996227 0.19513448 -0.036619395 -0.29460225 -0.17299017 -0.66860867 -0.05010658 0.5847804 -0.58665514 -0.6107451 -0.5614942 0.046319656 -0.45462492 0.3219324 0.44219875 0.48904645 0.655199 -0.05406659
80 0.29197916 -1.0477053 0.43528292 0.06966557 0.34367648 -0.13855588 -0.73473 0.06304666 -0.49346587 -0.18612316 -0.507024 -0.1491182 -0.36989775 0.073733404 0.52673644 0.42208335 -0.20840077 -0.5807647 -0.43895218 0.123128235 0.6900305 -0.5155984 -0.39003178 -0.6742341 0.4405665 0.06157801 -0.8949026 0.8569839 0.39829516 -0.3393105 0.78267545 0.11740911 0.033975437 -0.6407108 0.23531064 -0.05992531 0.35735342 0.39518553 0.33442634 -0.03020175 -0.17408542 0.724619 0.2558678 -0.12863564 -0.12473654 0.04926492 -0.24626377 0.4841741 -0.7637349 0.30287802 -0.5430382 -0.6402861 0.30382654 0.36918202 -0.71361095 -0.20865208 0.24737926 -0.05576974 0.6405724 0.5391229 -0.62298065 -0.04149764 0.16753471 0.081214055
130 -0.33296466 -0.28902346 0.5147407 -0.7176487 0.2777178 -0.50238687 0.5168233 0.054085672 -0.3137393 0.01966049 -0.3990378 -0.3288817 0.20014699 -0.27276105 0.22281674 0.026596645 -0.76167256 0.41944763 -0.15833586 1.1641971 0.6510783 -0.32010633 0.20596787 -0.15381919 0.85394794 0.27715772 -0.7978712 0.74824995 -0.12179024 0.064866066 0.45695987 -1.302566 -0.9826581 -0.5025366 -0.61942136 -0.07631884 0.34405288 0.08932331 -0.44314945 0.48354506 -0.33712995 0.49824825 0.7259943 -0.9545555 -0.13596874 -0.43888748 9.1986105e-05 0.14775315 -0.24327867 -0.011651418 0.0575566 -0.54856944 -0.28058988 0.43470544 -0.6030277 -0.08587665 -0.43135536 -0.20993689 -0.77769244 0.8477334 -1.0215783 -0.3129549 0.66191524 -0.364
233 0.35571805 -0.61711174 -0.31069076 -0.3855969 -0.2643821 -0.83166033 -0.07861083 -0.36109495 -0.057398394 -0.36946568 0.014647854 -0.71652883 -0.20305127 0.37976965 0.16884913 -0.45686555 -0.56067646 -0.12287986 -0.45625147 0.1903411 0.17649283 -0.88172984 0.09310743 -0.20733778 0.77776283 -0.38537723 -0.7963182 0.7151855 -0.26248565 -0.69951135 0.6113418 -0.56395984 -0.32430103 -0.3729661 0.31291535 0.27017015 0.03101522 -0.3813601 -1.05982 0.7562526 -0.4058314 0.46203843 0.6240436 0.4827044 -0.9815041 -0.12476663 -0.82972306 0.9731723 -0.35955986 0.08804738 -0.16358446 0.2766829 0.25746316 0.32937488 0.18378343 -0.7347155 -0.1805968 0.74977845 -0.5096514 1.3098389 -0.28507122 0.8275855 0.88895994 -0.041687407
14 2.178861 -0.40008724 -0.0642796 2.8235593 -3.7453964 4.7510796 0.609745 0.14451842 2.457196 -1.1963983 -1.2560412 -0.9949709 0.18897864 -0.17203838 -1.2840315 2.829495 -2.6832545 -0.046251576 3.5695744 -0.74989223 -0.061178915 -0.6236029 3.4005008 -0.29693457 3.5247207 -0.102645084 -3.360149 0.5919685 -1.8182569 0.16515873 1.9063128 -0.36495304 -0.49169847 -1.2912112 -1.6135157 -0.83514154 -0.38653073 0.76986665 1.816062 -1.3286511 0.4777488 0.6776813 0.33470997 3.2210402 6.280354 -2.8401203 -0.80449027 2.06563 -5.1156693 -1.9174066 -0.19641757 2.415176 -0.3402718 -4.926081 -0.4882559 1.9714954 -0.118298024 1.1509031 0.53708637 3.500055 -1.7684065 5.320214 0.013914986 0.21610995
118 0.36516428 -0.81262016 -0.31865132 0.068916135 0.2621724 0.58322996 0.20639756 0.6087518 -0.36599055 -0.3045127 0.4593887 -0.47873762 0.103934996 0.08747607 0.31274065 0.42997965 -0.41817498 -0.74593097 0.08155691 0.05839357 0.57249236 -0.70107937 0.46664006 -0.8516933 0.27294746 0.015091755 -1.0154574 0.31954274 -0.044248894 -0.53711873 0.529505 -0.2076817 -0.22357821 -0.49419874 -0.09004261 0.05847853 0.34144583 0.26165032 0.39582327 -0.1505931 -0.4721385 1.0611049 0.06114223 0.18628058 0.3503415 -0.31388047 -0.38752478 0.52452356 0.18040392 0.75099206 0.107103854 -0.25937498 0.5561816 0.17579666 -0.22148946 -0.45351815 0.30644563 -0.63729733 0.12685609 0.45206165 -0.19504793 0.31536898 0.40535456 -0.051377483
131 -0.20857929 -1.601659 0.69184583 -0.47002104 -0.08082428 -0.21081716 -0.58623475 -0.0028273272 -0.4470657 -0.109922 0.10494781 -0.6300432 0.024285022 0.12161745 0.5814344 0.015910724 -0.46994036 -0.04987521 0.2541883 -0.1652074 -0.11122384 -0.24729674 -0.10779059 -0.30191687 -0.26113322 -0.062616915 -0.33894023 -0.084825754 -0.5709312 0.023679499 0.73055524 -0.5126268 -0.18062192 -0.46095398 0.36960968 0.75417954 0.035677437 0.18464616 -0.0965533 -0.121027604 -0.0132577475 0.28257877 0.23070677 0.40149528 0.69336474 -0.30224094 -0.13956018 0.34469065 -0.6246878 -0.11028134 -0.26317933 -0.68005216 0.24193347 0.054747794 -0.26190895 -0.38049734 -0.14219314 0.004936403 -0.28873226 0.96637976 -1.1087897 -0.032290995 -0.06493583 -0.102818035
97 -0.068566605 -0.9440039 0.41285485 -0.03606345 0.15199582 0.12056761 -0.7709951 0.1879723 -0.5823032 -0.15558527 -0.24754287 -0.24167378 -0.43936232 0.23683907 0.52951163 0.39901745 -0.1851467 -0.44117555 -0.35812533 0.09518529 0.8650724 -0.37102908 -0.14688136 -0.6384372 0.29594383 0.05059918 -0.9010857 0.86978203 0.45693573 -0.19768983 0.6601677 0.22717595 0.016492492 -0.58562386 0.17608774 0.24674971 0.25061253 0.28108534 0.1655237 0.17131512 -0.3416097 0.8653764 0.28261688 -0.15955934 -0.14478429 0.023971703 -0.281358 0.25751647 -0.81015354 0.2233852 -0.30146858 -0.610826 0.42878753 0.1959023 -0.7600776 -0.25862244 0.34094355 -0.025272898 0.5490381 0.46244767 -0.6440864 0.026876494 0.10948609 -0.06523633
108 0.63343716 -0.5694501 -0.17136925 -0.77250075 -1.0258919 -0.13315448 -0.43846282 0.30442753 -0.15359148 -0.10466666 -0.43225038 -0.2961014 -0.7035487 -0.49795222 0.34167227 -0.4946739 -0.85574156 -0.23508734 -0.0014957644 0.31764388 0.28600857 -0.18500188 0.36339647 -0.6861123 0.46135962 -0.23186353 -0.20954451 0.4429017 0.029514397 0.14738624 -0.48319778 -0.80815494 -0.38081867 -0.45505673 0.025141014 -0.762921 0.24148463 0.10356474 0.1389328 0.18078212 -0.35278243 0.48480195 -0.35975286 -0.20587161 0.6239172 0.22441837 -0.2937017 0.18209529 0.012373927 -0.37616816 -0.5384743 -0.7851886 -0.25512767 0.06412651 -0.3964122 -0.71400803 -0.016583445 0.24414036 -0.462614 0.5280257 -0.02819767 0.5209838 0.007262804 -0.4897136
207 0.34175083 -0.7678077 -0.14404362 0.20066765 0.1876509 0.5125099 0.5129216 0.58119136 -0.47996253 -0.49805364 0.42076045 -0.5171138 -0.018041812 -0.10295001 0.17607805 0.49373406 -0.46458286 -0.564197 0.21187681 0.006213838 0.5260892 -0.7381317 0.42705184 -0.4820482 0.36009553 -0.19915594 -0.9815229 0.31701893 -0.14062628 -0.6134089 0.37613833 -0.24119768 -0.18575726 -0.37601274 -0.4633111 0.1057265 0.51952 0.107568726 0.4201388 0.08899162 -0.3920903 0.9559092 -0.008417728 0.017211316 0.36265057 -0.60754675 -0.28104454 0.46751136 0.051975377 0.70715433 0.13549957 -0.20305072 0.65811074 0.38148078 -0.517094 -0.4683235 0.26781303 -0.6150551 0.15100306 0.43981427 -0.08040555 0.3639062 0.6908154 -0.28073737
128 -0.25562212 -1.5721822 0.80996805 -0.5819374 0.04715948 -0.23937131 -0.5225457 -0.17857458 -0.3581159 0.1058535 0.33839503 -0.67911905 -0.03993971 0.1216732 0.36789218 -0.15408084 -0.57687443 0.10807151 0.5079787 0.08358952 -0.32132596 -0.37386632 -0.12647045 -0.3346242 -0.124311805 -0.22706479 -0.21013469 0.050583184 -0.35516664 -0.058036763 0.6171915 -0.26326436 -0.3861577 -0.5326828 0.47054887 0.8997256 -0.14067112 0.5557827 -0.14359948 -0.09000846 0.0058331573 0.29758537 0.17374867 0.3080582 0.7442198 -0.23678419 -0.048842985 0.43783686 -0.42605433 -0.033624552 -0.22983259 -0.70834905 -0.007825398 0.009114034 -0.23029299 -0.62386006 0.0047458233 -0.086318195 -0.36526638 0.84712416 -0.95393413 0.095595926 0.01147348 -0.17073947
240 0.25441214 -0.66029096 -0.12020215 -0.35051274 -1.0124273 -0.02575136 -0.10372856 0.389374 -0.20627004 -0.50990796 -0.2716252 -0.6994434 0.29202396 -0.31331578 0.017877916 -0.30967483 -0.42569396 -0.4648051 0.5611707 0.3435293 -0.016012793 -0.23801306 0.42027217 -0.641249 0.61895776 -0.3475137 -0.27516285 0.3906962 0.4861885 0.16082896 -0.51459026 -0.68274105 0.020473147 -0.52506286 0.026134798 -0.7314943 0.14367913 -0.23948734 -0.26452598 0.75795007 0.14122365 0.5247855 -0.46249157 -0.057203274 0.4191444 0.007374973 -0.29528788 0.14010613 -0.17544688 -0.041548602 -0.05607246 -0.8351625 -0.028556343 0.20512591 -0.5483281 -0.8001248 -0.48805714 -0.10746494 -0.38662234 0.3332061 0.297858 0.58297086 0.59346867 -0.08562784
302 0.04110805 -0.46476007 -0.17561291 -0.24400608 -0.15873158 0.024687909 0.10127811 0.62702066 -0.439532 -0.6561958 0.5996693 -0.78768945 0.35700238 -0.33204505 0.04886389 0.24051869 -0.1221149 -0.27958053 0.42537752 0.16069163 0.26471245 -0.713798 0.64468074 -0.32704997 0.7087723 -0.15400837 -0.55773133 -0.027010592 0.6481747 -0.24042486 -0.3431211 -0.49368212 -0.24465413 -0.24981043 -0.29606363 -0.47402605 -0.024119796 -0.1088647 -0.21671297 0.1437538 -0.57989347 0.5183978 -0.0766391 0.5064266 0.2453024 -0.3747239 0.003057757 0.37588868 -0.25944716 -0.17823888 0.3859933 -0.34594682 0.062069833 0.068198256 -0.7439844 -0.79074484 -0.30676308 -0.65900296 -0.24955836 0.4048546 0.12414895 0.70679563 0.6594751 -0.18021159
10 0.42558077 -0.6524967 0.24863657 -0.13409002 -0.9364657 0.042131808 0.0020693787 0.44217074 -0.41614112 -0.53985906 -0.34273702 -0.6461837 0.35730034 -0.30511996 0.14013487 -0.2268481 -0.41173297 -0.18453464 0.6058936 0.10690407 -0.34491247 -0.2567735 0.48008162 -0.66370815 0.87915474 -0.42388147 -0.3563955 0.68476975 0.34327132 0.20755278 -0.2455128 -0.29898554 -0.33326203 -0.5375421 -0.05974358 -0.48845968 0.094826534 -0.30192474 -0.22546057 0.6674843 0.26579753 0.60563 -0.5467298 -0.118370175 0.3688149 0.11935648 -0.4610902 0.08086264 -0.11990586 -0.41612384 -0.015327229 -0.619035 -0.13284583 0.33940333 -0.70749813 -0.7274994 -0.5812596 0.12138331 -0.47814304 0.55921626 0.35494268 0.4634808 0.34816363 0.0019201158
81 -0.2153056 -1.1385521 0.29369256 -0.3500487 -0.52023935 0.13791779 -0.121865265 -0.47482458 0.049921736 -0.27953947 0.05071714 1.1347222 -0.050064478 -0.591946 0.41186184 0.5648155 -0.2135091 -0.664507 0.44620192 0.4920549 -0.0049600275 -0.3446872 -0.19227412 -0.6685488 1.0092037 -0.3813916 -0.36908737 0.5062685 0.031649977 -0.39983532 0.56154406 -0.68105334 -0.98440456 -0.36968073 0.25164646 0.061192483 0.31232548 -0.5738741 -0.5119658 0.35176998 -0.9127596 0.32994673 0.31733114 -0.043296173 -0.24021013 -0.5061224 0.22772695 0.8978333 -0.020092594 0.23950872 -0.29004303 -0.24356376 0.020038191 -0.61545724 -0.48730698 -0.4479988 -0.5094295 0.24715565 -0.40332976 -0.0074026864 -0.3639862 0.47965723 -0.26797137 -0.15827876
115 0.35380462 0.44590074 0.24446909 -0.27529112 -0.18022142 0.5753883 -0.7287256 -0.08849944 0.18151028 -0.29323587 -0.91476554 0.027779378 0.34649843 -0.12586452 -0.18968719 0.34603316 -0.3943162 0.1715243 0.9107168 0.23660597 0.11641613 0.11833785 -0.28556892 -0.40063408 0.34532687 0.12491791 -0.77844864 -0.014216427 -0.10215618 -0.2560889 0.22306786 -0.2552352 -0.12463166 -0.49587253 0.13633037 0.20601812 0.49980783 0.084890045 -0.2271573 -0.16183625 -0.26229662 0.44491455 0.78254455 0.32667008 -0.038339913 0.1837336 0.15806471 0.29150042 -0.15484743 -0.09412953 0.1789794 0.21591224 -0.1996585 0.6264365 0.013288376 -0.25923786 0.13350594 -0.010420933 -0.53809476 0.8649422 -0.076382756 0.42514235 0.17842576 -0.5612462
54 0.20009072 0.31113946 0.11961278 -0.16752392 -0.022033835 0.40581936 -0.5746361 -0.06926369 -0.25840947 -0.29304937 -0.60289127 0.022238523 0.40909356 -0.5070817 -0.11152012 0.24225545 -0.39239693 -0.049562324 0.7764503 -0.022974985 0.5493657 -0.06679907 -0.26503062 -0.23357508 0.71505976 0.14530107 -0.38926512 -0.15720375 0.057644352 -0.24479975 0.41153577 0.13248682 -0.023095611 -0.25613123 0.49873814 0.15012969 0.253947 -0.21425353 -0.08367022 -0.20303255 -0.27712893 0.08031941 0.7295423 0.23238647 0.21504237 0.16871142 -0.026246222 0.5727904 -0.07356274 -0.27082336 0.05126125 0.041748308 -0.25903034 0.5080305 -0.38845527 -0.42055458 0.52221054 0.4378404 -0.82742447 0.57881516 -0.03205626 0.128474 0.5568896 -0.8003321
217 -0.2572213 0.5032796 0.32008713 -0.5000827 -0.52682465 0.07080352 -0.25077695 -0.5976141 -0.24989161 0.18237059 -0.76458925 -0.47728214 0.058490172 -0.048451908 -0.13158716 0.43659696 -0.35706687 -0.09742574 0.3900693 0.09525756 0.2463948 -0.37550506 0.48605904 -0.25520262 0.42482722 -0.48903608 -0.6998866 -0.22239353 -0.102510355 -0.19182536 0.72834986 -0.23297377 -0.15156177 0.13399471 0.89781016 -0.1245738 0.32093126 -0.25467384 -0.339309 -0.2258649 -0.40273583 0.4937995 0.4618824 0.09769978 0.48160324 0.12661907 0.3438901 0.29433456 -0.23715472 0.057296883 -0.2717291 0.34595737 -0.11801329 0.50991464 -0.5289331 -0.44760823 0.37867528 -0.03607517 -0.45381707 0.3955331 -0.019568084 0.07867117 0.44182658 0.27650118
107 -0.5001043 -0.29722401 0.4151103 -0.7213961 0.35271546 -0.46316183 0.49573228 -0.03209425 -0.276057 0.02805263 -0.33192196 -0.33219662 0.24692741 -0.4372292 0.27196386 0.12337996 -0.82903475 0.38724932 -0.120945506 1.2721748 0.62088877 -0.21060133 0.14670627 -0.19154713 0.66060495 0.14442423 -0.8085099 0.7486523 -0.15385574 -0.0063334936 0.5680945 -1.1742748 -0.8881702 -0.60442144 -0.61234593 -0.2397126 0.32037908 0.19899587 -0.6011146 0.631915 -0.25989008 0.671234 0.5716298 -0.9390927 -0.11285617 -0.40307236 0.047796987 -0.03560697 -0.105505526 -0.004557861 0.06922421 -0.6086151 -0.24208795 0.3750501 -0.5735988 -0.10688916 -0.42341608 -0.08830793 -0.7776687 1.0076674 -0.9644284 -0.23831542 0.699221 -0.2556969
167 0.20221362 -0.6185912 0.04407945 0.03934222 -0.079797015 0.316392 0.22159587 0.5330697 -0.59239876 -0.94150126 -0.36125264 -0.9910038 0.18058904 -0.60358447 0.014043583 0.13981964 -0.5303667 -0.73550045 0.18614553 0.09377787 0.45294002 -0.6659035 0.658714 -0.2778369 0.19556181 -0.3919077 -0.4236278 -0.07067359 0.6276037 -0.13438122 -0.0064893956 -0.60700047 -0.3174928 -0.10870969 -0.43934095 -0.5204435 0.8692335 -0.3731974 -0.25705984 0.27837175 -0.6964917 0.22616675 0.0703653 0.652185 -0.039294157 0.3531869 0.60657686 0.6239259 -0.7300619 -0.22220266 0.621933 0.13538688 0.26999208 -0.636736 -0.42995334 -0.45836657 -0.603005 -0.36645532 -0.15431848 0.6065884 -0.467709 0.654013 0.5959957 -0.2634635
252 -0.23152512 0.14718659 0.56472087 -1.0516944 -0.743667 0.048957124 -0.15098856 -0.67355686 -0.14498109 -0.35400203 -0.92785776 -0.39004806 -0.12614541 -0.099852525 -0.22450379 0.029606871 -0.26917803 0.10383158 0.40416634 0.06298041 -0.058391176 -0.41258672 0.25046661 -0.116370365 0.044241145 -0.048683193 -0.8681835 -0.26556426 -0.16040693 -0.34339288 0.51222247 -0.17173804 -0.6144353 -0.2294809 0.42984512 0.10180618 0.39569643 0.16107391 -0.30284938 -0.3589968 0.038218215 0.59973186 0.7641517 0.23805484 0.36186144 -0.22044021 0.43850568 0.18086886 0.069580875 -0.17118956 0.076454826 0.08426378 -0.08914595 0.22130598 -0.77220666 -0.21159719 0.09964391 0.00090620277 0.2893369 0.3590919 -0.042932272 0.5366473 0.4352053 0.30899793
243 -0.3014512 -1.043464 0.13523373 0.3208208 0.1960158 -0.23051299 -0.59967715 0.2794191 -0.8853378 -0.25758195 0.017264403 -0.54512966 -0.39008102 0.350556 0.46326685 0.63935304 -0.026322644 -0.05531073 -0.0665179 0.008396368 0.74050456 -0.19411594 0.11004944 -0.5655983 0.004207587 -0.2576487 -0.9672334 0.48783728 0.3446423 -0.06244507 0.43755132 -0.15883283 0.104239315 -0.45036155 0.14561623 -0.12572472 0.38316312 0.44453016 0.18007784 -0.08870835 -0.76573354 0.60028577 0.0342785 0.6382252 -0.14517066 0.17193832 -0.24991207 0.45073313 -0.81973124 0.26919574 0.31243417 -0.5051831 -0.33765155 -0.08910321 -0.56787646 -0.36078867 -0.14500166 -0.50092655 0.07276255 0.581979 -0.4774749 0.04428396 0.030112429 -0.26604125
109 -0.09606986 -0.78651243 -0.034332093 -0.35122737 -0.5807803 -0.35871288 0.12775418 0.26745367 -0.07895918 -0.25740635 0.009143332 0.5192 0.12608448 -0.02441939 0.09164031 0.46770868 -0.06107443 -0.34573725 0.3169392 0.5825552 -0.11254999 -0.12685134 -0.46675193 -0.55771613 -0.0013701544 -0.82621336 -0.27885607 0.94148046 0.56700474 -0.49316096 0.5764481 -0.5237046 -1.0957842 -0.47430336 -0.16107069 -0.276857 0.28548452 -0.53071856 -0.049262885 -0.34275895 -0.8267835 -0.30454656 0.77587694 -0.39214826 0.5482839 -0.5769276 0.030966608 0.40798545 -0.61269873 0.041177813 -0.012745152 0.16973223 0.23004384 -0.14349636 -0.6342754 -0.7292608 -0.046513684 0.8038645 -0.20188837 0.82550395 -0.19229378 0.44657007 0.31288517 -0.0086709745
209 0.11031324 -0.63191795 0.102967985 0.09300198 0.02553981 0.18230963 0.039122395 0.6623811 -0.48772284 -0.66614795 0.26208675 -0.93476987 0.24663603 -0.42450735 -0.0014348078 0.4305983 -0.16936277 -0.2768069 0.3109805 0.2696856 0.38326812 -0.6225369 0.70729125 -0.30941465 0.096537195 -0.3342319 -0.34292397 0.18210053 0.73069984 -0.08269005 0.03989965 -0.58649766 -0.23549944 -0.1664003 -0.37457412 -0.5001635 0.371002 -0.059098568 -0.15592374 0.52327234 -0.6224554 0.6741801 -0.06450211 0.68688965 -0.06999897 -0.08955843 0.32509696 0.592849 -0.54258466 -0.3464213 0.4235163 -0.3354714 -0.116061196 0.08414237 -0.51673657 -0.5684613 -0.42804164 -0.45725048 -0.10896352 0.44513735 0.0028454096 0.63357955 0.5898232 -0.03236238
55 -0.25644317 -1.391566 -0.07107503 -0.031085374 0.1014689 0.17075281 -0.50521326 0.3364877 -0.6537087 -0.07888235 0.04994977 -0.34816328 -0.18919946 0.29619932 0.46865764 0.39545158 -0.10103792 0.19673388 0.16415676 -0.19481924 0.6011494 -0.038234256 0.25750682 -0.5863301 0.111249946 -0.038470544 -0.81566477 0.6909031 -0.10214921 -0.21649426 0.7240649 -0.19341351 0.11661705 -0.8049376 0.2225868 0.54990965 0.023299215 0.3467315 0.33555216 0.020208288 -0.4366969 0.766123 0.11443722 0.09574492 0.04848338 0.0009775574 -0.3623152 0.41138986 -0.9807001 -0.029008089 0.08539655 -0.52489465 0.053615652 -0.0060351845 -0.6599068 0.096491724 0.17041104 -0.3344294 0.27947107 0.54830146 -0.35329196 -0.013160817 0.06825385 -0.11453952
208 0.23709676 -0.5977458 -0.064677216 -0.2237702 -0.010804091 0.22066654 0.33028248 0.6364996 -0.33932146 -0.43888733 0.31460944 -0.6681233 0.38799873 -0.2361804 -0.026771206 0.5470025 -0.30272695 -0.22801755 0.8264834 0.034801796 0.3853787 -0.7802155 0.8075067 -0.7770286 0.2843056 -0.12719561 -0.709694 -0.068465225 0.4288442 -0.05111934 -0.103637464 -0.6785684 -0.08024913 -0.041410096 -0.54823136 -0.25035655 -0.089633726 -0.0017784215 -0.19556579 0.33537072 -0.44672087 0.5840756 0.010424044 0.08047035 0.12228086 -0.42403567 -0.28259313 0.594745 -0.14566314 0.11524084 0.26280874 -0.19256097 0.47570518 0.2709251 -0.676729 -0.68416476 -0.17084743 -0.61636114 0.19838884 0.28458646 0.0077230143 0.754178 0.54272574 -0.22722541
122 -0.121333934 0.11794687 0.40018916 -0.57949924 -0.60937953 0.06602437 -0.0735723 -0.54937637 -0.051196717 -0.49548748 -0.8152504 -0.35277048 -0.072919615 0.09981283 -0.311451 -0.03588396 -0.17195772 0.038617518 0.4308262 0.2479018 0.41294053 -0.26979098 0.5333676 0.09496962 0.116148844 0.040714175 -0.6744322 -0.059003517 -0.077949144 -0.42814478 0.21056336 -0.46993047 -0.8554166 0.0015757063 0.81873924 0.34375852 0.6572967 0.4476673 -0.21605787 -0.43294373 -0.26433694 0.8094915 0.7185157 0.23350799 0.2028079 -0.14390023 0.37744173 0.18419863 0.21174294 -0.01606637 -0.26165074 -0.019276153 -0.21512665 0.14160237 -0.7108466 -0.04776097 0.073462844 0.2032979 0.012308698 0.4959938 0.21484002 0.4823815 0.3585935 0.2993719
143 -0.38777497 -1.4195465 -0.13486879 -0.27950063 0.09104256 -0.06537224 -0.69837624 0.18282962 -0.46453148 0.02748613 -0.070041284 -0.6140388 -0.09332353 0.29051217 0.43770954 0.27660942 -0.24110983 0.013874203 0.3736605 -0.16446477 0.2138593 0.08382983 0.14810337 -0.3291001 -0.06504895 0.09492407 -0.41743895 0.2194418 -0.34991446 0.00541255 0.83838546 -0.31934267 -0.07462077 -0.9817243 0.54576534 0.76397234 -0.10996057 0.036460508 0.2785438 -0.07972339 -0.5811938 0.75572556 -0.027877087 0.11185052 0.11836785 -0.2564679 -0.05336193 0.45070338 -0.8005444 -0.04142497 -0.033927057 -0.63554364 0.28528273 0.2680715 -0.5313693 -0.3665575 -0.10191167 -0.10868302 0.18665288 0.7435326 -0.65956265 -0.51469386 0.10208743 -0.02069098
179 -0.031269003 -1.5909551 0.8726129 -0.63908505 -0.07099835 -0.47029415 -0.16356297 -0.10878129 -0.26143846 0.043316618 -0.0015742342 -0.71175784 -0.062953174 0.03777445 0.5126427 -0.15465158 -0.8384332 -0.053715188 0.4916679 -0.054363117 -0.44918653 -0.5266276 0.15697022 -0.5066653 -0.2769979 -0.1701942 -0.18902408 -0.074260734 -0.36121017 0.1162781 0.7284365 -0.31593546 -0.79351723 -0.41622484 0.31148598 1.1228305 0.101723306 0.38830853 -0.1679883 0.03608144 0.16335611 0.07026414 0.22798993 0.5220488 0.65906215 0.03348042 -0.022849396 0.23881997 -0.5088904 0.08091649 -0.1076096 -0.3593003 0.022068108 -0.1168321 -0.28482878 -0.54357696 -0.012919255 -0.087530814 -0.42831352 0.8412132 -0.8481515 0.1286696 -0.01495475 -0.27317402
246 0.25172576 -0.26330376 0.090588056 -0.07361449 -0.067435354 0.21439937 0.117508896 -0.06821118 -0.098712765 -0.7371003 -0.18616906 0.4434506 0.58480835 -0.36732185 0.40065014 0.19411309 -0.8682431 0.28898513 0.9787934 0.37038308 0.5768547 -0.32997763 -0.28072065 -0.15838699 0.7529673 0.372599 -0.07651771 0.040640812 0.46969044 0.35393077 0.8186755 0.021024777 0.15319179 -0.6963011 0.27777696 -0.14338166 0.3641369 -0.2950307 -0.16955699 -0.3771373 -0.3358368 0.5325219 0.49858195 0.07993303 0.43758017 0.43186647 -0.18795082 0.4378273 -0.33985046 -0.3028713 0.17306235 -0.15575372 -0.21409144 0.5312911 0.16526516 -0.42505458 0.42050242 0.29472387 -0.59770125 0.46911478 -0.51953 0.18516187 0.44632548 -0.72056997
91 0.66675407 -0.50621176 -0.10841843 -0.86582553 -1.0119773 0.057443347 -0.32733303 0.25634307 -0.10134094 -0.25489956 -0.16142873 -0.38346228 -0.48428968 -0.31203932 0.5116083 -0.51630634 -0.5926012 -0.37097466 0.1858259 0.36560374 0.14910957 -0.24522868 0.41372016 -0.6706184 0.43081665 -0.39758113 -0.1957643 0.45959282 0.1962931 0.27535075 -0.32515687 -0.7400349 -0.25599173 -0.21921226 -0.21831183 -0.7247699 0.2975477 -0.25991964 0.042118054 0.21418206 -0.17973228 0.6094939 -0.17340364 -0.10431555 0.7261293 0.37300345 -0.47063398 0.04854655 0.07147871 -0.56146955 -0.36551267 -0.97594976 -0.29562715 0.10078339 -0.49037758 -0.95374215 -0.22838783 0.024942717 -0.52779657 0.32888725 0.16225234 0.105198726 0.33130637 -0.34184113
166 0.68144095 -0.4736365 0.00913116 -0.83886576 0.30125073 0.18260932 1.0082599 0.046597067 0.020989778 0.12485653 0.4811543 -0.7765251 0.43530068 -0.4734306 -0.22445393 0.45533752 -0.63390785 -0.28492644 1.081347 -0.08676379 0.31063333 -0.95719963 0.6834811 -0.8835928 0.10410016 -0.109602965 -0.8833028 0.16819967 0.772572 -0.2617258 0.023536995 -0.5498076 -0.33664522 -0.017515581 -0.3028182 -0.29166165 0.5816464 0.0938556 -0.38728154 0.38110644 -0.8141494 0.5351628 0.08833249 -0.15639524 0.19139148 -0.42589578 -0.31204098 0.7178114 -0.21858333 0.2868073 0.42063436 -0.18882014 0.3594847 0.024191547 -0.5049566 -0.064065605 0.00700271 -0.077691816 -0.120958045 0.19934338 0.19312806 0.9582087 0.55795413 -0.6290591
284 -0.4974755 -0.4816127 -0.2663626 -0.2665077 -0.36163804 0.1850668 0.17865129 0.10567574 -0.21372369 -0.103489354 0.5276574 -0.45240405 0.18996263 -0.4348132 0.18436474 -0.94373405 -1.1809288 -0.57488525 0.33947155 0.0012309615 0.08403442 -0.20479307 -0.21703844 -0.94015944 0.83412457 -0.36428243 -0.68144786 0.69218117 0.117255025 0.44517758 0.42370826 -0.41468605 -0.81201315 -0.24404898 0.2996565 -0.36499542 0.6970788 0.6526457 -1.0473924 -0.15163182 -0.62676173 0.20389813 0.7741581 0.49666134 -0.013280798 -0.14697132 0.023835301 0.6017195 -0.42472887 -0.33337164 -0.4738743 0.15043923 0.24481048 0.9657282 -0.545471 -0.068041734 -0.36240414 0.1423586 0.44349992 0.33021748 -0.3646471 -0.4661161 0.16566396 -0.46831122
230 0.21159159 -0.23278898 0.094433494 0.08406529 -0.36185414 0.1373383 -0.3798893 -0.16201775 0.20747489 -0.97613287 -0.3301583 0.3634318 0.29739735 -0.29420567 -0.025626402 0.2812972 -0.7003434 0.119331904 1.0122628 -0.1260415 0.4104797 -0.35392028 -0.21693829 -0.22667204 0.68878937 0.43017638 -0.14971837 0.00750848 0.56515926 0.07440522 0.40529218 -0.043210067 0.18439288 -0.5755423 0.35720974 0.111960165 0.31941268 0.059638012 -0.21480331 -0.51773745 -0.47899863 0.40087858 0.43687332 0.10288339 0.37452158 0.42835388 0.0947804 0.38085133 -0.13257958 -0.06940298 0.06368615 0.22968991 -0.07007793 0.5079672 -0.08526231 -0.3792565 0.66093975 0.4149342 -0.5344292 0.65187216 -0.30312407 0.2559168 0.47467744 -0.77251124
132 -0.35328925 -1.6333755 0.39400628 -0.6039487 0.08459369 -0.29796395 -0.5566306 0.13431492 -0.50855154 0.020230494 0.019749867 -0.6228086 -0.1512773 0.13836516 0.281612 -0.01211997 -0.5407808 0.10719576 0.2332092 -0.00023587655 -0.027573198 -0.14251241 -0.17862387 -0.34974903 -0.013844624 -0.08080791 -0.27248943 0.1617944 -0.42672837 -0.12780857 0.55966127 -0.19447511 -0.15811493 -0.63773733 0.5804531 0.77394325 -0.042665884 0.15664215 0.096689604 -0.21534751 0.058351316 0.4922308 0.1724199 0.49228472 0.6199592 -0.41742742 -0.082118705 0.5860455 -0.69228935 -0.030032447 -0.026047887 -0.6750634 0.27988154 0.07244458 -0.3785362 -0.42087018 -0.10770066 -0.027322806 -0.3880963 0.7366186 -1.018914 -0.270087 -0.060895775 -0.091178805
220 0.5613812 -0.08708112 0.02081199 -1.2454023 -0.32605982 -0.0456736 -0.0935323 0.004142873 0.01709937 0.48329732 -0.16085877 0.07345506 -0.85257167 -0.63594854 0.5550624 -0.1668605 -0.7169568 -0.38126183 0.048161615 -0.12464011 0.6176484 -0.14513321 0.2603774 -0.24852796 0.4779274 -0.344338 0.16311932 0.42985788 -0.021909045 -0.032620426 0.13363893 -1.2741667 -0.3186668 -0.569549 -0.14655265 -0.44064322 -0.24141413 0.25006112 -0.14760472 0.24094903 -0.5071405 0.7067217 0.40858546 0.18928619 0.49284744 0.6965385 -0.107424155 1.0346774 -0.3532286 -0.07811252 0.16391304 -0.55338097 0.09320802 0.10868372 -0.34767127 -0.7659945 0.17115675 0.60732996 0.21210898 1.2033554 -0.07568509 0.10736863 -0.2750956 -0.27394456
221 0.70588773 -0.11723018 0.035231445 -1.2182057 -0.51961946 0.06609473 -0.14432387 0.037845418 -0.106530964 0.3264609 -0.18469939 0.044324763 -0.96875715 -0.55866843 0.6326934 -0.45746884 -0.7162356 -0.20575134 0.07895504 0.03038256 0.53805286 -0.18728 0.25148642 -0.017784122 0.35231772 -0.34094363 0.1696076 0.60165775 0.025742497 -0.055797838 0.31233254 -1.1141589 -0.2801471 -0.49835482 -0.13875782 -0.55840087 -0.10938946 0.25439757 -0.26404986 0.27546835 -0.5757872 0.5829278 0.16797343 0.21512273 0.55018044 0.5413749 0.05907801 0.90561104 -0.31959966 0.062140536 0.14742346 -0.87317914 0.28283438 0.31810027 -0.52802503 -0.48234823 0.23037885 0.6174701 0.023354065 1.1379845 0.053190675 0.1684254 -0.20184313 -0.28775516
11 0.04186841 -0.26292548 0.11448077 -0.072332695 -0.08258328 0.26739505 -0.04842624 -0.060198028 -0.058597945 -0.72099566 -0.33205667 0.24294254 0.2918442 -0.41577798 0.18709157 0.28022888 -0.51106554 0.16838163 0.8265335 0.18433645 0.7375925 -0.58200264 -0.3392143 -0.19324903 0.6502111 0.6230089 -0.059632387 -0.09774502 0.2645004 0.050726835 0.6792903 -0.16700345 0.14001091 -0.70889026 0.33471498 -0.14173803 0.3436217 -0.12843327 -0.31943253 -0.19573033 -0.4427896 0.39946735 0.55668354 0.05964118 0.31166044 0.4934875 -0.07511564 0.1798332 -0.16961439 -0.044731643 -0.12890506 0.063565634 -0.121640466 0.5669044 0.13459037 -0.343349 0.3410381 0.59194684 -0.7699229 0.73929906 -0.31454554 0.3601926 0.5892646 -0.7221484
100 -0.014448638 -0.0458064 -0.50531447 -0.30513397 -0.8464044 -0.42442328 -0.033693578 -0.15478022 -0.049499694 -0.07212008 0.13132037 -0.8190579 0.13570821 0.13153638 1.0284382 0.74825513 -0.6966887 -0.75756884 0.82252705 -0.10759107 0.10456079 -1.1386756 -0.27822605 0.030026859 0.33173487 0.0007094054 0.01827003 1.2632923 -0.3157437 -0.033318378 0.21650594 -0.25029147 -0.4442566 -0.2253559 0.11411033 -0.2948376 0.5232407 0.21714649 -0.3971275 -0.35710528 0.21896414 0.6736347 0.6151449 -0.62799495 -0.39246783 -0.22254859 0.28498238 0.9833308 -0.34430328 -0.44080606 -0.10948657 -0.5133769 0.0066808695 -0.23702292 -0.5804706 -0.008989122 0.004121457 -0.14621183 -0.4736965 0.80355614 -0.6438581 0.5762523 0.15194283 -0.46273005
114 -0.42880216 -0.48844716 -0.23355588 -0.1731573 -0.44581476 0.42346036 0.2334558 0.033823695 -0.05849758 0.0052891853 0.4976465 -0.46744046 0.18726557 -0.5731155 0.0776848 -0.548615 -1.0245324 -0.34046426 0.1199651 -0.060321275 0.15643454 -0.2301552 -0.22129188 -0.9977411 0.95071554 -0.31164944 -0.5244365 0.7906145 -0.089920074 0.37743038 0.24504334 -0.45448053 -0.8867928 -0.39554504 0.33553368 -0.5589041 0.8184692 0.55116713 -1.056419 -0.15499847 -0.39327803 0.10488489 0.7694774 0.7341307 0.09555624 -0.1773156 -0.2146998 0.4688462 -0.5614464 -0.41542768 -0.51509494 0.20942312 0.25199178 0.7785629 -0.57467735 -0.015032157 -0.38435084 0.1541721 0.52596724 0.5166711 -0.621774 -0.30662826 0.23370036 -0.4184495
303 -0.23102517 0.27083412 -0.24494852 -0.34065148 -0.70493954 -0.55395687 0.048272338 -0.022306124 -0.18881911 -0.11832829 0.06417209 -0.73315084 0.15321526 0.23441124 1.086314 0.5291227 -0.66422725 -0.8026578 0.84400433 -0.007835049 0.10755862 -1.3177166 -0.11778655 -0.19235711 0.2760873 -0.26455882 0.112529896 1.135106 -0.3875303 -0.06249575 0.3939907 -0.16390154 -0.46709356 -0.4393385 0.17950962 -0.21244113 0.5195639 0.19050047 -0.366627 -0.43158975 0.13753387 0.5918781 0.3870659 -0.5624779 -0.49206996 -0.26273254 0.41253275 0.9218013 -0.36535147 -0.41104656 0.1982006 -0.7844399 0.008576234 0.03343712 -0.57542646 -0.029009828 0.036190636 -0.022379687 -0.40095177 0.68388534 -0.6096807 0.6013144 -0.024933884 -0.6428713
265 0.43323356 0.16837858 -0.0041163773 -0.048458535 -0.1788878 0.35944152 -0.58735335 -0.14426942 0.3397998 -0.58457506 -0.54097193 0.37243718 0.19324107 -0.3365198 -0.2883202 0.37077823 -0.28913504 0.12823786 0.861868 0.08402931 0.34425062 -0.0037710096 -0.1363773 -0.20539746 0.2752571 0.44393423 -0.59294623 0.09720647 0.048242334 -0.044202592 0.5433285 -0.097404495 0.028711727 0.03573605 0.2290166 0.3912998 0.53518766 0.11505451 -0.6881426 -0.31601575 -0.15013614 0.57487696 0.6373759 0.2560692 0.21807869 0.22895688 0.1112901 0.15233758 0.008794287 -0.40554804 0.12525363 -0.059837826 -0.30469605 0.3576083 -0.49256057 -0.6597589 0.32603818 0.2657783 -0.41767293 0.89757794 -0.08263816 0.266418 0.6415757 -0.45614335
36 0.15675582 0.1434131 0.117276244 0.019338585 -0.44469753 0.16503571 -0.60233295 -0.09355415 0.032355715 -0.1335423 -0.5305444 -0.06742291 0.5491638 -0.4579612 -0.33942088 0.16932216 -0.21584338 -0.00752081 0.8705943 -0.10689748 0.7914804 -0.15109761 -0.35369796 -0.10654491 0.42704865 0.09400169 -0.71849954 -0.044951234 -0.064791955 -0.006075132 0.81524074 -0.08312508 0.016778339 -0.03155447 0.4971486 0.16230927 0.48698512 -0.18376346 -0.30382368 0.13906479 -0.25486037 0.37880203 0.5704348 0.098045416 0.61680996 0.42769367 0.28564018 0.39792 -0.24183515 -0.1553085 -0.07076499 0.042463064 0.06177289 0.34668013 -0.080277115 -0.55481875 0.7153607 0.30942917 -0.59022355 0.38751456 0.06488519 0.28361586 0.43026605 -0.69593084
174 0.016508427 -0.2759288 0.37196207 -0.5712651 -0.45997632 -0.25315118 0.27941102 -0.9853963 -0.6339622 -0.3533136 -0.57086456 -0.74947214 -0.19245566 -0.006581493 -0.0771758 0.30580154 -1.1440113 -0.81329995 0.579803 -0.16132036 1.0045785 -0.4635463 -0.015737224 -0.00965409 0.4658025 -0.7709747 -0.49932465 1.2304845 0.3242857 -0.77459043 0.18602669 -0.77836096 -0.08171307 -0.7787451 0.47705212 -0.04810151 0.15818435 -0.07666063 -0.42264518 -0.16912396 -0.94705695 -0.06656615 0.226113 0.027307704 0.36439648 -0.4034214 -0.29387537 -0.3745269 0.25992095 -0.5737421 0.035876505 -0.13771696 0.34066066 -0.09161532 -0.12751825 -0.17509957 -0.42030615 -0.46053708 0.15424791 0.38168985 -0.09502958 0.015686076 -0.39171633 0.49321467
162 0.1689923 0.43342233 0.21406786 0.045867212 -0.7828959 0.3718243 -0.25906816 -0.3972834 -0.75066185 -0.40698555 -0.98786366 -0.6400432 0.17293587 -0.6955339 0.43373567 0.38315466 -0.117154576 0.15971835 0.6776721 -0.0044703255 0.5937226 0.015132916 -0.09691743 -0.5762764 0.18205872 -0.11892391 -0.6247853 -0.05522834 0.31791577 -0.7011636 0.33758572 -0.09661565 -0.6818756 -0.29249302 0.3144052 0.1789045 -0.039476197 0.11748414 -0.44124725 -0.036384992 -0.22435398 0.057849884 0.95700705 0.11714229 0.09457736 -0.15254271 -0.24846672 0.64057195 -0.010288561 -0.080554225 -0.00615521 -0.4313924 -0.20152448 0.22643907 0.562139 -0.37208697 0.4069442 0.28629863 -0.31943783 0.24778065 0.09733174 -0.11424646 0.49722025 -0.64520586
136 -0.19449027 0.14873387 -0.13444078 -0.36550188 -0.5814225 -0.57982886 -0.056521576 -0.09099483 -0.17128277 -0.06377154 0.09268713 -0.74522936 0.20948988 0.043739676 0.95713186 0.5838162 -0.789587 -0.90407324 0.61788815 -0.19556032 -0.043969315 -1.1464379 -0.14934283 -0.3119825 0.1914333 -0.18318665 0.16431282 1.2663534 -0.36942786 -0.06409375 0.033997215 -0.042273358 -0.56637293 -0.37620804 0.13128512 -0.19526052 0.54087305 -0.113225676 -0.3560137 -0.61191046 0.017049871 0.90471816 0.5710567 -0.6420438 -0.43460876 -0.1074377 0.34417108 1.1154698 -0.23173095 -0.52463686 0.13012259 -0.73259 0.0059834598 0.07846053 -0.32936248 -0.031313762 -0.031259257 -0.09183139 -0.42433366 0.7895616 -0.6705314 0.5822282 0.24934448 -0.4451308
244 -0.12307736 0.11771075 -0.46731463 -0.5353258 -0.66874486 -0.47967985 -0.0731492 0.024311144 -0.12131812 -0.15258734 -0.013630459 -0.79724807 0.26507258 0.1646594 0.9593778 0.790295 -0.71464735 -0.9543227 0.92667884 -0.14626028 0.21235935 -1.0624076 -0.22799733 -0.23142812 0.41897422 -0.088367335 0.19080548 1.0278281 -0.5172787 -0.14437908 0.533267 -0.34983578 -0.59518206 -0.27069494 0.014393002 -0.3555629 0.2709932 0.49060762 -0.29037023 -0.402012 0.25096995 0.6210335 0.45986843 -0.5551189 -0.5714815 -0.071441635 0.3569909 0.76797885 -0.44200054 -0.587801 -0.011150823 -0.48799908 0.1366746 -0.19945517 -0.46517992 -0.20862153 -0.06961719 0.027832642 -0.45288855 0.6176999 -0.72886986 0.5798491 0.10597105 -0.37395215
228 0.29228696 -0.04797912 -0.70551956 -0.59727484 -0.7793503 -0.41414782 -0.105461694 0.045784883 -0.16000308 0.06353725 -0.053823687 -0.6958384 0.32289016 0.20314619 0.9350644 0.90305096 -0.8936499 -0.96898234 0.9253158 0.040545322 0.21201704 -1.1219187 -0.27867723 0.00062417606 0.48217192 0.068391055 0.014869411 1.0715613 -0.21536665 0.054120637 0.6615274 -0.35182616 -0.73346514 -0.030383982 0.16363093 -0.37630624 0.12489034 0.4478216 -0.2714764 -0.18720117 0.40948248 0.56598794 0.52879393 -0.26837158 -0.6436661 -0.08839458 0.42636594 0.4893216 -0.49083814 -0.527486 -0.11659049 -0.40497592 0.53090274 -0.29703397 -0.6092129 -0.18876308 -0.14116447 0.009833743 -0.5992203 0.6136673 -0.66605955 0.30022275 0.23384969 -0.26239756
280 0.57478327 -0.120584354 0.34303775 0.30084443 0.30635616 -0.4547001 0.2660505 -0.19024 -0.3617694 0.18803446 0.24076626 -0.65389663 -0.47146788 0.08843393 0.99851614 -0.36188486 -0.54901624 0.35578296 0.6121936 -0.23227997 0.14228109 0.22942743 -0.5276549 -1.0378479 0.73399824 -0.15540528 -0.322181 0.6038774 0.3683394 -0.34310183 0.5301297 -1.1263094 -0.23698245 -0.77331984 0.44866127 -0.13876334 0.55837613 -0.3030907 -0.29680514 0.29765332 -0.12915769 0.71928084 0.6541626 0.054393336 0.09889543 -0.12846816 0.67086124 0.14783517 0.35338336 -0.40714824 0.13137636 0.018494448 0.3630973 -0.2254291 -0.69126576 -0.7017286 0.017980149 0.24881071 -0.061353363 0.080219634 -0.7602848 0.786243 0.52889985 0.017357355
138 -0.44535518 -0.56454074 -0.1673172 -0.23988177 -0.5380607 0.21686374 0.14864174 0.15179735 -0.2398268 -0.247736 0.5475166 -0.356447 0.062634416 -0.49576604 0.34316725 -0.67126584 -1.2700716 -0.48592165 0.34380478 -0.04040487 0.12914343 -0.13798937 -0.1347085 -0.87563336 0.7821523 -0.39193785 -0.8608732 0.77576977 -0.021932578 0.5130317 0.3154784 -0.3868544 -0.72353023 -0.28749752 0.2301075 -0.5858092 0.6649804 0.5301335 -1.0593611 -0.06532593 -0.42624214 0.17328164 0.78290385 0.6132716 0.08452454 -0.24899983 0.08284836 0.49982762 -0.45130596 -0.22137158 -0.49195638 0.41218662 0.28361508 0.9406238 -0.46555737 0.25893322 -0.47179344 0.30627832 0.50821704 0.5225918 -0.46738237 -0.39313665 0.20443884 -0.44153303
146 -0.032780994 -0.7837894 -0.020466076 -0.018494545 0.21813755 0.13098118 0.016392369 0.6454892 -0.65959656 -0.2130422 -0.0077651483 -0.94934434 0.22248332 -0.48153892 0.25614384 0.6223576 0.013489342 -0.42026952 0.22911316 0.021950332 0.42736942 -0.6830168 0.28489724 -0.08797039 0.306449 -0.19861883 -0.6011592 0.3361039 0.913847 -0.060694765 -0.0972314 -0.5290386 -0.20574263 -0.25047514 -0.45198232 -0.20093961 0.30383575 -0.008168335 -0.28037888 0.48572522 -0.5641427 0.79438865 -0.24349073 0.73985213 0.14541091 0.0363241 0.122491926 0.4701127 -0.63191885 -0.12695363 0.27034333 -0.032072604 -0.3957152 -0.09370811 -0.6040762 -0.54947174 -0.58277607 -0.2787475 -0.070552334 0.25241372 0.011767189 0.6594273 0.72219265 -0.199602
47 0.13599464 0.09704854 -0.06608725 0.09057029 -0.19543856 0.40770167 -0.59749126 -0.30319273 -6.0918956e-05 -0.46119547 -0.5103906 0.17841996 0.20678319 -0.31103453 -0.30505928 0.14893875 -0.38799122 0.18920185 0.9941299 0.21483791 0.49108776 -0.24841186 -0.08886879 -0.4225426 0.43368068 0.55312026 -0.35406905 0.18550444 0.02628736 0.16330178 0.40993562 0.12620422 0.21940313 -0.33999246 0.2597204 0.21021275 0.5529242 -0.039836653 -0.27073947 -0.21796924 -0.12356003 0.49816784 0.81977725 0.2925518 0.5410367 0.14752433 0.26592243 0.43332767 -0.21630351 -0.1401266 0.35278273 0.07983493 -0.24706882 0.46848056 -0.23150781 -0.42375067 0.43365085 0.6774089 -0.5627029 0.62685496 0.01751221 0.40525514 0.34968385 -0.4976545
206 -0.2817651 -0.47985044 -0.26494485 -0.35156494 -0.2529606 0.46546453 0.39734414 -0.105240576 -0.06520622 -0.13534777 0.27149916 -0.6032034 0.2790735 -0.37406102 0.13895519 -0.2894879 -0.6524804 -0.03818581 0.008503889 0.107305594 0.2734931 -0.24936804 -0.57523835 -0.78129077 0.93131006 -0.7773196 -0.21093976 0.59735155 -0.22359969 0.5427284 0.34797826 -0.44813514 -1.0432262 -0.6059899 0.31005707 -0.25675127 0.99040544 0.6620158 -1.1627203 -0.17637493 -0.5868991 0.15733616 0.69105816 0.57183135 0.05259801 0.15893775 -0.43349138 0.50156677 -0.4133695 -0.44349644 -0.5402856 -0.16496193 0.6384384 0.70503515 -0.6102405 -0.22647788 -0.37765086 -0.07084631 0.4926604 0.28885922 -0.34356952 -0.03668165 0.27394462 -0.694574
48 -0.43822044 -0.506565 -0.2823894 -0.11939651 -0.34662575 0.20441644 0.29763624 -0.09468051 -0.0586047 0.0203748 0.3805265 -0.50467366 0.26967096 -0.5934664 -0.13966228 -0.42851907 -0.99318093 -0.10963799 0.12131551 0.065123096 0.064548 -0.22171558 -0.5065224 -0.8780238 0.7890439 -0.63225615 -0.46283668 0.6011321 0.01705494 0.34892488 0.3008042 -0.36961037 -0.9785986 -0.54835194 0.3515336 -0.47883815 1.0463648 0.69433063 -1.1827012 -0.1569425 -0.5069977 0.21568988 0.50491625 0.5471118 -0.16411637 0.051328856 -0.2905848 0.42187327 -0.40586078 -0.41221175 -0.5055503 -0.10133665 0.60602826 0.64849496 -0.6349327 -0.3481443 -0.15418321 -0.048533645 0.5611777 0.5445932 -0.45294327 -0.21400331 0.13822173 -0.6424545
2 -0.14479399 -1.0471057 0.49477658 -0.40975085 -0.74103576 0.14009033 -0.013067672 -0.5106387 -0.18739042 -0.20089519 0.12803511 1.0802815 0.13634485 -0.2783641 0.315318 0.4220391 0.08085904 -0.64452666 0.38331404 0.5096547 -0.19409099 -0.33999744 -0.21959618 -0.69466877 0.8026611 -0.49709767 -0.5182301 0.52661073 -0.07286519 -0.34903583 0.66732925 -0.75804764 -0.89651656 -0.37094188 0.05361144 -0.22777465 0.29186055 -0.5364462 -0.32383326 0.12981515 -0.992445 0.23602587 0.25045383 -0.06946818 -0.27893928 -0.5211433 0.277997 0.8747103 -0.14731881 0.15336516 0.124815255 -0.14213644 0.26705384 -0.40678516 -0.41972643 -0.50769055 -0.2532359 0.40540767 -0.38269654 0.06748962 -0.37639123 0.34415758 -0.20950441 -0.34698686
292 -0.16456684 -0.8236588 0.036585487 -0.40047073 -0.52703744 -0.47064534 0.21042585 0.24217431 -0.026477274 -0.17390603 -0.15770125 0.57122713 0.22262925 0.0820577 0.22895181 0.30543774 -0.14205168 -0.61716 0.52385044 0.65385765 -0.08320745 -0.09121847 -0.58616525 -0.57856447 0.005380261 -0.8210699 -0.42503333 0.6993013 0.41325548 -0.38852116 0.65255713 -0.41089842 -1.1422619 -0.47048533 -0.13345203 -0.16568609 0.118943185 -0.6181231 -0.030255381 -0.33202833 -1.152434 -0.1266685 0.76427877 -0.3581695 0.2641088 -0.25044477 0.1528569 0.53021157 -0.43626696 0.2304187 0.002121589 0.000630542 0.29485595 -0.010214043 -0.50126445 -0.9001317 -0.3475506 0.7385593 -0.23815316 0.38002333 -0.1104347 0.41899943 0.17253903 0.0071591153
18 -0.100322194 -1.1040686 -0.18025407 -0.14107418 0.50309694 0.075036645 -0.26764107 0.55393195 -0.5726811 -0.083352886 0.29212323 -0.2639622 -0.16614026 0.123711616 0.39988598 0.589839 -0.21390665 -0.58014107 0.2506579 -0.18862435 0.7813923 -0.36996707 0.23865247 -1.0116587 0.23372181 -0.07469426 -1.139073 0.33848837 -0.19119914 -0.37491134 0.54090846 -0.14278023 -0.10194194 -0.371972 -0.028813208 0.068230756 0.23283637 0.35393766 0.3789454 -0.2589799 -0.24594319 0.90887314 0.3128451 0.18578933 0.105512865 -0.23601113 -0.84808755 0.12538143 -0.335633 0.33293754 0.24038821 -0.46991763 0.5997918 0.18717766 -0.21546671 -0.42790577 0.43989742 -0.51574236 0.18738995 0.46729326 -0.20843433 0.27605233 0.39542922 0.05580375
144 -0.12696825 -0.4564748 -0.17488585 -0.26082048 -0.3155577 0.31031618 0.390062 -0.06461021 -0.057609692 -0.13524686 0.31406197 -0.6112115 0.2673402 -0.5800051 0.22784199 -0.024286704 -0.76066804 0.15102494 -0.004345653 -0.009817471 0.12804174 -0.33516136 -0.5487491 -0.6207196 0.75832427 -0.7775864 -0.27583727 0.4548484 -0.118385315 0.4496586 0.35524076 -0.33531797 -1.0858197 -0.7261413 0.3172388 -0.24804492 1.0739251 0.64438725 -1.248105 -0.22467759 -0.7652254 0.16619496 0.4931591 0.44884136 -0.20975032 0.22992899 -0.47462517 0.29078397 -0.28635287 -0.40747756 -0.60570925 -0.1097508 0.6979149 0.7135031 -0.861161 -0.46246862 -0.4101961 -0.059271704 0.58759594 0.49911022 -0.3526013 -0.18262313 0.14304902 -0.74107814
148 -0.44821697 -1.0676012 -0.96892047 -0.470474 -0.08451224 0.1109028 -0.21026805 0.01902649 -0.53221697 -0.3215569 -0.4303979 -0.5598181 0.15160917 0.47398126 0.32823265 0.16053066 -0.41463545 0.5349222 0.75215036 -0.47206983 -0.24065407 -0.42777267 -0.12702103 -0.25965238 0.68828917 -0.49986407 -0.62312603 0.74693763 -0.38151097 -0.16937706 0.10468808 -1.1694858 -0.62149394 -0.60224795 0.4310594 0.295266 -0.1274404 -0.8356728 -0.27387893 -0.046623357 -0.64062536 1.0314367 0.3369584 0.17552358 0.23242566 -0.1830814 0.42989397 -0.12298576 -0.07258878 -0.1646348 -0.34761226 -0.9152641 -0.07958593 0.26156244 -0.08940627 -0.38996577 0.04711832 0.6186927 -0.047899194 0.9035156 -0.6820917 -0.75224423 -0.22798884 -0.47920635
126 0.73407245 -0.4727568 0.24239902 -0.1448887 0.17505372 -0.5529918 -0.07321007 -0.77584714 -0.33638594 -0.081494205 0.3305156 -0.6334638 -0.1274094 0.23337115 0.3971925 -0.22461626 -0.72990334 -0.20417178 0.68474084 -0.31181362 0.8869944 -0.22150002 -0.3803376 -0.71348125 0.69809747 -0.4155579 0.016913403 0.87399465 0.41743037 -0.3544574 0.49184602 -0.85464823 0.044010725 -1.1277323 0.04376459 -0.046571836 0.4734044 -0.28222963 -0.27238476 0.31902865 -0.68977535 0.35760096 0.5702603 -0.09176803 0.2985771 -0.24446408 0.35529056 -0.22453548 0.70807165 -0.7129606 0.27010497 0.35395396 0.32177907 0.17550443 -0.64193445 -0.48651645 -0.31987885 -0.19561909 -0.22387604 0.4589352 -0.73944 0.38182938 -0.16074826 0.2542607
245 -0.43631467 -0.41413417 -0.34535736 -0.2895238 -0.37459722 0.21304068 0.31589296 -0.11891213 -0.20351538 -0.3416226 0.53412616 -0.5598113 0.15339255 -0.61671114 0.087339826 -0.5540802 -0.7859613 -0.3153467 0.21474293 -0.00795414 0.15650223 -0.20774928 -0.5007072 -0.9055547 0.79982376 -0.51445144 -0.43885583 0.55408233 -0.25070158 0.37587965 0.40786922 -0.53214395 -0.7253873 -0.6153669 0.1916589 -0.3820319 0.937282 0.795334 -1.1680118 -0.12155532 -0.6249037 0.06439452 0.6500248 0.40787178 0.06974033 -0.17272557 -0.14157712 0.50595903 -0.53408676 -0.34718245 -0.6603691 0.09418507 0.30955517 0.85424614 -0.63933045 -0.1729744 -0.27074638 0.102765314 0.59006745 0.42968547 -0.31903625 -0.27167907 0.26355004 -0.59897065
305 -0.25201845 0.15249252 -0.16979903 -0.23371287 -0.518216 -0.55881405 0.038746182 -0.06865602 -0.27752587 0.12120331 -0.0861335 -0.6246621 0.10327402 0.140898 1.2371367 0.6180746 -0.6597756 -0.8712682 0.69083434 -0.006746575 -0.029280016 -1.3363397 0.18896589 -0.28981727 0.23774016 -0.39235923 0.109415665 1.1915922 -0.28234947 0.13497905 -0.062416196 -0.0012046347 -0.43067777 -0.6015141 0.19587162 0.008224483 0.5983555 -0.061902594 -0.45165682 -0.4980677 0.019052818 0.7723428 0.59600484 -0.62715566 -0.40006733 -0.23151363 0.4259737 1.057409 -0.18251093 -0.46063066 0.073876254 -0.66887105 0.0015143446 0.17575523 -0.35837036 0.080030665 -0.14475682 0.06711473 -0.33778363 0.8205594 -0.56470364 0.6574862 0.16439398 -0.66834444
137 0.57449466 -0.45807108 -0.16971181 -0.8869826 -0.99952453 -0.2657526 -0.33081895 0.088259295 -0.035455175 0.01566879 -0.3042598 -0.25204253 -0.8519516 -0.41727805 0.5261087 -0.38220143 -1.0203142 -0.36463988 0.10132342 0.3368134 0.11943463 -0.17945148 0.28831288 -0.47144058 0.27868137 -0.3507287 -0.3445462 0.4265388 0.10420805 0.28110203 -0.18195438 -0.69590294 -0.22129552 -0.553344 -0.07630376 -0.7756976 0.060862966 -0.02060165 0.098081276 0.35908827 -0.22621661 0.5457705 -0.32399896 0.0018096364 0.5104965 0.43435565 -0.3058271 0.35120878 0.28942898 -0.13100106 -0.27112377 -0.75390047 -0.0311314 0.3159332 -0.4482513 -1.0580038 -0.033687323 0.36935958 -0.3476263 0.62518084 0.15625721 0.23266919 0.05237985 -0.5089528
293 -0.3506569 -1.0811316 -0.84494656 -0.46533483 0.03261582 0.16249828 -0.21697648 -0.18435964 -0.5893752 -0.20624828 -0.29709306 -0.70519084 -0.08144984 0.40986085 0.19511406 0.2961873 -0.42715794 0.4817837 0.60820746 -0.7120125 -0.35090724 -0.32349128 -0.06841369 -0.3213456 0.5256282 -0.42736912 -0.6067123 0.8105113 -0.30011448 0.022724867 0.24105413 -1.0706215 -0.6560654 -0.45740765 0.47902468 0.4199646 0.0365818 -0.8057112 -0.20539227 0.064664 -0.75324225 0.80641 0.3774023 0.23677045 0.1768744 -0.3873431 0.028811622 -0.16526869 -0.22278228 -0.112786055 -0.10880491 -1.1742617 -0.13667664 0.41052836 -0.22297573 -0.2953212 0.24227299 0.7551831 -0.33949852 0.90129757 -0.72655725 -0.5976478 -0.25516984 -0.385823
276 -0.26268184 -0.69520915 0.045076482 -0.20670933 -0.36117038 -0.44308054 0.07202662 0.2761884 -0.12093673 -0.074312285 -0.14197753 0.66072416 0.36620516 0.23594537 0.23293614 0.191966 -0.25715226 -0.28712028 0.54636765 0.555683 0.08607377 -0.14877802 -0.29253447 -0.7366144 -0.17684716 -0.8417837 -0.18292572 0.8561714 0.44375724 -0.6006674 0.5868345 -0.50430334 -1.2454816 -0.4017756 -0.18608487 -0.48677254 0.25821406 -0.45363885 -0.0064520785 -0.44823825 -0.9099903 -0.26729214 0.7539598 -0.19693466 0.40700683 -0.4768298 0.021625903 0.32980424 -0.67562187 0.066057846 -0.13019282 -0.13425744 0.44513625 -0.0026989288 -0.64413214 -0.8165851 -0.2781994 0.8451772 -0.36119503 0.8140801 0.045351375 0.5166002 0.20002022 0.07691259
147 -0.042973407 -1.009464 0.2156144 -0.1985237 -0.8932004 -0.15482828 0.33207676 0.29632476 0.0938536 -0.19142257 -0.14086089 0.7390729 0.19721247 0.12259607 0.2690192 0.3579321 0.039827637 -0.26071584 0.44271734 0.6064141 0.020359725 -0.18478349 -0.45635214 -0.7205698 0.12975378 -0.72103983 -0.37092683 0.9302067 0.20502697 -0.62639153 0.7334548 -0.6389709 -1.000611 -0.37745342 -0.21240342 -0.25988755 0.167856 -0.4773561 -0.3882138 -0.35057852 -1.0535479 -0.07666432 0.661928 -0.2561773 0.26666513 -0.3284896 0.2594036 0.6304996 -0.5175323 0.18970086 -0.096815184 0.016758816 0.10141313 -0.24583606 -0.38261116 -0.6573727 -0.2393922 0.5440952 -0.25935003 0.32071877 -0.13868526 0.4903895 0.040735185 0.07705092
205 0.021369211 -0.11904697 -0.56906694 -0.56100696 -0.72703713 -0.35913512 -0.12906756 -0.0030637826 -0.11148925 -0.021119127 0.09341671 -0.78510994 0.2589492 0.24951984 0.88658506 0.64472044 -0.9923685 -0.8285959 0.92740864 0.016693693 0.08384064 -1.0390903 -0.27142504 0.1986239 0.5333584 -0.100278 0.093711294 1.1896214 -0.13473932 -0.1626432 0.5791538 -0.24065511 -0.6416246 0.018874483 0.12493849 -0.29903808 0.42921403 0.45512065 -0.10479378 -0.2199766 0.33823654 0.6402945 0.5161601 -0.4362474 -0.679942 -0.15897907 0.36841917 0.7418986 -0.34094185 -0.5163943 0.10716769 -0.5543624 0.36905372 -0.23317847 -0.7157746 -0.14860432 0.048988804 -0.0017246042 -0.60015893 0.5324453 -0.5892264 0.40953273 0.14434107 -0.46469688
216 -0.1594978 0.47269246 0.40912923 -0.85509586 -0.36039728 0.40610495 -0.43811607 -0.25039262 0.06833003 -0.069065824 -1.016687 -0.3672951 -0.041354533 -0.28997 -0.037328012 0.76267827 -0.6672283 -0.04513358 0.33752573 0.29378924 -0.20021169 -0.10677993 -0.096785784 -0.5166304 0.46985522 0.021592608 -0.53620094 -0.035308294 0.16430281 -0.178417 0.29008526 -0.44302708 -0.2298086 -0.24525017 0.5244759 0.29336905 0.6166429 -0.049651068 -0.17624325 -0.42295521 -0.38434732 0.5970246 0.71863526 0.3477439 0.31589898 -0.21389703 0.48492178 -0.034805216 -0.26145154 0.10188444 -0.07822015 0.2289055 -0.13231042 0.42805177 -0.24228394 -0.21372652 0.045339763 -0.35902128 -0.28459084 0.5908934 0.3886209 0.22191419 0.18998659 0.09061504
33 -0.009980509 -1.3480872 0.9761301 -0.4527172 -0.11153104 -0.24229026 -0.39006507 -0.00032536165 -0.51211125 0.1293136 0.27845874 -0.66220844 -0.09188805 0.034862798 0.60701096 -0.2826146 -0.7577035 -0.039398197 0.50066775 0.19792151 -0.3638761 -0.584654 -0.121911936 -0.2498113 -0.089400396 -0.0591912 -0.07225814 0.07439197 -0.75862277 -0.10197125 0.6623025 -0.2835887 -0.6807889 -0.58466834 0.33986562 0.977398 -0.1444441 0.28015715 -0.31720322 -0.22859757 -0.0022924745 0.06501586 0.15083762 0.53137887 0.91555285 -0.007960076 0.07357129 0.10627174 -0.6257898 -0.02808339 -0.044195004 -0.5241696 0.10994173 -0.11597083 -0.22689886 -0.5402103 -0.2361314 -0.14658456 -0.4050021 0.93584627 -0.63113123 -0.010026112 0.36884433 -0.23733963
149 0.1680893 -0.5230647 -0.3406183 -0.48088154 -0.46477106 -0.33356914 0.33511692 0.7008618 -0.31798822 -0.14601009 -0.14455865 -0.30263 0.19485173 0.4738943 -0.034962278 0.15284951 -0.085792094 -0.39329392 0.25307593 0.87797326 -0.3217726 -0.104982704 -0.262138 -0.48430535 0.001336158 -0.7104809 -0.26876527 1.0238473 0.717358 -0.42477733 0.9240499 -0.5575393 -0.6705253 -0.14553608 0.4367932 -0.24559224 0.10382459 -0.17672828 -0.008339348 -0.36933145 -0.7786702 -0.16869824 1.0307139 -0.64645743 1.0026292 0.03852205 -0.21781695 0.17998804 -0.29074624 -0.15341134 0.2705813 0.12870964 0.09083621 0.1645962 -0.31195104 -0.43749487 -0.34613395 0.5832589 0.3242582 1.2297122 -0.5841392 0.6023351 0.4823082 -0.48516488
189 0.7620781 -0.043482073 0.3339339 0.32820278 0.3197688 -0.4501937 0.16253501 -0.2607548 -0.34976542 -0.05290334 0.29829323 -0.6429613 -0.49704084 0.15333696 1.1583228 -0.44753155 -0.26835182 0.38530162 0.6211878 -0.18719447 0.0340256 0.10135502 -0.31642935 -1.0163038 0.75263864 -0.0061016516 -0.47417742 0.45075867 0.2795335 -0.056579195 0.5009153 -1.1602997 -0.40541732 -0.6358436 0.56242883 -0.3122777 0.6279863 -0.30076253 -0.11018796 0.34864742 -0.27594164 0.63860273 0.7042659 0.013836132 0.16122341 -0.18022433 0.6564233 0.09742929 0.11743833 -0.37020537 -0.053530943 0.103591494 0.72467214 -0.22964846 -0.8098652 -0.4768741 0.05508039 0.27286696 -0.24766569 0.41397557 -0.66485804 0.70418715 0.3599221 -0.023597574
164 -0.10262368 0.20465586 0.5100506 -0.86327904 -0.62740237 0.20923515 -0.09737125 -0.7532892 -0.68627244 0.07261086 -1.027659 -0.5521275 0.33055964 -0.00401384 -0.33040124 0.34925187 -0.57735777 -0.29631105 0.41226354 0.13821429 0.48986495 -0.25273886 0.264017 0.033769995 0.12868103 -0.19119559 -0.7050258 0.18626063 0.15905994 -0.5749885 0.38499177 -0.42848036 -0.63146234 -0.20786855 0.6138932 0.07836794 0.30859172 -0.015096413 -0.32590255 -0.476064 -0.28770718 0.45850915 0.51146895 0.20604585 0.11987347 -0.309131 0.049843434 0.24193045 0.3197867 -0.23557961 -0.13573757 0.0040321304 -0.34803283 0.04083675 -0.370603 -0.33961093 0.03426234 -0.22808889 0.33939523 0.4041953 0.44387284 -0.078069605 0.026317483 0.10801968
113 -0.14858146 -0.23376317 0.36710927 -0.7898944 -0.40344906 -0.12798952 0.37823558 -1.1395193 -0.82161355 -0.6094952 -0.59386015 -0.851349 -0.043609828 -0.13745925 -0.016089298 0.298072 -1.0140084 -0.74454534 0.36493278 -0.007915233 1.0351132 -0.5215141 0.084611595 -0.029561974 0.3868607 -0.57556087 -0.61184776 1.221704 0.317802 -0.49945444 0.16388707 -0.78203714 -0.28820404 -1.0268049 0.5669596 -0.0613315 0.10743751 -0.18457423 -0.17765152 -0.25030917 -0.70659906 0.021396212 0.38544795 -0.099962436 0.48178914 -0.16085425 -0.1845671 -0.29463845 0.24799268 -0.50947946 0.15171935 0.08578484 0.43051288 -0.0721477 -0.25792208 -0.12116279 -0.2951165 -0.33209625 0.048879884 0.09950876 0.12384525 -0.09561353 -0.607977 0.34194505
87 0.78107864 -0.45995063 -0.33077928 -0.750854 -1.039226 0.03883117 -0.44064426 -0.0387013 -0.15338369 -0.26770598 -0.6852979 -0.16534676 -0.52494156 -0.09731052 0.60108554 -0.34560022 -1.4076712 0.10142888 -0.3966603 0.52524847 0.32707107 -0.3618559 0.044225514 -1.0535837 0.08815972 -0.25006467 -0.4798097 0.5203623 -0.21548767 0.13516839 0.13733888 -0.50760704 -0.3041227 -0.551334 0.37661877 -0.325186 0.22770533 0.17191909 0.28747216 0.117639974 -0.6678917 0.32874075 -0.7693294 -0.49470925 0.24416171 -0.6039096 0.14759934 0.17717598 -0.049907982 -0.7474071 -0.53377074 -0.34143114 -0.17015636 0.22793135 -0.35999912 -0.9594305 -0.25116888 0.34140083 -0.31729472 0.20723662 -0.3078641 0.42246562 0.45882872 -1.0196029
187 0.7889682 -0.22742923 0.3850439 0.13974187 0.19245724 -0.6432001 -0.19717084 -0.26170453 -0.38659436 0.28756267 0.21510571 -0.6846605 -0.20956416 0.19144256 0.64958346 -0.44783425 -0.5752994 0.1070489 0.9734136 -0.29627633 0.65840006 0.09648873 -0.39644715 -0.8429611 0.8197536 -0.30629098 -0.1350114 0.81312 0.32676184 -0.2646005 0.42542645 -1.1519915 -0.13880649 -0.9350582 0.28659713 -0.08720276 0.65854025 -0.4777183 -0.29333165 0.20872314 -0.42608938 0.29257575 0.44969606 0.04421683 0.146439 -0.25594768 0.3708274 -0.068059236 0.58702403 -0.3190612 0.39545768 0.2617249 0.43601415 -0.16120571 -0.90967214 -0.3772639 -0.09977195 -0.0048058345 -0.08126352 0.24625601 -0.85570323 0.426828 0.17873307 -0.04962407
242 -0.0012868915 -1.0481476 0.06865663 -0.15365046 0.32639667 0.17513393 -0.14747292 0.46021122 -0.7367746 0.011420959 0.31640607 -0.158096 -0.0055175256 0.026006687 0.3619643 0.7234725 -0.03730996 -0.44765952 0.18001501 -0.23370919 0.83480287 -2.9217254e-05 0.35878015 -1.0349357 0.05243992 -0.024298145 -1.0632056 0.5187395 -0.14138332 -0.32322302 0.3094984 -0.1189246 -0.22030225 -0.68170685 0.13338287 0.14892142 0.05426599 0.4426117 0.46580282 -0.28093672 -0.32393643 0.968085 0.26033854 -0.0029922754 0.14709081 -0.075893335 -0.4660814 0.105926886 -0.58444303 0.33702737 0.04261498 -0.50002736 0.33094546 0.26860094 -0.5052506 -0.20781115 0.42216894 -0.61736596 0.15709352 0.44551578 -0.54941505 0.123235874 0.21932444 -0.19087473
186 0.6275976 -0.39113805 0.38669112 -0.15076049 0.2642597 -0.54952216 -0.020850388 -0.5640198 -0.36808363 0.25518227 0.3010206 -0.5641409 -0.33931756 0.31809843 0.4458821 -0.36502036 -0.62547606 -0.08383849 0.7070406 -0.46388987 0.7353843 0.07902781 -0.495569 -0.97212845 0.8772629 -0.3898597 -0.1283434 0.82331795 0.34887773 -0.2836048 0.50560856 -0.88577956 0.08780138 -0.95735127 0.17378145 -0.21968299 0.6829344 -0.5144252 -0.31652492 0.1921874 -0.3685558 0.32122356 0.43803576 0.0062702806 0.17975721 -0.2768104 0.5756856 -0.2236368 0.5332463 -0.5859738 0.34666213 0.17367005 0.5447883 -0.15921116 -0.6679444 -0.37261757 -0.3202423 -0.122911505 -0.26595923 0.6471966 -0.64312375 0.5191877 0.3073028 -0.017605908
182 0.7507522 -0.52119726 0.33954313 -0.28564942 0.07280343 -0.38541916 0.09054265 -0.6783952 -0.48141354 0.03573069 0.30035502 -0.61398 -0.101401 0.27711868 0.349337 -0.37988272 -0.7595175 -0.121220246 0.52220786 -0.29623187 0.99373096 -0.44319513 -0.5136359 -0.5500146 0.725717 -0.36342126 -0.29707015 1.0398455 0.51312405 -0.5706568 0.6494492 -0.889269 -0.14192459 -1.167052 0.1399644 -0.18669713 0.4110538 -0.38631523 -0.33279407 0.20868157 -0.50432205 -0.0034927288 0.32202628 0.10880003 0.31388977 -0.2039003 0.44606513 -0.22398584 0.55746245 -0.7649324 0.20798299 0.15681984 0.24874482 0.22715053 -0.35343212 -0.2753453 -0.16972704 -0.38629344 -0.31128705 0.34597707 -0.7397493 0.55829793 -0.28303748 0.18780169
183 0.058067624 -1.4271531 0.77453136 -0.15230672 -0.09847118 -0.22300392 -0.2937438 -0.32935455 -0.18254893 0.29300818 0.4337172 -0.8462897 -0.045773823 -0.11313572 0.40308163 -0.18442033 -1.1046615 -0.14991008 0.64740026 0.49884138 -0.40567088 -0.3089756 0.08976088 -0.23554507 0.081784666 0.26762974 -0.0923824 0.01723838 -0.5430379 -0.2530995 0.5157763 -0.44363627 -0.5426333 -0.52328146 0.2577658 0.8810407 0.12969851 0.10168134 -0.42292777 -0.36445662 -0.07901062 -0.13339244 -0.06431485 0.06416593 0.8392864 0.076548055 0.16307025 0.5889097 -0.6664847 -0.22397196 -0.098482616 -0.22850832 0.382975 -0.3158147 -0.24948706 -0.71562684 -0.2808309 -0.10732384 -0.44353852 1.1350802 -0.2955476 -0.1147666 0.2966673 -0.38493052
92 -0.18782431 -1.0044961 0.14447011 0.054556116 0.46119887 -0.21036379 -0.6844754 0.32417205 -0.8328695 -0.41322386 -0.055264864 -0.7415322 -0.32012245 0.21972816 0.4757537 0.51999754 0.21357362 -0.24000269 0.2438073 0.20745306 0.6861097 -0.21200094 0.20796041 -0.18366441 0.18460084 -0.056154802 -0.7934126 0.64184767 0.58668387 0.023427924 0.4292507 -0.3191037 -0.22470836 -0.24668965 0.0033515338 -0.40931076 0.519721 0.5563424 0.24600966 0.06384521 -0.80325806 0.50936586 0.0008754378 0.853476 -0.048530165 0.06989497 -0.22422932 0.3855856 -1.0022606 0.37882814 0.105660364 -0.371091 -0.13856813 -0.15392295 -0.4619234 -0.29692355 0.012612318 -0.52378654 -0.08659058 0.422156 -0.5755786 0.014998636 0.043479867 -0.21664932
279 0.7303488 -0.08615579 0.35691607 0.15921514 0.37563035 -0.6045865 0.13141456 -0.26432437 -0.41672492 0.16647942 0.11987903 -0.5322757 -0.45594868 0.18532652 0.93519026 -0.50005364 -0.3125383 -0.027872505 0.8112643 -0.24410705 0.24343358 0.3244146 -0.27533153 -0.9880518 0.85636514 -0.19774756 -0.14335068 0.6336058 0.44338042 -0.1216534 0.5188784 -1.0674943 -0.3580864 -0.7794193 0.5507863 -0.10408367 0.5802696 -0.32965568 -0.30447638 0.36955887 -0.30840945 0.44014722 0.5060005 0.050246216 0.15343651 -0.37326014 0.60262144 -0.056389216 0.31341025 -0.46118873 0.17432418 0.10614673 0.58599573 -0.121695526 -0.7660993 -0.53174305 0.19133428 -0.083324164 -0.22376396 0.35661903 -0.85685384 0.6111283 0.54280263 -0.12074087
163 0.103383526 0.30233154 0.35508153 -0.21455686 -0.29234916 0.3870723 -0.01631652 -0.4179301 0.23486759 -0.89187133 -0.6043956 0.33778083 -0.014489889 0.15781166 -0.37034968 0.2372121 -0.39759633 -0.28203475 0.7586049 0.0047769737 0.6009856 -0.119974665 0.30326116 -0.033080295 0.12817073 0.11409996 -0.8379776 0.35120386 -0.038685083 -0.0012533576 0.03616513 -0.40541673 -0.40307826 0.20922054 0.525813 0.59732944 0.78498673 0.21693283 -0.40250686 -0.6243225 0.18205294 0.7174458 0.40171936 0.5027082 0.37947598 0.17384006 0.17165987 0.04057192 0.049742423 -0.06506345 0.15065335 -0.27445418 -0.06024858 0.27183712 -0.3687452 -0.78732264 -0.009838832 0.8648336 -0.061442424 0.42380902 -0.49132526 0.30525935 0.5622307 -0.17361335
210 0.5130421 -0.18993458 -0.1660109 -0.9936523 -0.18487084 -0.55616754 0.33159652 -0.116013154 -0.087657705 0.40175888 0.03361514 0.23377089 -0.638513 -0.5749467 0.48155728 -0.09612754 -0.7621081 -0.37439057 0.2222606 0.012977149 0.40901798 -0.29234022 0.12962776 0.122332275 0.71718997 -0.41363955 -0.1265317 0.17974 0.08403651 -0.26617104 0.33286563 -1.4215587 -0.38879988 -0.65697414 -0.09265046 -0.36539173 0.089145295 0.28396082 -0.04187633 0.13125399 -0.497152 0.42836908 0.7112816 0.43404713 0.3877063 0.8664745 0.18749797 1.2272705 -0.35755938 0.19579783 0.3927876 -0.91290003 0.23734173 0.2393015 -0.19500265 -0.3949419 0.37169912 0.13960277 0.37392735 1.3505917 -0.056763276 0.018582875 -0.18959503 -0.052558325
199 -0.1361018 0.09633532 0.3684769 0.43836418 0.2769769 -0.31728563 0.24401605 0.23175809 -0.20681411 -0.14319763 0.012379019 -0.53418225 -0.4740931 -0.2177873 1.1865968 -0.067408 -0.35974172 0.26878834 0.6404477 0.13643007 -0.38324308 0.09063169 -0.6643996 -1.2072239 0.772945 0.06205937 -0.63381875 0.29727304 0.2662241 0.1438361 0.12989517 -1.4360045 -0.33750546 -0.16244765 0.7874694 -0.3032676 0.31074962 0.09422035 0.101560764 0.018462438 -0.39235562 0.72689575 0.4096682 -0.10340762 0.47428143 0.022798337 0.63189375 0.5836916 0.06335999 -0.22041482 0.0015296084 -0.50841707 0.9032148 -0.53152514 -1.0876479 -0.1830015 0.011325393 0.55372894 -0.24672313 0.3756432 -0.5340491 0.27220717 0.8871322 -0.25025105
274 -0.54663604 -0.85356086 0.82844716 -1.1252337 -0.87085754 -0.07974224 0.06114356 -0.46344888 -0.15737113 0.0048670266 -0.41653377 -0.6820326 0.036939487 -0.44552222 0.40488985 -0.66440487 -0.5460084 0.117495604 0.7202946 -0.011180238 -0.53413475 -0.33453065 0.8572383 -0.2874242 -0.060298525 -0.39296526 -0.6593036 0.079347804 -0.12544374 0.1959292 0.6771284 -0.50942403 -0.31350318 -0.62106633 0.6797279 0.569629 0.45999518 0.5716255 0.031101333 -0.72976583 0.19561565 0.25703713 0.46194896 0.26032668 0.3226871 -0.12699383 0.16322756 0.12220005 -0.5535538 0.32766527 -0.105719596 -0.022087267 0.33865047 -0.83285755 -0.60571843 -0.53447324 -0.4035552 -0.09641929 -0.106140114 0.6833864 -0.5131188 0.47270724 0.46575275 0.22820865
262 0.41530305 -0.19410099 0.011881678 -0.84199256 -0.23987414 -0.41578415 0.37431994 -0.07104464 0.07890326 0.34085637 0.0543372 0.25227597 -0.68304276 -0.6224302 0.5931278 0.22501102 -0.8197147 -0.34850425 0.1799558 -0.11188404 0.4047155 -0.17763314 0.32216042 0.28137395 0.9347728 -0.48555863 -0.11701185 0.26810384 0.31491715 -0.3118799 0.3144317 -1.2906119 -0.34721977 -0.56815094 -0.06559332 -0.3031653 -0.05398846 0.18123652 -0.33936158 0.12542629 -0.3626263 0.34899092 0.7359643 0.507655 0.42042658 0.7499695 0.20286056 1.1890701 -0.2831139 0.28149387 0.47687325 -0.8460192 0.31037983 0.2366872 -0.32598716 -0.36409283 0.41240647 0.13098538 0.49877673 1.5627601 -0.41361594 -0.00063513516 -0.17690271 0.032760557
269 -0.52573127 -1.6009846 -0.33496872 -0.21014652 -0.011403137 -0.15822291 -0.5354083 0.1597574 -0.17411798 -0.13146907 -0.12801307 -0.6977953 -0.29376262 0.32342246 0.43845293 0.3612409 -0.33691165 0.14573681 0.28744438 -0.25128996 0.21210931 0.18743733 0.08055759 -0.40331763 0.16353527 0.122889295 -0.40336475 0.49086863 -0.36109045 -0.26419622 0.7838389 -0.36014718 -0.20068145 -0.8777775 0.5284279 0.6332051 -0.25721997 -0.1831098 -0.12603763 -0.22937383 -0.3842833 0.6553272 0.1298976 0.38105556 0.36178696 -0.29100096 0.012073971 0.11322784 -0.66011703 0.032967325 -0.26489636 -0.9493322 0.047438417 0.13340765 -0.42514274 -0.20828605 0.1905863 -0.1346622 0.046557665 0.72863066 -0.69866306 -0.35131782 0.041635398 -0.1377513
192 0.4436232 -0.66481876 0.48821497 0.2785848 0.26458374 -0.047719084 0.009798123 -0.69566655 -0.115125276 -0.21679765 0.2114251 -0.66820633 -0.5122555 0.34701893 0.57241136 0.38530976 -1.2722301 -0.64147896 0.665589 1.1495117 0.29760048 -0.30120888 -0.11234468 -0.6415032 0.7140855 0.0018357587 -0.19272669 -0.020907529 -0.27236947 -0.90718204 0.19506647 -0.483218 -0.9048109 -0.21926728 0.15349634 -0.13697591 -0.11256122 -0.18642586 -0.8932839 -0.14862534 -0.22917488 0.18777724 -0.13956314 -0.5662212 0.3073523 0.44668534 0.15415107 0.38532746 -0.90615696 -0.37857366 0.40879226 -0.103397965 0.11166967 0.41100547 -0.55128825 -0.36189556 -0.18923256 0.25221878 0.30142012 0.64838016 0.38132495 -0.078258045 0.38453877 -0.71211356
289 0.4979899 -0.8631348 0.8435571 0.16020286 0.10123316 -0.0015564774 -0.09213739 -0.59484327 -0.01866609 0.04259741 0.42981783 -0.61311823 -0.57779753 0.10278997 0.5659884 0.42478412 -1.3862984 -0.5508247 0.6715027 1.202528 0.22608925 -0.25986418 -0.14326571 -0.39883116 0.5967521 -0.09225468 -0.23085156 0.019544732 -0.29182735 -0.5940934 0.047040604 -0.41017556 -0.9270712 -0.24875356 0.28237075 0.09040585 -0.026388558 -0.06708235 -0.8374632 -0.02702237 0.024375403 -0.094764225 0.049848374 -0.43091342 0.47216052 0.31322443 0.05956167 0.542001 -0.99536794 -0.6155365 0.37866485 0.05875157 0.09884095 0.20048977 -0.28836372 -0.33081466 -0.2559555 0.012840764 0.13267079 0.7419937 0.26406428 0.23765062 0.6990868 -0.47869155
241 0.6653779 -0.49344552 -0.24724546 -0.76532316 -1.0003831 0.02487967 -0.5990894 -0.12527493 -0.074524514 0.0030311656 -0.43132356 -0.31743738 -0.4912774 -0.23501694 0.4742272 -0.45409408 -1.0190768 -0.17017196 -0.22977616 0.48688215 0.20515871 -0.23305002 0.17200479 -0.8229091 0.2820705 -0.22971968 -0.29376182 0.5640245 -0.024677292 0.30052626 -0.11993674 -0.8619548 -0.2207112 -0.32072946 0.006166245 -0.73858374 0.3802226 -0.057136554 0.27748084 0.16148478 -0.1852633 0.5596502 -0.5571702 -0.07284233 0.51768154 -0.17089085 -0.37038204 0.35313466 0.08678779 -0.5063023 -0.37333375 -0.72759837 -0.12837474 0.08636817 -0.26042566 -0.95199174 -0.18147683 0.46736985 -0.292112 0.522509 0.043616783 0.39992675 0.26337224 -0.644372
133 -0.37947792 -1.6653023 0.2780509 -0.46608958 -0.05711576 -0.2533717 -0.72081727 0.15703082 -0.40352795 0.05017433 0.20196171 -0.62776095 0.025495017 0.36253655 0.5648291 0.2709342 -0.2699827 0.19227004 0.12987235 -0.112453245 0.050511237 -0.11254905 0.15381986 -0.24159174 -0.046620835 0.058220144 -0.4860434 0.23374185 -0.18565986 -0.1404802 0.8550068 -0.5492177 -0.03278939 -0.76500595 0.42745084 0.75071275 -0.040698953 0.0684206 -0.021033853 -0.41756925 -0.16790254 0.5118999 0.02152206 0.36528733 0.3921677 -0.35078317 -0.005002563 0.4015588 -0.54670995 -0.086845204 -0.22353074 -0.75536644 0.38115755 0.28962278 -0.34569943 -0.214169 0.09471224 -0.0019859402 -0.076676935 0.60197026 -0.69334054 -0.3548444 0.04584644 -0.27266037
63 0.60255307 -1.0260538 0.53731495 -0.684906 -0.44651353 -0.0074717714 0.7724067 -0.21987139 -0.011212827 -0.09218879 -0.34742236 -1.067208 0.3424015 -0.22853877 0.77244705 0.023070563 -0.10470945 -0.23061036 0.31174538 0.8687733 0.30407426 -0.48593134 -0.29290235 -0.555472 1.0576788 -0.15779962 -0.69279605 0.6695037 -0.5012502 0.35142976 -0.27850172 -0.11062342 0.19697174 0.15598197 0.22877772 -0.16725409 0.20408599 0.12852883 -0.024268968 -0.18984206 -1.000407 0.19301616 0.30213192 0.30506167 -0.4044048 -0.2780418 0.41269082 0.08925789 -0.12724614 -0.41811883 0.65466166 -0.19787186 0.14967854 0.23125467 -0.39684582 -0.43687573 0.7475775 0.66497815 0.078898504 1.1428931 -0.44563413 -0.13940142 0.21071312 -0.0015744207
24 -0.18099649 -0.7045136 1.0420189 -0.21335821 0.3367192 -0.10412658 0.3424945 -0.19841886 -0.44160932 -0.5527051 -0.19837725 0.05705498 -0.09288731 -0.35679162 0.26269183 -0.77426124 -0.28218994 0.34918803 -0.41708675 0.61714834 0.21836667 -0.2892999 0.5058907 -1.4729753 0.43322262 -0.5145221 -0.96701396 0.16598842 0.26476744 -0.31464785 -0.43620276 -0.61648136 -0.31973687 -1.2002928 0.55493027 0.42778337 0.42223033 -0.9536266 -0.91963744 0.41387907 -1.4175493 0.47975874 0.4595688 0.12355115 1.0056074 0.09156856 -0.14006904 0.5195744 0.08183335 -0.06897636 0.40409398 -0.40875515 -0.02861154 0.7647573 -0.019050581 -0.28083637 -0.05319668 0.44034162 0.52175194 1.1270251 -0.07472574 0.17532717 0.21405397 -0.41648573
237 -0.350289 -0.50882083 0.9988868 -0.089782186 0.30746967 -0.16423582 0.35551178 -0.1658838 -0.5197676 -0.6313147 -0.18212102 0.020662189 -0.10091151 -0.41067246 0.41257977 -0.8460803 -0.32534868 0.17034511 -0.37514815 0.55129445 0.1159278 -0.4700232 0.4391364 -1.4321476 0.3629869 -0.58354855 -0.7646844 0.38997054 0.07914687 -0.4145118 -0.5870603 -0.46409208 -0.27671763 -1.2645202 0.4925888 0.3930068 0.5201199 -1.0397711 -0.9043986 0.17898495 -1.2595803 0.58827513 0.45702288 -0.025408722 0.9552612 0.0074322484 -0.08439083 0.71932226 0.06767558 -0.11582584 0.4207523 -0.5595494 -0.14832376 0.7206461 -0.049643427 -0.094941534 0.05098827 0.39776263 0.45145205 1.2292374 -0.15675808 0.33561212 0.18416364 -0.42287716
257 2.1481316 -0.42165056 -0.023225853 2.7610571 -3.619412 4.6457567 0.57238096 0.15232146 2.3399887 -1.197502 -1.2413306 -1.0149323 0.25529125 -0.25187978 -1.2943072 2.7825358 -2.6147616 -0.10329903 3.420032 -0.69052255 -0.06051192 -0.6117032 3.223195 -0.3131184 3.479801 -0.124156974 -3.2584095 0.54366255 -1.7640041 0.16710915 1.8859029 -0.32459292 -0.45441908 -1.1894171 -1.5843781 -0.77051663 -0.30374074 0.8068189 1.7898097 -1.3492097 0.419583 0.7677496 0.3432373 3.2299144 6.073529 -2.750362 -0.831875 2.0044458 -5.099756 -1.854174 -0.23903222 2.3157125 -0.30518496 -4.8313093 -0.5615735 1.8582273 -0.06657059 1.0762775 0.50849557 3.4490654 -1.7279477 5.1312075 0.07088625 0.29455152
275 2.1425734 -0.4271791 -0.032914024 2.75286 -3.618495 4.640973 0.57411623 0.15232825 2.3352766 -1.1905655 -1.2508138 -1.0127923 0.2556279 -0.23866631 -1.2900662 2.7795951 -2.6081324 -0.09156261 3.409106 -0.6856916 -0.06586407 -0.6050497 3.220342 -0.30964833 3.4809783 -0.13779725 -3.264293 0.5441814 -1.745269 0.17240265 1.8846657 -0.317392 -0.45992386 -1.19072 -1.5871793 -0.764374 -0.30431795 0.8066741 1.771338 -1.3508548 0.4115559 0.7694573 0.35023198 3.23019 6.080143 -2.7534375 -0.8258149 1.9999357 -5.093157 -1.8485931 -0.23596618 2.3108177 -0.3010311 -4.828676 -0.55817616 1.860312 -0.07084365 1.0800124 0.51053596 3.4361286 -1.7333215 5.120194 0.07631054 0.2860845
83 2.1260777 -0.40983012 0.018026493 2.7389295 -3.6020527 4.5879984 0.6208287 0.20206787 2.2935455 -1.1493222 -1.2265601 -1.017785 0.22613236 -0.22871742 -1.2523422 2.8041003 -2.5688481 -0.044887673 3.4028585 -0.62246007 -0.08194743 -0.6075837 3.1938806 -0.2688058 3.4387875 -0.11346986 -3.2652035 0.5859258 -1.7018365 0.17568189 1.8505936 -0.36461493 -0.41055322 -1.1612799 -1.6137147 -0.7006317 -0.26725382 0.8259152 1.742654 -1.3036243 0.36529443 0.77310395 0.3490624 3.2059345 6.0017004 -2.721978 -0.8200827 2.0048132 -5.049881 -1.8363676 -0.2215266 2.2985914 -0.32506004 -4.850922 -0.55709726 1.8500973 -0.0123441145 1.0950953 0.43470642 3.4217162 -1.7309468 5.0740366 0.0753156 0.23565318
6 2.124177 -0.40594846 0.027305977 2.7420695 -3.5964134 4.587236 0.6212995 0.20567644 2.2974184 -1.1454179 -1.2304156 -1.02192 0.22391155 -0.21989249 -1.2493595 2.8092518 -2.561537 -0.031042647 3.4029827 -0.6108445 -0.08185272 -0.5924874 3.1995227 -0.26907435 3.4309595 -0.11379609 -3.2708044 0.5856598 -1.7010511 0.17239791 1.8509462 -0.361563 -0.4097945 -1.1671563 -1.616586 -0.71088994 -0.27883056 0.8161448 1.7446717 -1.2944357 0.35547924 0.77802527 0.35509142 3.211696 6.0106664 -2.7254245 -0.81766284 2.008478 -5.060725 -1.8386377 -0.22470737 2.2915144 -0.33570814 -4.854641 -0.55491257 1.8543566 -0.015176707 1.1029292 0.4287921 3.426313 -1.7346139 5.0758586 0.07686611 0.23948468
44 2.1379752 -0.3915604 -0.002888944 2.748884 -3.610101 4.602893 0.5729884 0.17182407 2.314663 -1.1939921 -1.2334177 -1.0329542 0.22030857 -0.25479424 -1.3096153 2.7619345 -2.6164699 -0.07437741 3.437213 -0.67625946 -0.04227842 -0.5922645 3.2102957 -0.30327997 3.470168 -0.1475377 -3.2720675 0.55808043 -1.728094 0.13758877 1.8294522 -0.3331346 -0.43050715 -1.1925726 -1.559364 -0.77698785 -0.25117552 0.8179638 1.7848734 -1.3193889 0.41794944 0.7591604 0.33598873 3.2289438 6.0818453 -2.746789 -0.84564126 1.990881 -5.040787 -1.8507304 -0.22670925 2.3207235 -0.33956942 -4.834843 -0.54687154 1.8612717 -0.073147036 1.1029184 0.5021729 3.4404511 -1.7331139 5.1591773 0.072284445 0.29961
7 2.142187 -0.38901106 -0.0045227995 2.7584913 -3.616064 4.603013 0.5660619 0.16015646 2.3122084 -1.2082217 -1.2321515 -1.0330579 0.22313547 -0.2544953 -1.305154 2.7640307 -2.6189206 -0.089279264 3.4366755 -0.67548853 -0.0439017 -0.59505725 3.2172136 -0.30715394 3.4726033 -0.13663542 -3.2853355 0.56030893 -1.7320871 0.13506743 1.8367567 -0.3281638 -0.4212919 -1.1903636 -1.5638479 -0.78342366 -0.25688994 0.8083938 1.7907348 -1.3132547 0.42279288 0.7553714 0.33797452 3.2268462 6.0889096 -2.750481 -0.8402653 1.9968327 -5.04294 -1.8509645 -0.21608876 2.326708 -0.34613138 -4.833345 -0.5472394 1.870378 -0.07403612 1.1061608 0.518795 3.4425437 -1.7332753 5.155793 0.059932083 0.30169877
301 0.65629905 -0.54798186 0.29852864 -0.7045114 -0.0019403046 -0.24879542 0.2702622 -0.5106964 -0.002160735 -0.2530552 -0.64844507 -0.5465692 0.4713268 0.1539456 0.4036951 1.2596971 0.10144954 0.55508566 -0.2586716 0.5090584 0.40568882 -0.8252054 -0.38681838 -0.31820634 0.354373 -0.7098168 0.13584366 0.25021967 -0.03140691 -0.5655389 0.2827768 -0.72157484 -0.7802259 -0.95681155 0.5434595 0.28458497 0.5508652 -0.12525813 -0.40107703 0.32127532 -0.75639075 0.6617339 0.024217071 -0.3570796 -0.07541354 0.72851735 -0.5185849 0.11539777 -0.081431635 -0.6449325 0.44623765 -1.2016861 1.0309871 -0.58239913 -0.41882455 -1.023088 0.10256321 -0.13519643 -0.3043219 0.8837029 -0.19357735 0.9242237 0.27947116 -0.6255901
20 0.8626233 -0.58571994 0.24337107 -0.71968323 0.14184104 -0.1327857 0.2628678 -0.56349236 0.07726332 -0.19041047 -0.67032105 -0.5754351 0.38904884 0.11567746 0.25446138 1.1300025 0.15149036 0.5449223 -0.22002286 0.6076163 0.33058944 -0.8879645 -0.28381965 -0.22311154 0.538093 -0.5709027 0.18557915 0.48618442 0.07397271 -0.5352418 0.18164435 -0.67926115 -0.9844306 -0.83433163 0.5511834 0.36895937 0.524799 -0.29697162 -0.24353336 0.2903502 -0.66702586 0.56278104 0.18481296 -0.30285233 -0.11062247 0.71019095 -0.6868931 0.060515024 -0.07837814 -0.54059935 0.26475725 -1.2078255 0.9572458 -0.71685404 -0.73448414 -1.0176895 0.258874 -0.2565293 -0.36801454 0.8967691 -0.2943218 0.75015146 0.36961606 -0.63012195
181 -0.0144399125 -1.4373348 1.0423284 -0.29382896 -0.048365343 -0.23249936 -0.20150828 -0.3163799 -0.102595285 0.3076106 0.37932643 -0.9722291 -0.017031351 -0.022499418 0.36908132 -0.0469564 -1.0742741 -0.08547385 0.70854664 0.41287947 -0.34727728 -0.32481983 0.24763009 -0.4891171 -0.19005309 -0.036267612 0.11419291 0.102213815 -0.6518014 -0.16716221 0.6591558 -0.38074577 -0.57752836 -0.5800022 0.27701536 0.8012546 0.10282084 0.18161593 -0.31404716 -0.04307911 -0.05854713 0.08260683 0.1208942 0.24294026 0.89017177 0.04764549 0.09290396 0.4448925 -0.7643781 -0.15565236 -0.1400588 -0.47664124 0.2794512 -0.13335013 0.09785035 -0.51020044 -0.25635836 0.16118085 -0.42802176 0.7767939 -0.51158035 -0.045511838 0.3925175 -0.18351468
295 0.13407174 -0.49035487 -0.20981261 -0.3694559 -0.6021785 -0.35279295 0.29057547 0.6030945 -0.35758647 -0.3381903 0.11350468 -0.39332685 0.19770359 0.15934734 -0.089603245 0.19320045 -0.17707714 -0.29958206 0.14841238 0.72512656 -0.24515374 -0.08223604 -0.4324166 -0.4087987 0.02058261 -0.47370604 -0.41526926 0.93965393 0.647601 -0.5510177 0.9353233 -0.51948804 -0.6956441 -0.15230335 0.28140312 -0.27139518 0.13773476 -0.2929132 0.032238673 -0.52528757 -0.8902667 -0.34337348 0.90669453 -0.72898996 0.84095746 -0.0817462 -0.13503256 0.17832507 -0.35007444 0.12572415 0.18331836 0.05260244 0.088229924 0.100862 -0.60878205 -0.6541072 -0.3032096 0.8676835 0.2760715 1.1575838 -0.5180555 0.7497726 0.026075082 -0.44091794
66 0.17304115 -0.066403255 0.18084948 -0.11357293 -0.35683545 0.3740907 -0.0677504 0.06961085 -0.35174096 -0.38408026 -0.22920434 0.13414516 0.27937758 -0.43841588 -0.023379628 0.4541447 -0.61451906 0.22648633 0.93900883 0.28456193 0.6064897 -0.26769784 -0.41602334 -0.07963982 0.75465184 0.15457976 -0.2528712 -0.20123835 0.32272738 -0.06797848 0.5414859 -0.035691727 0.38096696 -0.67831767 0.15136203 -0.15081203 0.45223367 -0.3319479 -0.1661824 -0.48012197 -0.39861053 0.3391947 0.43695977 0.1207301 0.28605503 0.4272462 -0.19028579 0.43453854 -0.1503549 -0.20744155 -0.11061036 -0.100848936 0.027351232 0.42053667 -0.07614377 -0.10469359 0.3500367 0.6394907 -1.0126799 0.57423407 -0.66569006 -0.023057157 0.7356926 -0.81058854
194 0.5772259 -0.75235456 0.21097021 0.31060234 0.11070697 0.12686051 -0.1547726 -0.6613707 -0.16180885 -0.088614866 0.19548947 -0.6112385 -0.530572 0.5170965 0.50690943 0.38472107 -1.1884642 -0.5756647 0.48722005 1.0525043 0.3910832 -0.37558895 -0.28388056 -0.4844286 0.9874739 0.09915095 -0.29321223 0.15761183 -0.07692343 -0.7372618 -0.12671433 -0.65656984 -1.1777391 -0.24632189 0.2427501 -0.14728642 0.035825294 -0.2905494 -0.99242127 -0.13713658 -0.24382551 0.39022818 -0.08242974 -0.61082035 0.4131078 0.33098233 0.02662175 0.29720294 -1.0726868 -0.27701747 0.53605676 -0.11423938 0.05634107 0.2537742 -0.2870274 -0.05942407 -0.071806066 0.29014 0.27772996 0.6187457 0.36074072 -0.04234119 0.5349164 -0.5196765
101 0.62999374 -0.27436772 -0.028296929 -1.1271824 -0.7594235 -0.032534648 -0.08990197 0.058487967 -0.122211285 0.2789111 -0.45214885 -0.034038033 -0.9485297 -0.5248289 0.39215118 -0.28546855 -0.8841512 -0.16480933 0.040285908 0.03731883 0.38516536 -0.103855014 0.2902582 -0.32583418 0.42138714 -0.36716154 0.17207451 0.5830835 0.041757036 0.00868493 0.091029115 -1.09282 -0.116991766 -0.6522336 -0.3615124 -0.5512922 -0.16344537 0.26900434 -0.26310876 0.2003393 -0.33367673 0.7801198 0.1279258 -0.032091197 0.70199025 0.741253 0.034049325 1.0492051 -0.15117608 -0.0036835466 0.101596065 -0.66900814 0.22981574 0.19589996 -0.41338888 -0.7515228 0.17226774 0.59153074 0.102079004 0.7452611 -0.12662876 -0.008857997 -0.13191906 -0.31496677
151 0.17860042 -0.35411116 -0.25844705 -0.4292296 -0.48857838 -0.5065792 0.3037742 0.8474874 -0.24849801 -0.14836642 -0.01939729 -0.5657981 0.33152276 0.23928803 -0.31693128 0.20092683 -0.31204182 -0.22928476 0.1946535 0.82521087 -0.1887817 -0.24678062 -0.411069 -0.5654605 -0.1790482 -0.5108913 -0.35452035 0.95429057 0.72180915 -0.6335051 0.94384223 -0.6098863 -0.6772463 -0.29996386 0.48893976 -0.27368778 0.07867859 -0.2646517 0.044351045 -0.33122712 -0.59436893 0.019139044 0.9264806 -0.69669265 0.9599218 0.1917608 -0.097683385 0.17309937 -0.34798858 -0.11707417 0.09963486 0.1429091 0.106173426 0.13610457 -0.28357047 -0.5758959 -0.40118724 0.72662026 0.5699329 1.2533525 -0.6414837 0.60720664 0.21902859 -0.49181324
52 0.19245635 -0.5312266 -0.04967127 -0.8813664 -0.9816697 -0.0581758 -0.533765 0.48069558 -0.28987408 -0.31694517 -0.17212816 -0.6058768 -0.9633469 -0.21940257 0.43580678 -0.47135058 -0.6338208 -0.2179125 0.21307808 0.52599806 0.37461212 -0.510343 0.33897707 -0.8549856 0.53132695 -0.22287095 -0.2608282 0.3631965 -0.008901144 0.31450123 -0.23138876 -0.6316036 -0.23321003 -0.26312643 -0.21872653 -0.6201984 0.33235717 -0.1860367 -0.1757072 0.30054143 -0.07813362 0.42565954 -0.12483163 -0.12088949 0.5593805 0.121726535 -0.54104847 0.06975631 0.24301961 -0.48038346 -0.34064567 -0.7409087 -0.14850466 0.11446127 -0.4310006 -1.0026423 -0.07531804 0.52158874 -0.56045604 0.27364436 0.26058635 0.4844154 -0.06103398 -0.38083503
29 -0.14125891 -0.9419665 0.14946058 -0.17145823 -0.8186365 -0.155963 0.16321649 -0.07618054 -0.051078722 0.04281424 -0.14514574 0.79434806 0.2268123 -0.08649968 0.1766467 0.4241275 0.12812397 -0.7471419 0.4473694 0.6622383 -0.15896682 -0.18407945 -0.60424596 -0.8286241 0.14342034 -0.5144199 -0.40077874 0.6945286 0.04954611 -0.3930229 0.53629243 -0.5896878 -0.96802783 -0.34632713 -0.17266887 -0.3879595 0.020170067 -0.58287835 -0.38435748 -0.2343262 -1.2177626 0.03687781 0.59216183 -0.096234724 0.18715644 -0.38584676 0.07837494 0.5427703 -0.26707634 0.26396412 0.08234968 -0.038973253 0.122297145 -0.2666755 -0.49789077 -0.85448414 -0.22822529 0.5755952 -0.29184452 0.40548936 -0.49506396 0.38894603 0.17810196 0.113208145
263 -0.32004735 0.24300964 0.2644584 -0.89286155 -0.8790387 -0.54620236 -0.0379334 -0.56666934 -0.6732761 -0.017475577 0.36956945 0.19173373 0.31027028 0.47394964 0.88090456 0.29339635 -0.6531093 0.12098587 0.37404042 0.6230388 0.5131152 -0.19963337 -0.3681074 -0.95513797 0.90887886 0.38802746 -0.8258769 0.89986885 0.39114755 -0.38454443 0.063197725 0.10804419 -0.4133084 -0.19144742 -0.1616084 0.51708436 0.43850753 0.069339685 -0.08521585 0.8153318 -0.72800803 0.21846293 -0.08867694 0.136633 0.34296557 0.6722568 -0.31195724 0.4954161 -0.36007893 -0.4209707 -0.49563798 -0.31209373 0.28777736 -0.006707387 -0.65555936 -0.0014789725 0.153314 0.198598 0.5605978 0.9729756 -0.44459978 0.5406215 0.533469 -0.019940872
82 -0.60040194 -0.4269023 0.89739025 -1.1941047 -0.97428226 -0.1733793 0.26850855 -0.5575017 -0.07974701 0.018039903 -0.45277217 -0.681288 0.04920105 -0.4559834 0.20946063 -0.54578054 -0.311237 0.23701213 0.31429103 0.2379433 -0.3603114 -0.27392665 0.71873504 -0.41978472 -0.11222833 -0.3272076 -0.8327764 0.027120726 -0.17447625 0.30249158 0.59875757 -0.4678156 -0.31135023 -0.59474355 0.74344695 0.8524118 0.27084762 0.21970631 -0.051170837 -0.5935541 0.11224651 0.4405044 0.60857695 0.3495989 0.24693604 -0.026999688 -0.026518073 0.34268546 -0.4821156 0.18365203 -0.19860202 -0.23476054 0.20785035 -0.72019583 -0.64015293 -0.47222796 -0.5298237 -0.26279345 -0.06676232 0.7145471 -0.48632163 0.7121085 0.4674961 0.066670686
296 0.9054146 -0.46563914 0.11842031 -0.14903495 0.26839548 -0.57900614 -0.035664927 -0.39929363 -0.36149514 0.28258637 0.13873778 -0.5698919 -0.2924113 0.16149029 0.5429439 -0.41627094 -0.5602127 -0.04317854 0.8036882 -0.26067594 0.90531635 -0.28308105 -0.58354145 -0.6724042 0.8832017 -0.3429377 -0.18407694 0.9977588 0.4281156 -0.28878862 0.42094085 -0.8588259 -0.123592824 -1.0733346 0.2970883 0.029844603 0.64421403 -0.4373023 -0.40744016 0.22512041 -0.5275673 0.33619848 0.4302802 0.07068421 0.46665075 -0.27027816 0.3672865 -0.173092 0.5600503 -0.5593896 0.30774757 0.30172396 0.3763953 -0.005622682 -0.5422921 -0.14250849 -0.3488579 -0.1840207 -0.3171629 0.30413795 -0.7050535 0.48672956 0.049979974 0.30768085
197 0.08566049 0.17499694 0.42668608 0.3684055 0.22219762 -0.43805847 0.2356171 0.3159383 -0.071867995 -0.27187145 0.11571754 -0.54343414 -0.59137404 -0.07513457 1.2229577 -0.037968863 -0.386391 0.32962573 0.43448803 -0.080040544 -0.12739317 -0.050425194 -0.6169212 -1.2288957 0.7693395 -0.12641902 -0.6103308 0.33224458 0.17961544 0.01286018 0.15491962 -1.5086569 -0.31923813 -0.3629928 0.93058854 -0.11901322 0.2721341 -0.0046279915 -0.017211715 0.15941285 -0.3910273 0.6808067 0.46373022 -0.047832903 0.1659607 0.021700898 0.5906615 0.44673428 -0.04044619 -0.13518757 -0.05285497 -0.14582793 0.9233587 -0.470701 -0.90518194 -0.26691332 -0.15578014 0.56680125 -0.3780049 0.47300965 -0.41267776 0.2875141 0.9198072 -0.20820339
75 0.10099872 -0.5160213 0.15184231 -1.0342573 -1.0828109 0.20020714 -0.43199247 0.5455494 -0.24860659 -0.2590996 -0.14636895 -0.71089345 -0.96580356 -0.14533964 0.49318275 -0.27332154 -0.45111355 -0.26581818 0.44296548 0.567794 0.50958216 -0.4318752 0.23939575 -0.9020768 0.49433687 0.06836177 0.016537093 0.3335418 0.0717234 0.268126 -0.060230065 -0.5045349 -0.4222285 -0.13434966 -0.022316452 -0.710762 0.4097365 -0.17663915 -0.08270629 0.26036373 -0.15806983 0.4170266 -0.2160416 -0.09210769 0.7709597 0.11590565 -0.2705309 -0.10901033 0.23539846 -0.6394687 -0.4664849 -0.7918717 0.032089297 0.13153058 -0.64205766 -1.3279486 -0.15450999 0.4487692 -0.48524544 0.11349452 0.10605208 0.21045625 -0.23685947 -0.48677126
110 -0.47547266 -1.5015914 -0.5639124 -0.29553583 0.03559578 -0.003793237 -0.468699 0.022360496 -0.628949 -0.24508002 -0.25712654 -0.6836976 -0.35955334 0.5335277 0.3549977 0.33357662 -0.36303404 0.29528496 0.29229015 -0.51650184 -0.14552042 -0.017260382 0.08132405 -0.4401817 0.40142098 -0.019053282 -0.5473763 0.5503035 -0.47695577 -0.0925017 0.69510865 -0.5450478 -0.5595818 -0.7414237 0.44094488 0.4450474 -0.30465528 -0.24173802 -0.0431731 -0.19586113 -0.63349587 0.6008465 0.41566432 0.20013669 0.19774765 0.03565215 0.18536136 -0.058337767 -0.4234796 -0.16665736 -0.093134485 -1.1206751 0.011605108 0.49625212 -0.09561901 -0.46117166 0.2438946 0.15868141 -0.21360444 0.6242633 -0.8232171 -0.3487892 -0.21189108 -0.21673161
158 0.42651293 -0.49848244 0.2724143 -0.70639503 0.60359204 -0.30506822 -0.047215275 0.46692425 0.08259785 -0.63582903 -0.019089233 -0.097688384 0.3522357 0.7879952 0.12930836 0.2980766 -0.8500004 -0.5008203 0.19940424 -0.039882854 0.096773386 -0.42785746 0.15374528 -0.26393622 0.4366452 0.35209882 -1.0838542 1.2211572 -0.6621848 -0.1820234 -0.06758108 -0.42863876 -0.61815184 -0.74033844 0.5983345 -0.5103704 0.6342748 0.5246416 -0.8670687 0.88224334 -0.71182036 -0.20002617 0.52030724 0.03388252 0.59607416 -0.087911844 0.1951041 0.8539549 0.11261434 -0.66864073 0.2730687 -0.7939568 0.072937 -0.5663802 -0.50103754 -0.75613874 -0.13887656 0.6904037 0.18578228 0.49246064 -0.22911645 -0.05890035 0.23979895 -0.15177315
255 0.054994486 0.23878418 0.2936423 -0.6894795 -0.6823325 0.18986036 -0.20121998 -0.7877905 -0.45438218 -0.35185593 -0.6331229 -0.42194107 0.1047846 -0.060639013 -0.14407232 0.27664804 -0.21837138 -0.021351093 0.18486014 0.022955239 0.30132005 -0.38430616 0.34562397 -0.32805306 0.117629014 -0.5232433 -1.0461147 -0.200606 0.09724383 -0.576208 0.30966642 -0.338021 -0.44172072 0.112092085 1.1010518 -0.028261336 0.22215198 0.20881605 -0.29906172 -0.64996994 -0.094696775 0.55576897 0.55715585 0.30493212 0.22984363 0.056778155 0.34898764 0.48925346 0.18230833 -0.25799257 -0.26717088 -0.016756767 0.08722285 0.06002761 -0.612914 -0.19521217 -0.0002760054 0.24331541 -0.013654436 0.45659694 0.34920335 0.22224328 0.21195476 0.4281605
